{"learner":{"attributes":{},"feature_names":["L5_AST","L10_AST","L10_AST_STD","RECENT_TREND_AST","IS_HOME","REST_DAYS","IS_BACK_TO_BACK","IS_RESTED","L5_MIN","L10_MIN","USAGE_RATE","L5_PTS","L5_REB","VS_OPP_AVG_AST","OPP_DEF_STRENGTH_AST","OPP_PACE","TEAM_PACE","L5_WIN_PCT","L5_PLUS_MINUS"],"feature_types":["float","float","float","float","int","float","int","int","float","float","float","float","float","float","float","float","float","float","float"],"gradient_booster":{"model":{"cats":{"enc":[],"feature_segments":[],"sorted_idx":[]},"gbtree_model_param":{"num_parallel_tree":"1","num_trees":"1000"},"iteration_indptr":[0,1,2,3,4,5,6,7,8,9,10,11,12,13,14,15,16,17,18,19,20,21,22,23,24,25,26,27,28,29,30,31,32,33,34,35,36,37,38,39,40,41,42,43,44,45,46,47,48,49,50,51,52,53,54,55,56,57,58,59,60,61,62,63,64,65,66,67,68,69,70,71,72,73,74,75,76,77,78,79,80,81,82,83,84,85,86,87,88,89,90,91,92,93,94,95,96,97,98,99,100,101,102,103,104,105,106,107,108,109,110,111,112,113,114,115,116,117,118,119,120,121,122,123,124,125,126,127,128,129,130,131,132,133,134,135,136,137,138,139,140,141,142,143,144,145,146,147,148,149,150,151,152,153,154,155,156,157,158,159,160,161,162,163,164,165,166,167,168,169,170,171,172,173,174,175,176,177,178,179,180,181,182,183,184,185,186,187,188,189,190,191,192,193,194,195,196,197,198,199,200,201,202,203,204,205,206,207,208,209,210,211,212,213,214,215,216,217,218,219,220,221,222,223,224,225,226,227,228,229,230,231,232,233,234,235,236,237,238,239,240,241,242,243,244,245,246,247,248,249,250,251,252,253,254,255,256,257,258,259,260,261,262,263,264,265,266,267,268,269,270,271,272,273,274,275,276,277,278,279,280,281,282,283,284,285,286,287,288,289,290,291,292,293,294,295,296,297,298,299,300,301,302,303,304,305,306,307,308,309,310,311,312,313,314,315,316,317,318,319,320,321,322,323,324,325,326,327,328,329,330,331,332,333,334,335,336,337,338,339,340,341,342,343,344,345,346,347,348,349,350,351,352,353,354,355,356,357,358,359,360,361,362,363,364,365,366,367,368,369,370,371,372,373,374,375,376,377,378,379,380,381,382,383,384,385,386,387,388,389,390,391,392,393,394,395,396,397,398,399,400,401,402,403,404,405,406,407,408,409,410,411,412,413,414,415,416,417,418,419,420,421,422,423,424,425,426,427,428,429,430,431,432,433,434,435,436,437,438,439,440,441,442,443,444,445,446,447,448,449,450,451,452,453,454,455,456,457,458,459,460,461,462,463,464,465,466,467,468,469,470,471,472,473,474,475,476,477,478,479,480,481,482,483,484,485,486,487,488,489,490,491,492,493,494,495,496,497,498,499,500,501,502,503,504,505,506,507,508,509,510,511,512,513,514,515,516,517,518,519,520,521,522,523,524,525,526,527,528,529,530,531,532,533,534,535,536,537,538,539,540,541,542,543,544,545,546,547,548,549,550,551,552,553,554,555,556,557,558,559,560,561,562,563,564,565,566,567,568,569,570,571,572,573,574,575,576,577,578,579,580,581,582,583,584,585,586,587,588,589,590,591,592,593,594,595,596,597,598,599,600,601,602,603,604,605,606,607,608,609,610,611,612,613,614,615,616,617,618,619,620,621,622,623,624,625,626,627,628,629,630,631,632,633,634,635,636,637,638,639,640,641,642,643,644,645,646,647,648,649,650,651,652,653,654,655,656,657,658,659,660,661,662,663,664,665,666,667,668,669,670,671,672,673,674,675,676,677,678,679,680,681,682,683,684,685,686,687,688,689,690,691,692,693,694,695,696,697,698,699,700,701,702,703,704,705,706,707,708,709,710,711,712,713,714,715,716,717,718,719,720,721,722,723,724,725,726,727,728,729,730,731,732,733,734,735,736,737,738,739,740,741,742,743,744,745,746,747,748,749,750,751,752,753,754,755,756,757,758,759,760,761,762,763,764,765,766,767,768,769,770,771,772,773,774,775,776,777,778,779,780,781,782,783,784,785,786,787,788,789,790,791,792,793,794,795,796,797,798,799,800,801,802,803,804,805,806,807,808,809,810,811,812,813,814,815,816,817,818,819,820,821,822,823,824,825,826,827,828,829,830,831,832,833,834,835,836,837,838,839,840,841,842,843,844,845,846,847,848,849,850,851,852,853,854,855,856,857,858,859,860,861,862,863,864,865,866,867,868,869,870,871,872,873,874,875,876,877,878,879,880,881,882,883,884,885,886,887,888,889,890,891,892,893,894,895,896,897,898,899,900,901,902,903,904,905,906,907,908,909,910,911,912,913,914,915,916,917,918,919,920,921,922,923,924,925,926,927,928,929,930,931,932,933,934,935,936,937,938,939,940,941,942,943,944,945,946,947,948,949,950,951,952,953,954,955,956,957,958,959,960,961,962,963,964,965,966,967,968,969,970,971,972,973,974,975,976,977,978,979,980,981,982,983,984,985,986,987,988,989,990,991,992,993,994,995,996,997,998,999,1000],"tree_info":[0,0,0,0,0,0,0,0,0,0,0,0,0,0,0,0,0,0,0,0,0,0,0,0,0,0,0,0,0,0,0,0,0,0,0,0,0,0,0,0,0,0,0,0,0,0,0,0,0,0,0,0,0,0,0,0,0,0,0,0,0,0,0,0,0,0,0,0,0,0,0,0,0,0,0,0,0,0,0,0,0,0,0,0,0,0,0,0,0,0,0,0,0,0,0,0,0,0,0,0,0,0,0,0,0,0,0,0,0,0,0,0,0,0,0,0,0,0,0,0,0,0,0,0,0,0,0,0,0,0,0,0,0,0,0,0,0,0,0,0,0,0,0,0,0,0,0,0,0,0,0,0,0,0,0,0,0,0,0,0,0,0,0,0,0,0,0,0,0,0,0,0,0,0,0,0,0,0,0,0,0,0,0,0,0,0,0,0,0,0,0,0,0,0,0,0,0,0,0,0,0,0,0,0,0,0,0,0,0,0,0,0,0,0,0,0,0,0,0,0,0,0,0,0,0,0,0,0,0,0,0,0,0,0,0,0,0,0,0,0,0,0,0,0,0,0,0,0,0,0,0,0,0,0,0,0,0,0,0,0,0,0,0,0,0,0,0,0,0,0,0,0,0,0,0,0,0,0,0,0,0,0,0,0,0,0,0,0,0,0,0,0,0,0,0,0,0,0,0,0,0,0,0,0,0,0,0,0,0,0,0,0,0,0,0,0,0,0,0,0,0,0,0,0,0,0,0,0,0,0,0,0,0,0,0,0,0,0,0,0,0,0,0,0,0,0,0,0,0,0,0,0,0,0,0,0,0,0,0,0,0,0,0,0,0,0,0,0,0,0,0,0,0,0,0,0,0,0,0,0,0,0,0,0,0,0,0,0,0,0,0,0,0,0,0,0,0,0,0,0,0,0,0,0,0,0,0,0,0,0,0,0,0,0,0,0,0,0,0,0,0,0,0,0,0,0,0,0,0,0,0,0,0,0,0,0,0,0,0,0,0,0,0,0,0,0,0,0,0,0,0,0,0,0,0,0,0,0,0,0,0,0,0,0,0,0,0,0,0,0,0,0,0,0,0,0,0,0,0,0,0,0,0,0,0,0,0,0,0,0,0,0,0,0,0,0,0,0,0,0,0,0,0,0,0,0,0,0,0,0,0,0,0,0,0,0,0,0,0,0,0,0,0,0,0,0,0,0,0,0,0,0,0,0,0,0,0,0,0,0,0,0,0,0,0,0,0,0,0,0,0,0,0,0,0,0,0,0,0,0,0,0,0,0,0,0,0,0,0,0,0,0,0,0,0,0,0,0,0,0,0,0,0,0,0,0,0,0,0,0,0,0,0,0,0,0,0,0,0,0,0,0,0,0,0,0,0,0,0,0,0,0,0,0,0,0,0,0,0,0,0,0,0,0,0,0,0,0,0,0,0,0,0,0,0,0,0,0,0,0,0,0,0,0,0,0,0,0,0,0,0,0,0,0,0,0,0,0,0,0,0,0,0,0,0,0,0,0,0,0,0,0,0,0,0,0,0,0,0,0,0,0,0,0,0,0,0,0,0,0,0,0,0,0,0,0,0,0,0,0,0,0,0,0,0,0,0,0,0,0,0,0,0,0,0,0,0,0,0,0,0,0,0,0,0,0,0,0,0,0,0,0,0,0,0,0,0,0,0,0,0,0,0,0,0,0,0,0,0,0,0,0,0,0,0,0,0,0,0,0,0,0,0,0,0,0,0,0,0,0,0,0,0,0,0,0,0,0,0,0,0,0,0,0,0,0,0,0,0,0,0,0,0,0,0,0,0,0,0,0,0,0,0,0,0,0,0,0,0,0,0,0,0,0,0,0,0,0,0,0,0,0,0,0,0,0,0,0,0,0,0,0,0,0,0,0,0,0,0,0,0,0,0,0,0,0,0,0,0,0,0,0,0,0,0,0,0,0,0,0,0,0,0,0,0,0,0,0,0,0,0,0,0,0,0,0,0,0,0,0,0,0,0,0,0,0,0,0,0,0,0,0,0,0,0,0,0,0,0,0,0,0,0,0,0,0,0,0,0,0,0,0,0,0,0,0,0,0,0,0,0,0,0,0,0,0,0,0,0,0,0,0,0,0,0,0,0,0,0,0,0,0,0,0,0,0,0,0,0,0,0,0,0,0,0,0,0,0,0,0,0,0,0,0,0,0,0,0,0,0,0,0,0,0,0,0,0,0,0,0,0,0,0,0,0,0,0,0,0,0,0,0,0,0,0,0,0,0,0,0],"trees":[{"base_weights":[-3.500797E-3,-9.667508E-1,2.7421818E0,-1.4548692E0,4.609958E-3,2.2120862E0,5.3215227E0,-1.7388381E0,-1.1780244E0,-3.974231E-1,5.0780326E-1,1.4360626E0,2.7335906E0,4.6981435E0,6.899495E0,-1.972918E0,-1.5958256E0,-1.3501794E0,-1.0007889E0,-4.8064184E-1,1.7075133E-1,2.764436E-1,7.794277E-1,1.0620512E0,1.66099E0,2.3321774E0,3.060063E0,3.888263E0,4.9847355E0,-8.047836E-3,6.968664E0,-1.02088094E-1,-8.664683E-2,-8.229811E-2,-6.915841E-2,7.241564E-2,-6.770945E-2,-5.64087E-2,-4.3151256E-2,-3.138808E-2,-1.3495134E-2,-8.8213375E-3,1.909104E-2,-1.9059014E-3,2.013166E-2,1.5674219E-2,4.7011066E-2,2.3797227E-2,6.1747044E-2,2.1509497E-1,8.171075E-2,1.0257353E-1,1.2986034E-1,1.3276538E-1,1.6869585E-1,1.9920127E-1,-3.94204E-3,2.3901013E-1,2.91458E-1,1.1008819E-1,3.527588E-1],"categories":[],"categories_nodes":[],"categories_segments":[],"categories_sizes":[],"default_left":[0,0,0,0,0,0,0,0,0,0,0,0,0,0,0,0,0,0,0,0,0,0,0,0,0,0,0,0,0,0,0,0,0,0,0,0,0,0,0,0,0,0,0,0,0,0,0,0,0,0,0,0,0,0,0,0,0,0,0,0,0],"id":0,"left_children":[1,3,5,7,9,11,13,15,17,19,21,23,25,27,29,31,33,35,37,39,41,43,45,47,49,51,53,55,57,-1,59,-1,-1,-1,-1,-1,-1,-1,-1,-1,-1,-1,-1,-1,-1,-1,-1,-1,-1,-1,-1,-1,-1,-1,-1,-1,-1,-1,-1,-1,-1],"loss_changes":[6.652924E4,8.829568E3,8.920023E3,9.720176E2,1.2603418E3,2.189537E3,1.0612578E3,2.0123633E2,1.8999902E2,1.6385327E2,1.735653E2,1.814414E2,4.1705664E2,1.6564844E2,1.5466113E2,3.4331055E1,3.795703E1,3.765576E1,5.319409E1,9.3403564E1,3.2550365E1,5.9434647E1,9.487903E1,8.253595E1,8.854248E1,1.0267627E2,2.170664E2,8.2003174E1,7.262891E1,0E0,1.1138281E2,0E0,0E0,0E0,0E0,0E0,0E0,0E0,0E0,0E0,0E0,0E0,0E0,0E0,0E0,0E0,0E0,0E0,0E0,0E0,0E0,0E0,0E0,0E0,0E0,0E0,0E0,0E0,0E0,0E0,0E0],"parents":[2147483647,0,0,1,1,2,2,3,3,4,4,5,5,6,6,7,7,8,8,9,9,10,10,11,11,12,12,13,13,14,14,15,15,16,16,17,17,18,18,19,19,20,20,21,21,22,22,23,23,24,24,25,25,26,26,27,27,28,28,30,30],"right_children":[2,4,6,8,10,12,14,16,18,20,22,24,26,28,30,32,34,36,38,40,42,44,46,48,50,52,54,56,58,-1,60,-1,-1,-1,-1,-1,-1,-1,-1,-1,-1,-1,-1,-1,-1,-1,-1,-1,-1,-1,-1,-1,-1,-1,-1,-1,-1,-1,-1,-1,-1],"split_conditions":[3.9E0,2.1111112E0,7.3E0,1.25E0,3E0,4.9E0,9.4E0,8E-1,1.7E0,1.92E1,4E-1,4.2E0,5.8E0,6.3333335E0,2.97E1,1.88E1,2.57E1,5.4E0,1.8333334E0,2.6E0,3.17E1,3.2E0,2.9E0,3.2128513E-1,1.1005049E0,5.2E0,5.5E0,3.28E1,3.6878178E0,-8.047836E-3,1.055E1,-1.02088094E-1,-8.664683E-2,-8.229811E-2,-6.915841E-2,7.241564E-2,-6.770945E-2,-5.64087E-2,-4.3151256E-2,-3.138808E-2,-1.3495134E-2,-8.8213375E-3,1.909104E-2,-1.9059014E-3,2.013166E-2,1.5674219E-2,4.7011066E-2,2.3797227E-2,6.1747044E-2,2.1509497E-1,8.171075E-2,1.0257353E-1,1.2986034E-1,1.3276538E-1,1.6869585E-1,1.9920127E-1,-3.94204E-3,2.3901013E-1,2.91458E-1,1.1008819E-1,3.527588E-1],"split_indices":[1,1,1,1,1,1,1,1,1,11,10,0,0,13,9,8,9,9,13,1,9,1,13,10,2,13,13,11,2,0,16,0,0,0,0,0,0,0,0,0,0,0,0,0,0,0,0,0,0,0,0,0,0,0,0,0,0,0,0,0,0],"split_type":[0,0,0,0,0,0,0,0,0,0,0,0,0,0,0,0,0,0,0,0,0,0,0,0,0,0,0,0,0,0,0,0,0,0,0,0,0,0,0,0,0,0,0,0,0,0,0,0,0,0,0,0,0,0,0,0,0,0,0,0,0],"sum_hessian":[2.5153E4,1.8621E4,6.532E3,1.2393E4,6.228E3,5.42E3,1.112E3,6.115E3,6.278E3,3.462E3,2.766E3,2.18E3,3.24E3,8E2,3.12E2,2.314E3,3.801E3,3.181E3,3.097E3,3.02E3,4.42E2,1.495E3,1.271E3,8.21E2,1.359E3,1.457E3,1.783E3,2.13E2,5.87E2,3E0,3.09E2,1.792E3,5.22E2,3.07E3,7.31E2,4E0,3.177E3,1.605E3,1.492E3,1.777E3,1.243E3,1.67E2,2.75E2,4.28E2,1.067E3,3.27E2,9.44E2,1.88E2,6.33E2,1.2E1,1.347E3,7.12E2,7.45E2,7.83E2,1E3,2.08E2,5E0,4.78E2,1.09E2,6E0,3.03E2],"tree_param":{"num_deleted":"0","num_feature":"19","num_nodes":"61","size_leaf_vector":"1"}},{"base_weights":[-2.4803511E-3,-9.1564816E-1,2.6087027E0,-1.381894E0,1.9213958E-2,2.0759907E0,4.96078E0,-1.65671E0,-1.1122766E0,-3.8189596E-1,5.116181E-1,1.3889859E0,2.633184E0,4.400437E0,6.5403585E0,-1.869852E0,-1.5271885E0,-1.2779047E0,-9.43622E-1,-6.032871E-1,-2.1254346E-1,2.8085187E-1,7.689179E-1,1.0319E0,1.599219E0,2.2460742E0,2.987579E0,3.9032795E0,5.008147E0,-7.746042E-3,6.605553E0,-9.6290596E-2,-7.768271E-2,-7.769668E-2,-5.385195E-2,-6.460202E-2,-3.2792307E-2,-5.383541E-2,-3.9916925E-2,-3.7660856E-2,-2.0292522E-2,-1.4592128E-2,1.6158596E-2,8.122432E-3,2.4754975E-2,2.7102223E-2,5.2099336E-2,4.8695248E-2,1.2784798E-1,6.162229E-2,8.896428E-2,9.3118586E-2,1.2225532E-1,1.368932E-1,1.7622039E-1,1.2857836E-1,2.0721184E-1,2.558534E-1,1.6550939E-1,3.077902E-1,3.7287077E-1],"categories":[],"categories_nodes":[],"categories_segments":[],"categories_sizes":[],"default_left":[0,0,0,0,0,0,0,0,0,0,0,0,0,0,0,0,0,0,0,0,0,0,0,0,0,0,0,0,0,0,0,0,0,0,0,0,0,0,0,0,0,0,0,0,0,0,0,0,0,0,0,0,0,0,0,0,0,0,0,0,0],"id":1,"left_children":[1,3,5,7,9,11,13,15,17,19,21,23,25,27,29,31,33,35,37,39,41,43,45,47,49,51,53,55,57,-1,59,-1,-1,-1,-1,-1,-1,-1,-1,-1,-1,-1,-1,-1,-1,-1,-1,-1,-1,-1,-1,-1,-1,-1,-1,-1,-1,-1,-1,-1,-1],"loss_changes":[6.0388375E4,8.1789297E3,8.211051E3,9.2555273E2,1.2336469E3,2.0446562E3,1.0419863E3,1.6791016E2,1.7519824E2,1.2884155E2,1.6616974E2,1.7818262E2,3.9802734E2,2.5056836E2,1.3916504E2,3.8029785E1,4.454785E1,2.6981934E1,5.960742E1,4.3714478E1,8.3015526E1,3.739789E1,8.136328E1,7.605054E1,9.709961E1,1.0315381E2,1.960332E2,1.4847217E2,5.619629E1,0E0,7.226758E1,0E0,0E0,0E0,0E0,0E0,0E0,0E0,0E0,0E0,0E0,0E0,0E0,0E0,0E0,0E0,0E0,0E0,0E0,0E0,0E0,0E0,0E0,0E0,0E0,0E0,0E0,0E0,0E0,0E0,0E0],"parents":[2147483647,0,0,1,1,2,2,3,3,4,4,5,5,6,6,7,7,8,8,9,9,10,10,11,11,12,12,13,13,14,14,15,15,16,16,17,17,18,18,19,19,20,20,21,21,22,22,23,23,24,24,25,25,26,26,27,27,28,28,30,30],"right_children":[2,4,6,8,10,12,14,16,18,20,22,24,26,28,30,32,34,36,38,40,42,44,46,48,50,52,54,56,58,-1,60,-1,-1,-1,-1,-1,-1,-1,-1,-1,-1,-1,-1,-1,-1,-1,-1,-1,-1,-1,-1,-1,-1,-1,-1,-1,-1,-1,-1,-1,-1],"split_conditions":[3.9E0,2.1111112E0,7.2E0,1.25E0,3E0,5E0,9.4E0,8E-1,1.7E0,2.5E0,3.3333333E0,4.2E0,5.5E0,8.1E0,2.97E1,2.1E1,3.12E1,2.04E1,1.8333334E0,1.18E1,2.02E1,1.27E1,1.64E1,7.75E0,4E0,1.6E1,6.4E0,4.9E0,1E0,-7.746042E-3,1.1E1,-9.6290596E-2,-7.768271E-2,-7.769668E-2,-5.385195E-2,-6.460202E-2,-3.2792307E-2,-5.383541E-2,-3.9916925E-2,-3.7660856E-2,-2.0292522E-2,-1.4592128E-2,1.6158596E-2,8.122432E-3,2.4754975E-2,2.7102223E-2,5.2099336E-2,4.8695248E-2,1.2784798E-1,6.162229E-2,8.896428E-2,9.3118586E-2,1.2225532E-1,1.368932E-1,1.7622039E-1,1.2857836E-1,2.0721184E-1,2.558534E-1,1.6550939E-1,3.077902E-1,3.7287077E-1],"split_indices":[1,1,1,1,1,1,1,1,1,1,13,0,13,1,9,8,8,11,13,11,11,16,11,13,13,11,1,13,17,0,13,0,0,0,0,0,0,0,0,0,0,0,0,0,0,0,0,0,0,0,0,0,0,0,0,0,0,0,0,0,0],"split_type":[0,0,0,0,0,0,0,0,0,0,0,0,0,0,0,0,0,0,0,0,0,0,0,0,0,0,0,0,0,0,0,0,0,0,0,0,0,0,0,0,0,0,0,0,0,0,0,0,0,0,0,0,0,0,0,0,0,0,0,0,0],"sum_hessian":[2.5324E4,1.8763E4,6.561E3,1.2519E4,6.244E3,5.351E3,1.21E3,6.197E3,6.322E3,3.441E3,2.803E3,2.398E3,2.953E3,8.96E2,3.14E2,2.337E3,3.86E3,3.186E3,3.136E3,1.49E3,1.951E3,1.479E3,1.324E3,8.91E2,1.507E3,1.415E3,1.538E3,4.97E2,3.99E2,3E0,3.11E2,1.981E3,3.56E2,3.641E3,2.19E2,3.114E3,7.2E1,1.633E3,1.503E3,8.45E2,6.45E2,1.7E3,2.51E2,9.54E2,5.25E2,7.25E2,5.99E2,8.6E2,3.1E1,4.99E2,1.008E3,4.87E2,9.28E2,1.054E3,4.84E2,7.8E1,4.19E2,3.73E2,2.6E1,2.09E2,1.02E2],"tree_param":{"num_deleted":"0","num_feature":"19","num_nodes":"61","size_leaf_vector":"1"}},{"base_weights":[-9.243741E-3,-8.601318E-1,2.4177442E0,-1.3051735E0,-4.7289714E-2,1.8530655E0,4.482417E0,-1.584178E0,-1.0829326E0,-3.5709754E-1,5.528706E-1,1.414744E0,2.6011336E0,4.058235E0,6.6866503E0,-1.7540679E0,-1.432663E0,-1.1920191E0,-6.8037415E-1,-5.1357114E-1,7.883206E-2,1.2939944E0,4.4021028E-1,2.0519638E0,1.1220994E0,2.3427608E0,3.1107774E0,3.2020326E0,4.514962E0,5.801294E0,7.4121594E0,-9.585081E-2,-8.088103E-2,-7.318633E-2,-5.7706386E-2,-6.47813E-2,-5.170828E-2,-1.7178642E-2,-4.6493925E-2,-3.3717682E-3,-3.196572E-2,2.5970748E-2,-1.6394055E-2,3.4672216E-2,8.383038E-2,1.0177461E-2,3.837621E-2,8.181439E-2,1.1583356E-1,3.7632696E-2,7.157787E-2,1.1062056E-1,1.4361222E-1,1.3918047E-1,1.7438118E-1,1.8188813E-1,1.3631141E-1,2.487634E-1,1.974554E-1,3.0345157E-1,1.1151164E-1,3.957443E-1,2.8184095E-1],"categories":[],"categories_nodes":[],"categories_segments":[],"categories_sizes":[],"default_left":[0,0,0,0,0,0,0,0,0,0,0,0,0,0,0,0,0,0,0,0,0,0,0,0,0,0,0,0,0,0,0,0,0,0,0,0,0,0,0,0,0,0,0,0,0,0,0,0,0,0,0,0,0,0,0,0,0,0,0,0,0,0,0],"id":2,"left_children":[1,3,5,7,9,11,13,15,17,19,21,23,25,27,29,31,33,35,37,39,41,43,45,47,49,51,53,55,57,59,61,-1,-1,-1,-1,-1,-1,-1,-1,-1,-1,-1,-1,-1,-1,-1,-1,-1,-1,-1,-1,-1,-1,-1,-1,-1,-1,-1,-1,-1,-1,-1,-1],"loss_changes":[5.203612E4,6.7489473E3,7.6170625E3,7.4556445E2,1.2277164E3,1.6806387E3,1.2845215E3,1.3470215E2,2.9383838E2,2.9714496E2,1.8695422E2,6.019448E2,2.4196094E2,4.4621094E2,1.002041E2,5.2440918E1,2.2534668E1,8.479639E1,1.2005701E2,1.7968207E2,2.0643813E2,6.6614716E1,1.5103085E2,1.0793701E2,2.5296948E2,8.030664E1,6.795459E1,7.527783E1,1.792373E2,8.698169E1,6.1131348E1,0E0,0E0,0E0,0E0,0E0,0E0,0E0,0E0,0E0,0E0,0E0,0E0,0E0,0E0,0E0,0E0,0E0,0E0,0E0,0E0,0E0,0E0,0E0,0E0,0E0,0E0,0E0,0E0,0E0,0E0,0E0,0E0],"parents":[2147483647,0,0,1,1,2,2,3,3,4,4,5,5,6,6,7,7,8,8,9,9,10,10,11,11,12,12,13,13,14,14,15,15,16,16,17,17,18,18,19,19,20,20,21,21,22,22,23,23,24,24,25,25,26,26,27,27,28,28,29,29,30,30],"right_children":[2,4,6,8,10,12,14,16,18,20,22,24,26,28,30,32,34,36,38,40,42,44,46,48,50,52,54,56,58,60,62,-1,-1,-1,-1,-1,-1,-1,-1,-1,-1,-1,-1,-1,-1,-1,-1,-1,-1,-1,-1,-1,-1,-1,-1,-1,-1,-1,-1,-1,-1,-1,-1],"split_conditions":[4E0,2.2E0,7.2E0,1.2E0,3.1E0,5.6E0,1.02E1,8.660254E-1,2.1E0,3.2E0,-1E0,-2E-1,6.3333335E0,6.3333335E0,1.12E1,6E-1,2.4E0,2.53E1,-3E-1,-1E-1,3.3333334E-1,3.7583894E-1,3.4E0,1.62E1,4E0,5.3781515E-1,3.47E1,1E0,3.3333334E-1,2E0,1.4E0,-9.585081E-2,-8.088103E-2,-7.318633E-2,-5.7706386E-2,-6.47813E-2,-5.170828E-2,-1.7178642E-2,-4.6493925E-2,-3.3717682E-3,-3.196572E-2,2.5970748E-2,-1.6394055E-2,3.4672216E-2,8.383038E-2,1.0177461E-2,3.837621E-2,8.181439E-2,1.1583356E-1,3.7632696E-2,7.157787E-2,1.1062056E-1,1.4361222E-1,1.3918047E-1,1.7438118E-1,1.8188813E-1,1.3631141E-1,2.487634E-1,1.974554E-1,3.0345157E-1,1.1151164E-1,3.957443E-1,2.8184095E-1],"split_indices":[0,0,0,0,13,0,0,2,13,0,3,3,13,13,0,0,13,9,3,3,3,10,0,11,13,10,9,3,3,3,3,0,0,0,0,0,0,0,0,0,0,0,0,0,0,0,0,0,0,0,0,0,0,0,0,0,0,0,0,0,0,0,0],"split_type":[0,0,0,0,0,0,0,0,0,0,0,0,0,0,0,0,0,0,0,0,0,0,0,0,0,0,0,0,0,0,0,0,0,0,0,0,0,0,0,0,0,0,0,0,0,0,0,0,0,0,0,0,0,0,0,0,0,0,0,0,0,0,0],"sum_hessian":[2.5196E4,1.8656E4,6.54E3,1.2055E4,6.601E3,5.137E3,1.403E3,5.342E3,6.713E3,4.354E3,2.247E3,3.241E3,1.896E3,1.179E3,2.24E2,2.513E3,2.829E3,5.28E3,1.433E3,3.204E3,1.15E3,2.95E2,1.952E3,1.018E3,2.223E3,1.262E3,6.34E2,4.13E2,7.66E2,1.05E2,1.19E2,1.139E3,1.374E3,2.541E3,2.88E2,3.183E3,2.097E3,6.11E2,8.22E2,7.05E2,2.499E3,5.52E2,5.98E2,1.16E2,1.79E2,1.134E3,8.18E2,3.99E2,6.19E2,1.015E3,1.208E3,1.017E3,2.45E2,3.44E2,2.9E2,2.12E2,2.01E2,4.18E2,3.48E2,9.7E1,8E0,9E1,2.9E1],"tree_param":{"num_deleted":"0","num_feature":"19","num_nodes":"63","size_leaf_vector":"1"}},{"base_weights":[2.212215E-3,-7.924806E-1,2.524829E0,-1.1736983E0,2.2079037E-1,2.0145657E0,4.651882E0,-1.3881356E0,-7.4427235E-1,-9.73396E-2,6.2355614E-1,1.542661E0,2.5678263E0,3.9327488E0,5.581497E0,-1.6582099E0,-1.2576853E0,-8.404727E-1,-5.412758E-1,-3.3383498E-1,1.0739053E-1,5.8055484E-1,1.4252086E0,1.0024115E0,1.6712935E0,2.406938E0,2.878881E0,3.7471056E0,4.4911594E0,4.9899764E0,6.4422474E0,-9.0092055E-2,-7.6876946E-2,-6.786445E-2,-5.7959832E-2,-4.3554105E-2,-2.839376E-2,-4.0465724E-2,-2.0975173E-2,1.5384673E-1,-1.7185826E-2,-2.7684434E-4,2.126618E-2,2.1579731E-2,3.7042502E-2,7.926083E-2,-4.931521E-3,-9.698006E-3,5.5671852E-2,6.6168435E-2,9.488116E-2,1.080688E-1,1.3311394E-1,3.262272E-2,1.4675146E-1,1.9127488E-1,1.1652204E-1,1.9434832E-1,2.8703234E-1,6.170826E-2,2.524063E-1,2.8817284E-1,3.6313367E-1],"categories":[],"categories_nodes":[],"categories_segments":[],"categories_sizes":[],"default_left":[0,0,0,0,0,0,0,0,0,0,0,0,0,0,0,0,0,0,0,0,0,0,0,0,0,0,0,0,0,0,0,0,0,0,0,0,0,0,0,0,0,0,0,0,0,0,0,0,0,0,0,0,0,0,0,0,0,0,0,0,0,0,0],"id":3,"left_children":[1,3,5,7,9,11,13,15,17,19,21,23,25,27,29,31,33,35,37,39,41,43,45,47,49,51,53,55,57,59,61,-1,-1,-1,-1,-1,-1,-1,-1,-1,-1,-1,-1,-1,-1,-1,-1,-1,-1,-1,-1,-1,-1,-1,-1,-1,-1,-1,-1,-1,-1,-1,-1],"loss_changes":[5.055282E4,7.4075977E3,6.5466094E3,1.2818652E3,6.719086E2,1.2681621E3,7.579258E2,3.249922E2,9.0076904E1,1.4192242E2,7.874048E1,1.8103467E2,1.04743164E2,5.0972656E1,2.2484961E2,4.929004E1,5.9682617E1,2.5628662E1,4.8366547E1,4.6621216E1,5.64485E1,5.204596E1,2.8832703E1,6.79173E1,1.6450098E2,8.681348E1,9.260889E1,4.633008E1,9.751245E1,5.9753418E1,6.988965E1,0E0,0E0,0E0,0E0,0E0,0E0,0E0,0E0,0E0,0E0,0E0,0E0,0E0,0E0,0E0,0E0,0E0,0E0,0E0,0E0,0E0,0E0,0E0,0E0,0E0,0E0,0E0,0E0,0E0,0E0,0E0,0E0],"parents":[2147483647,0,0,1,1,2,2,3,3,4,4,5,5,6,6,7,7,8,8,9,9,10,10,11,11,12,12,13,13,14,14,15,15,16,16,17,17,18,18,19,19,20,20,21,21,22,22,23,23,24,24,25,25,26,26,27,27,28,28,29,29,30,30],"right_children":[2,4,6,8,10,12,14,16,18,20,22,24,26,28,30,32,34,36,38,40,42,44,46,48,50,52,54,56,58,60,62,-1,-1,-1,-1,-1,-1,-1,-1,-1,-1,-1,-1,-1,-1,-1,-1,-1,-1,-1,-1,-1,-1,-1,-1,-1,-1,-1,-1,-1,-1,-1,-1],"split_conditions":[4.1E0,2.5E0,7.2E0,1.625E0,3.2857144E0,5.375E0,8.6E0,9E-1,2.1111112E0,3.4055728E-1,1.87E1,4E0,6.4E0,6.8E0,1.02E1,6E-1,1.25E0,4.4759208E-1,2.34E1,1.6E0,2.02E1,1.5E1,1.06E1,7.2E0,1.58E1,2.7E0,5E0,3.78E1,5.3781515E-1,9E0,5.072046E-1,-9.0092055E-2,-7.6876946E-2,-6.786445E-2,-5.7959832E-2,-4.3554105E-2,-2.839376E-2,-4.0465724E-2,-2.0975173E-2,1.5384673E-1,-1.7185826E-2,-2.7684434E-4,2.126618E-2,2.1579731E-2,3.7042502E-2,7.926083E-2,-4.931521E-3,-9.698006E-3,5.5671852E-2,6.6168435E-2,9.488116E-2,1.080688E-1,1.3311394E-1,3.262272E-2,1.4675146E-1,1.9127488E-1,1.1652204E-1,1.9434832E-1,2.8703234E-1,6.170826E-2,2.524063E-1,2.8817284E-1,3.6313367E-1],"split_indices":[1,1,1,1,1,1,1,1,1,10,16,0,1,12,0,1,1,10,8,14,11,11,12,16,11,14,0,9,10,11,10,0,0,0,0,0,0,0,0,0,0,0,0,0,0,0,0,0,0,0,0,0,0,0,0,0,0,0,0,0,0,0,0],"split_type":[0,0,0,0,0,0,0,0,0,0,0,0,0,0,0,0,0,0,0,0,0,0,0,0,0,0,0,0,0,0,0,0,0,0,0,0,0,0,0,0,0,0,0,0,0,0,0,0,0,0,0,0,0,0,0,0,0,0,0,0,0,0,0],"sum_hessian":[2.5215E4,1.9175E4,6.04E3,1.3933E4,5.242E3,4.873E3,1.167E3,9.291E3,4.642E3,2.929E3,2.313E3,2.632E3,2.241E3,6.61E2,5.06E2,3.022E3,6.269E3,3.147E3,1.495E3,1.359E3,1.57E3,2.197E3,1.16E2,5.08E2,2.124E3,1.483E3,7.58E2,5.02E2,1.59E2,3.04E2,2.02E2,1.373E3,1.649E3,3.11E3,3.159E3,2.827E3,3.2E2,4.65E2,1.03E3,3E0,1.356E3,1.159E3,4.11E2,1.141E3,1.056E3,1.05E2,1.1E1,4.3E1,4.65E2,8.4E2,1.284E3,7.61E2,7.22E2,1.9E1,7.39E2,4.74E2,2.8E1,1.1E2,4.9E1,5E0,2.99E2,1.15E2,8.7E1],"tree_param":{"num_deleted":"0","num_feature":"19","num_nodes":"63","size_leaf_vector":"1"}},{"base_weights":[1.8096747E-2,-7.7083135E-1,2.2413433E0,-1.1267121E0,6.907057E-2,1.7715786E0,4.198088E0,-1.3288199E0,-7.8172255E-1,-2.3181273E-1,5.605805E-1,1.3461154E0,2.4565809E0,3.831087E0,5.8949194E0,-1.5683987E0,-1.2121246E0,-3.1542507E-1,-9.349431E-1,3.9799172E-1,-3.2629198E-1,9.0602905E-1,3.6324084E-1,1.975066E0,1.0598164E0,2.1918578E0,2.894671E0,2.9775884E0,4.289616E0,6.0130897E0,1.925421E0,-8.433351E-2,-7.046118E-2,-4.2843085E-2,-6.327572E-2,-2.3100285E-2,1.1865024E-2,-4.877223E-2,-2.7966538E-2,1.4508866E-2,1.1033024E-1,-2.1724211E-2,3.6516383E-3,1.2303468E-2,5.3347774E-2,4.654153E-3,3.2380242E-2,8.218416E-2,1.1489742E-1,3.621987E-2,6.7163736E-2,5.8371134E-2,1.1315528E-1,1.16903864E-1,1.5918383E-1,2.3974796E-1,1.3928352E-1,2.3175652E-1,1.8740676E-1,2.7888116E-1,3.5717425E-1,1.2108838E-1,3.9931636E-2],"categories":[],"categories_nodes":[],"categories_segments":[],"categories_sizes":[],"default_left":[0,0,0,0,0,0,0,0,0,0,0,0,0,0,0,0,0,0,0,0,0,0,0,0,0,0,0,0,0,0,0,0,0,0,0,0,0,0,0,0,0,0,0,0,0,0,0,0,0,0,0,0,0,0,0,0,0,0,0,0,0,0,0],"id":4,"left_children":[1,3,5,7,9,11,13,15,17,19,21,23,25,27,29,31,33,35,37,39,41,43,45,47,49,51,53,55,57,59,61,-1,-1,-1,-1,-1,-1,-1,-1,-1,-1,-1,-1,-1,-1,-1,-1,-1,-1,-1,-1,-1,-1,-1,-1,-1,-1,-1,-1,-1,-1,-1,-1],"loss_changes":[4.416538E4,5.555332E3,6.0541523E3,9.089414E2,8.182744E2,1.546791E3,7.710586E2,2.2791309E2,3.443086E2,2.0433855E2,1.4277069E2,5.889468E2,2.2938281E2,3.982041E2,9.31709E1,4.7993652E1,1.0376367E2,9.6949646E1,5.4539062E1,8.646757E1,1.2903134E2,8.06405E1,1.0273183E2,1.05608154E2,2.1359985E2,9.000293E1,1.1490039E2,1.1528418E2,1.0938379E2,6.6194824E1,2.2180748E0,0E0,0E0,0E0,0E0,0E0,0E0,0E0,0E0,0E0,0E0,0E0,0E0,0E0,0E0,0E0,0E0,0E0,0E0,0E0,0E0,0E0,0E0,0E0,0E0,0E0,0E0,0E0,0E0,0E0,0E0,0E0,0E0],"parents":[2147483647,0,0,1,1,2,2,3,3,4,4,5,5,6,6,7,7,8,8,9,9,10,10,11,11,12,12,13,13,14,14,15,15,16,16,17,17,18,18,19,19,20,20,21,21,22,22,23,23,24,24,25,25,26,26,27,27,28,28,29,29,30,30],"right_children":[2,4,6,8,10,12,14,16,18,20,22,24,26,28,30,32,34,36,38,40,42,44,46,48,50,52,54,56,58,60,62,-1,-1,-1,-1,-1,-1,-1,-1,-1,-1,-1,-1,-1,-1,-1,-1,-1,-1,-1,-1,-1,-1,-1,-1,-1,-1,-1,-1,-1,-1,-1,-1],"split_conditions":[4E0,2.4E0,7.4E0,1.6E0,3.1E0,5.6E0,1.02E1,8E-1,-2E-1,-3E-1,-4.2222223E-1,-2E-1,6.2E0,6.5E0,1.78E1,7.5E-1,-5E-1,3.1E0,4.4923076E-1,3.8E0,3.4E0,3.0476192E-1,3.4E0,3.29E1,4E0,2.47E1,6.2E0,-4.2222223E-1,5.75E-1,1.2E1,1.04E1,-8.433351E-2,-7.046118E-2,-4.2843085E-2,-6.327572E-2,-2.3100285E-2,1.1865024E-2,-4.877223E-2,-2.7966538E-2,1.4508866E-2,1.1033024E-1,-2.1724211E-2,3.6516383E-3,1.2303468E-2,5.3347774E-2,4.654153E-3,3.2380242E-2,8.218416E-2,1.1489742E-1,3.621987E-2,6.7163736E-2,5.8371134E-2,1.1315528E-1,1.16903864E-1,1.5918383E-1,2.3974796E-1,1.3928352E-1,2.3175652E-1,1.8740676E-1,2.7888116E-1,3.5717425E-1,1.2108838E-1,3.9931636E-2],"split_indices":[0,0,0,0,13,0,0,0,3,3,3,3,13,13,18,13,3,13,10,0,0,10,0,9,13,9,0,3,3,0,13,0,0,0,0,0,0,0,0,0,0,0,0,0,0,0,0,0,0,0,0,0,0,0,0,0,0,0,0,0,0,0,0],"split_type":[0,0,0,0,0,0,0,0,0,0,0,0,0,0,0,0,0,0,0,0,0,0,0,0,0,0,0,0,0,0,0,0,0,0,0,0,0,0,0,0,0,0,0,0,0,0,0,0,0,0,0,0,0,0,0,0,0,0,0,0,0,0,0],"sum_hessian":[2.5178E4,1.8584E4,6.594E3,1.3053E4,5.531E3,5.319E3,1.275E3,8.229E3,4.824E3,3.431E3,2.1E3,3.283E3,2.036E3,1.051E3,2.24E2,2.691E3,5.538E3,1.194E3,3.63E3,4.47E2,2.984E3,7.62E2,1.338E3,1.025E3,2.258E3,1.273E3,7.63E2,3.7E2,6.81E2,2.17E2,7E0,1.538E3,1.153E3,7.26E2,4.812E3,9.44E2,2.5E2,3.275E3,3.55E2,4.23E2,2.4E1,2.348E3,6.36E2,1.5E2,6.12E2,6.87E2,6.51E2,5.09E2,5.16E2,1.036E3,1.222E3,8.4E1,1.189E3,2.64E2,4.99E2,3.3E1,3.37E2,4.11E2,2.7E2,1.61E2,5.6E1,4E0,3E0],"tree_param":{"num_deleted":"0","num_feature":"19","num_nodes":"63","size_leaf_vector":"1"}},{"base_weights":[-7.2743497E-3,-7.3590356E-1,2.079276E0,-1.1125829E0,-4.5918692E-2,1.6205499E0,4.009885E0,-1.3065574E0,-8.623313E-1,-3.0585933E-1,4.5701602E-1,1.2046616E0,2.2909517E0,3.622086E0,5.820909E0,-1.4147706E0,-1.117282E0,-5.110137E-1,-9.8182905E-1,-4.7359136E-1,2.3489902E-2,8.521677E-1,2.3188666E-1,1.5962625E0,8.6314005E-1,1.9134393E0,2.597589E0,3.0059144E0,4.2228937E0,5.260549E0,6.681256E0,-7.927933E-2,-6.685102E-2,-5.8113214E-2,-3.6733393E-2,-3.6127057E-2,-6.4629926E-3,-5.5508114E-2,-4.4414174E-2,-6.11692E-3,-3.1648185E-2,-7.8088106E-3,2.9342968E-2,3.9369095E-2,1.1609297E-1,-1.1836626E-2,2.1954581E-2,6.645966E-2,9.470584E-2,3.7073866E-2,7.830862E-2,6.8684906E-2,1.0514629E-1,1.6009286E-1,1.20265745E-1,1.752909E-1,1.18182614E-1,2.4474004E-1,1.9537686E-1,3.4319603E-1,2.456622E-1,3.5471871E-1,2.0656434E-1],"categories":[],"categories_nodes":[],"categories_segments":[],"categories_sizes":[],"default_left":[0,0,0,0,0,0,0,0,0,0,0,0,0,0,0,0,0,0,0,0,0,0,0,0,0,1,0,0,0,0,0,0,0,0,0,0,0,0,0,0,0,0,0,0,0,0,0,0,0,0,0,0,0,0,0,0,0,0,0,0,0,0,0],"id":5,"left_children":[1,3,5,7,9,11,13,15,17,19,21,23,25,27,29,31,33,35,37,39,41,43,45,47,49,51,53,55,57,59,61,-1,-1,-1,-1,-1,-1,-1,-1,-1,-1,-1,-1,-1,-1,-1,-1,-1,-1,-1,-1,-1,-1,-1,-1,-1,-1,-1,-1,-1,-1,-1,-1],"loss_changes":[3.848073E4,4.8756143E3,5.7946387E3,5.8771875E2,8.663627E2,1.4732031E3,8.6078125E2,1.381416E2,2.2193579E2,2.4141025E2,2.0056625E2,4.3570654E2,2.2910645E2,3.7085254E2,6.972119E1,5.5280273E1,4.1828857E1,1.0867435E2,4.6293945E1,1.6190918E2,1.4943184E2,7.584216E1,1.3994852E2,1.1823169E2,1.4820483E2,9.003711E1,1.2128516E2,1.5679785E2,9.081152E1,4.1944824E1,5.700415E1,0E0,0E0,0E0,0E0,0E0,0E0,0E0,0E0,0E0,0E0,0E0,0E0,0E0,0E0,0E0,0E0,0E0,0E0,0E0,0E0,0E0,0E0,0E0,0E0,0E0,0E0,0E0,0E0,0E0,0E0,0E0,0E0],"parents":[2147483647,0,0,1,1,2,2,3,3,4,4,5,5,6,6,7,7,8,8,9,9,10,10,11,11,12,12,13,13,14,14,15,15,16,16,17,17,18,18,19,19,20,20,21,21,22,22,23,23,24,24,25,25,26,26,27,27,28,28,29,29,30,30],"right_children":[2,4,6,8,10,12,14,16,18,20,22,24,26,28,30,32,34,36,38,40,42,44,46,48,50,52,54,56,58,60,62,-1,-1,-1,-1,-1,-1,-1,-1,-1,-1,-1,-1,-1,-1,-1,-1,-1,-1,-1,-1,-1,-1,-1,-1,-1,-1,-1,-1,-1,-1,-1,-1],"split_conditions":[4E0,2.2E0,7.4E0,1.4E0,3.1E0,5.6E0,1.02E1,1.1E0,-2E-1,1.44E1,-4.2222223E-1,5.7142857E-2,5.5E0,7.3E0,1.1E1,6E-1,1.44E1,2.5E0,1.25E0,5.7142857E-2,3.4E0,1.995E1,3E0,3.26E1,5.280528E-1,1.04E1,-4.2222223E-1,1.1E0,-8E-1,4E-1,1.5E0,-7.927933E-2,-6.685102E-2,-5.8113214E-2,-3.6733393E-2,-3.6127057E-2,-6.4629926E-3,-5.5508114E-2,-4.4414174E-2,-6.11692E-3,-3.1648185E-2,-7.8088106E-3,2.9342968E-2,3.9369095E-2,1.1609297E-1,-1.1836626E-2,2.1954581E-2,6.645966E-2,9.470584E-2,3.7073866E-2,7.830862E-2,6.8684906E-2,1.0514629E-1,1.6009286E-1,1.20265745E-1,1.752909E-1,1.18182614E-1,2.4474004E-1,1.9537686E-1,3.4319603E-1,2.456622E-1,3.5471871E-1,2.0656434E-1],"split_indices":[0,0,0,0,13,0,0,13,3,11,3,3,13,13,13,0,11,13,13,3,0,16,0,8,10,16,3,3,18,17,3,0,0,0,0,0,0,0,0,0,0,0,0,0,0,0,0,0,0,0,0,0,0,0,0,0,0,0,0,0,0,0,0],"split_type":[0,0,0,0,0,0,0,0,0,0,0,0,0,0,0,0,0,0,0,0,0,0,0,0,0,0,0,0,0,0,0,0,0,0,0,0,0,0,0,0,0,0,0,0,0,0,0,0,0,0,0,0,0,0,0,0,0,0,0,0,0,0,0],"sum_hessian":[2.5309E4,1.8759E4,6.55E3,1.2134E4,6.625E3,5.294E3,1.256E3,6.833E3,5.301E3,4.368E3,2.257E3,3.269E3,2.025E3,1.037E3,2.19E2,4.343E3,2.49E3,1.347E3,3.954E3,2.894E3,1.474E3,8.18E2,1.439E3,1.521E3,1.748E3,9.11E2,1.114E3,5.15E2,5.22E2,1.37E2,8.2E1,1.352E3,2.991E3,2.226E3,2.64E2,8.66E2,4.81E2,1.662E3,2.292E3,9.04E2,1.99E3,1.118E3,3.56E2,7.85E2,3.3E1,4.41E2,9.98E2,8.05E2,7.16E2,1.492E3,2.56E2,2.39E2,6.72E2,2.65E2,8.49E2,2.87E2,2.28E2,1.62E2,3.6E2,2.1E1,1.16E2,6.9E1,1.3E1],"tree_param":{"num_deleted":"0","num_feature":"19","num_nodes":"63","size_leaf_vector":"1"}},{"base_weights":[4.1831974E-3,-6.6095966E-1,2.1141014E0,-1.0149287E0,1.0861104E-1,1.6876335E0,3.7458582E0,-1.2338446E0,-7.7705234E-1,-2.5813293E-1,4.4357324E-1,1.1912378E0,2.0584552E0,3.429518E0,5.2604938E0,-1.3496314E0,-1.032138E0,-3.905187E-1,-9.0461504E-1,7.304044E-2,-4.0464926E-1,1.2269436E0,3.5231635E-1,1.4704046E0,4.6144584E-1,1.777886E0,2.6409557E0,3.9549434E0,2.7950833E0,5.371102E0,1.7422819E0,-7.384829E-2,-6.2414136E-2,-6.367924E-2,-4.791623E-2,-2.5689779E-2,7.895764E-3,-5.0285127E-2,-3.7857544E-2,-7.1590035E-3,2.8923808E-2,-3.0315274E-2,-1.0725085E-2,3.695128E-2,7.764619E-2,8.430869E-3,3.3024993E-2,5.0759472E-2,8.106359E-2,-5.130312E-2,2.533831E-2,7.541308E-2,9.828056E-2,1.6132757E-1,1.22331075E-1,1.7356703E-1,2.1560676E-1,1.0964167E-1,1.6729882E-1,2.3351228E-1,3.0938518E-1,2.6495451E-2,1.1718619E-1],"categories":[],"categories_nodes":[],"categories_segments":[],"categories_sizes":[],"default_left":[0,0,0,0,0,0,0,0,0,0,0,0,0,0,0,0,0,0,0,0,0,0,0,0,0,0,0,0,0,0,0,0,0,0,0,0,0,0,0,0,0,0,0,0,0,0,0,0,0,0,0,0,0,0,0,0,0,0,0,0,0,0,0],"id":6,"left_children":[1,3,5,7,9,11,13,15,17,19,21,23,25,27,29,31,33,35,37,39,41,43,45,47,49,51,53,55,57,59,61,-1,-1,-1,-1,-1,-1,-1,-1,-1,-1,-1,-1,-1,-1,-1,-1,-1,-1,-1,-1,-1,-1,-1,-1,-1,-1,-1,-1,-1,-1,-1,-1],"loss_changes":[3.5177695E4,5.1916797E3,4.1740527E3,6.78626E2,7.3781946E2,8.743369E2,5.771406E2,1.5708984E2,3.0813135E2,1.3917616E2,2.2381049E2,4.1474512E2,4.4037793E2,3.3228613E2,7.281787E1,5.3556152E1,4.280835E1,1.0524904E2,6.919849E1,9.629765E1,7.60166E1,5.0633057E1,1.5905804E2,9.9388916E1,3.8624588E1,8.997217E1,9.213818E1,8.133203E1,1.4837524E2,8.7913574E1,4.3040504E0,0E0,0E0,0E0,0E0,0E0,0E0,0E0,0E0,0E0,0E0,0E0,0E0,0E0,0E0,0E0,0E0,0E0,0E0,0E0,0E0,0E0,0E0,0E0,0E0,0E0,0E0,0E0,0E0,0E0,0E0,0E0,0E0],"parents":[2147483647,0,0,1,1,2,2,3,3,4,4,5,5,6,6,7,7,8,8,9,9,10,10,11,11,12,12,13,13,14,14,15,15,16,16,17,17,18,18,19,19,20,20,21,21,22,22,23,23,24,24,25,25,26,26,27,27,28,28,29,29,30,30],"right_children":[2,4,6,8,10,12,14,16,18,20,22,24,26,28,30,32,34,36,38,40,42,44,46,48,50,52,54,56,58,60,62,-1,-1,-1,-1,-1,-1,-1,-1,-1,-1,-1,-1,-1,-1,-1,-1,-1,-1,-1,-1,-1,-1,-1,-1,-1,-1,-1,-1,-1,-1,-1,-1],"split_conditions":[4.2E0,2.4E0,7.4E0,1.4E0,2.8E0,5.2E0,1.02E1,1.1E0,-2E-1,5.7142857E-2,-1E0,5.75E-1,6.2E0,7E-1,1.78E1,8.232726E-1,8E-1,3.1E0,1.6666666E0,3.2E0,1.8333334E0,3.2E0,3.6E0,4.4E0,3.65E0,5.8E0,-6.4444447E-1,8.2E0,6.5E0,1.04E1,1.12E1,-7.384829E-2,-6.2414136E-2,-6.367924E-2,-4.791623E-2,-2.5689779E-2,7.895764E-3,-5.0285127E-2,-3.7857544E-2,-7.1590035E-3,2.8923808E-2,-3.0315274E-2,-1.0725085E-2,3.695128E-2,7.764619E-2,8.430869E-3,3.3024993E-2,5.0759472E-2,8.106359E-2,-5.130312E-2,2.533831E-2,7.541308E-2,9.828056E-2,1.6132757E-1,1.22331075E-1,1.7356703E-1,2.1560676E-1,1.0964167E-1,1.6729882E-1,2.3351228E-1,3.0938518E-1,2.6495451E-2,1.1718619E-1],"split_indices":[0,0,0,0,13,0,0,13,3,3,3,3,13,3,18,2,0,13,13,0,13,0,0,0,16,0,3,0,13,13,0,0,0,0,0,0,0,0,0,0,0,0,0,0,0,0,0,0,0,0,0,0,0,0,0,0,0,0,0,0,0,0,0],"split_type":[0,0,0,0,0,0,0,0,0,0,0,0,0,0,0,0,0,0,0,0,0,0,0,0,0,0,0,0,0,0,0,0,0,0,0,0,0,0,0,0,0,0,0,0,0,0,0,0,0,0,0,0,0,0,0,0,0,0,0,0,0,0,0],"sum_hessian":[2.5064E4,1.9057E4,6.007E3,1.3053E4,6.004E3,4.764E3,1.243E3,6.795E3,6.258E3,2.866E3,3.138E3,2.039E3,2.725E3,1.031E3,2.12E2,4.313E3,2.482E3,1.554E3,4.704E3,8.79E2,1.987E3,3.26E2,2.812E3,1.474E3,5.65E2,1.842E3,8.83E2,5.61E2,4.7E2,2.05E2,7E0,1.905E3,2.408E3,5.77E2,1.905E3,1.269E3,2.85E2,2.787E3,1.917E3,6.16E2,2.63E2,9.63E2,1.024E3,1.32E2,1.94E2,1.763E3,1.049E3,3.69E2,1.105E3,1.6E1,5.49E2,7.6E2,1.082E3,2.16E2,6.67E2,2.43E2,3.18E2,2.27E2,2.43E2,1.14E2,9.1E1,3E0,4E0],"tree_param":{"num_deleted":"0","num_feature":"19","num_nodes":"63","size_leaf_vector":"1"}},{"base_weights":[1.125379E-2,-6.7784274E-1,1.9795574E0,-9.611116E-1,1.6497038E-1,1.6190546E0,4.0240874E0,-1.1727352E0,-6.954377E-1,-1.5685284E-1,3.93916E-1,1.1854368E0,2.1666026E0,3.5001295E0,5.096853E0,-1.3685999E0,-1.051851E0,-7.7346313E-1,-4.5367774E-1,-5.4101205E-1,-6.844821E-2,1.8312205E-1,6.3460237E-1,8.666046E-1,1.3715528E0,1.9402524E0,2.506356E0,3.2797184E0,4.366069E0,-4.5200035E-2,5.157E0,-6.901783E-2,-6.384991E-3,-5.3648036E-2,-3.250109E-2,-4.3247607E-2,-3.3050563E-2,-2.6561162E-2,-4.2757657E-3,1.5026857E-1,-2.8949017E-2,-5.048729E-3,2.9873818E-2,2.6931096E-2,4.9291584E-3,2.3707327E-2,4.6083946E-2,1.1003064E-1,4.1312795E-2,-5.3692623E-3,7.0441425E-2,8.796083E-2,1.09993316E-1,1.6952408E-2,1.277886E-1,1.5356229E-1,2.1756689E-1,2.725024E-1,1.9317374E-1,2.9630235E-1,2.3728697E-1],"categories":[],"categories_nodes":[],"categories_segments":[],"categories_sizes":[],"default_left":[0,0,0,0,0,0,0,0,0,0,0,0,0,0,0,0,0,0,0,0,0,0,0,0,0,0,0,0,0,0,0,0,0,0,0,0,0,0,0,0,0,0,0,0,0,0,0,0,0,0,0,0,0,0,0,0,0,0,0,0,0],"id":7,"left_children":[1,3,5,7,9,11,13,15,17,19,21,23,25,27,29,31,33,35,37,39,41,43,45,47,49,51,53,55,57,-1,59,-1,-1,-1,-1,-1,-1,-1,-1,-1,-1,-1,-1,-1,-1,-1,-1,-1,-1,-1,-1,-1,-1,-1,-1,-1,-1,-1,-1,-1,-1],"loss_changes":[3.418695E4,4.457325E3,4.810336E3,7.845996E2,3.4616052E2,1.3167139E3,5.315801E2,1.8243066E2,1.1644165E2,6.6228745E1,1.3907025E2,1.8277832E2,1.8348926E2,1.1107617E2,1.2022461E2,4.291455E1,3.9956055E1,4.7465088E1,4.314511E1,5.06447E1,3.4428593E1,4.391165E1,5.8430237E1,5.9616882E1,1.0822266E2,6.519922E1,1.0358789E2,1.04520996E2,4.9381836E1,0E0,7.075391E1,0E0,0E0,0E0,0E0,0E0,0E0,0E0,0E0,0E0,0E0,0E0,0E0,0E0,0E0,0E0,0E0,0E0,0E0,0E0,0E0,0E0,0E0,0E0,0E0,0E0,0E0,0E0,0E0,0E0,0E0],"parents":[2147483647,0,0,1,1,2,2,3,3,4,4,5,5,6,6,7,7,8,8,9,9,10,10,11,11,12,12,13,13,14,14,15,15,16,16,17,17,18,18,19,19,20,20,21,21,22,22,23,23,24,24,25,25,26,26,27,27,28,28,30,30],"right_children":[2,4,6,8,10,12,14,16,18,20,22,24,26,28,30,32,34,36,38,40,42,44,46,48,50,52,54,56,58,-1,60,-1,-1,-1,-1,-1,-1,-1,-1,-1,-1,-1,-1,-1,-1,-1,-1,-1,-1,-1,-1,-1,-1,-1,-1,-1,-1,-1,-1,-1,-1],"split_conditions":[3.9E0,2.5E0,7.5E0,1.5E0,3E0,5.4E0,9.4E0,8.75E-1,2.1111112E0,1.5E0,4E-1,4.4E0,6.4E0,3.6878178E0,2.97E1,3.1E1,3.24E1,1.75E0,7.6E0,1.6E0,3.59E1,2.6E0,3.8E0,6.95E0,1.94E1,5.9E0,5E0,1E1,3.36E1,-4.5200035E-2,4E0,-6.901783E-2,-6.384991E-3,-5.3648036E-2,-3.250109E-2,-4.3247607E-2,-3.3050563E-2,-2.6561162E-2,-4.2757657E-3,1.5026857E-1,-2.8949017E-2,-5.048729E-3,2.9873818E-2,2.6931096E-2,4.9291584E-3,2.3707327E-2,4.6083946E-2,1.1003064E-1,4.1312795E-2,-5.3692623E-3,7.0441425E-2,8.796083E-2,1.09993316E-1,1.6952408E-2,1.277886E-1,1.5356229E-1,2.1756689E-1,2.725024E-1,1.9317374E-1,2.9630235E-1,2.3728697E-1],"split_indices":[1,1,1,1,1,1,1,1,1,13,10,1,1,2,9,8,8,13,12,14,9,12,13,15,8,13,0,13,9,0,12,0,0,0,0,0,0,0,0,0,0,0,0,0,0,0,0,0,0,0,0,0,0,0,0,0,0,0,0,0,0],"split_type":[0,0,0,0,0,0,0,0,0,0,0,0,0,0,0,0,0,0,0,0,0,0,0,0,0,0,0,0,0,0,0,0,0,0,0,0,0,0,0,0,0,0,0,0,0,0,0,0,0,0,0,0,0,0,0,0,0,0,0,0,0],"sum_hessian":[2.5203E4,1.8668E4,6.535E3,1.3972E4,4.696E3,5.557E3,9.78E2,7.775E3,6.197E3,1.952E3,2.744E3,3.103E3,2.454E3,6.6E2,3.18E2,2.963E3,4.812E3,4.683E3,1.514E3,3.64E2,1.588E3,1.464E3,1.28E3,1.146E3,1.957E3,1.477E3,9.77E2,5.3E2,1.3E2,3E0,3.15E2,2.935E3,2.8E1,4.57E3,2.42E2,2.578E3,2.105E3,1.25E3,2.64E2,3E0,3.61E2,1.515E3,7.3E1,2.8E2,1.184E3,8.23E2,4.57E2,3.2E1,1.114E3,4.8E1,1.909E3,8.75E2,6.02E2,2.2E1,9.55E2,4.47E2,8.3E1,3.8E1,9.2E1,1.05E2,2.1E2],"tree_param":{"num_deleted":"0","num_feature":"19","num_nodes":"61","size_leaf_vector":"1"}},{"base_weights":[-9.0049003E-4,-6.1529964E-1,1.932583E0,-9.755308E-1,5.2240685E-2,1.5506123E0,3.635697E0,-1.1476051E0,-7.5570995E-1,-2.567268E-1,3.7751415E-1,1.1854949E0,1.9564074E0,3.221048E0,4.6638045E0,-1.2809694E0,-1.048238E0,-8.497195E-1,-6.3761127E-1,-3.13422E-1,1.8505563E-1,2.2657974E-1,5.446285E-1,1.1456728E0,2.3843436E0,1.7890292E0,2.2389114E0,2.5172122E0,3.4757876E0,2.1926252E-2,4.7024584E0,-7.462699E-2,-6.1568465E-2,-5.3631347E-2,-3.930972E-2,-4.3677993E-2,1.4044413E-3,-3.693952E-2,-2.7281804E-2,1.21146455E-1,-1.5982835E-2,1.4187634E-1,7.848795E-3,-2.8035903E-4,1.7260944E-2,1.661331E-2,3.579999E-2,4.2927045E-2,6.456605E-2,1.6120766E-1,7.2148696E-2,8.413241E-2,1.21525444E-1,9.4650626E-2,1.3088766E-1,1.3183121E-1,-9.220115E-3,1.6484976E-1,2.0853734E-1,2.700077E-1,2.205415E-1],"categories":[],"categories_nodes":[],"categories_segments":[],"categories_sizes":[],"default_left":[0,0,0,0,0,0,0,0,0,0,0,0,0,0,0,0,0,0,0,0,0,0,0,0,0,0,0,0,0,0,0,0,0,0,0,0,0,0,0,0,0,0,0,0,0,0,0,0,0,0,0,0,0,0,0,0,0,0,0,0,0],"id":8,"left_children":[1,3,5,7,9,11,13,15,17,19,21,23,25,27,29,31,33,35,37,39,41,43,45,47,49,51,53,55,57,-1,59,-1,-1,-1,-1,-1,-1,-1,-1,-1,-1,-1,-1,-1,-1,-1,-1,-1,-1,-1,-1,-1,-1,-1,-1,-1,-1,-1,-1,-1,-1],"loss_changes":[2.9897707E4,4.5928574E3,3.9419688E3,4.6816797E2,6.729493E2,7.3210645E2,4.578125E2,9.060547E1,5.9817383E1,8.608205E1,8.207788E1,1.21661865E2,1.06569336E2,1.3319043E2,4.9197754E1,2.9004395E1,2.4483398E1,6.3539795E1,2.1988953E1,5.249585E1,2.8377085E1,4.7305603E1,5.595694E1,1.0452344E2,6.0498352E1,9.642822E1,1.0846826E2,7.009155E1,5.7693848E1,0E0,3.908838E1,0E0,0E0,0E0,0E0,0E0,0E0,0E0,0E0,0E0,0E0,0E0,0E0,0E0,0E0,0E0,0E0,0E0,0E0,0E0,0E0,0E0,0E0,0E0,0E0,0E0,0E0,0E0,0E0,0E0,0E0],"parents":[2147483647,0,0,1,1,2,2,3,3,4,4,5,5,6,6,7,7,8,8,9,9,10,10,11,11,12,12,13,13,14,14,15,15,16,16,17,17,18,18,19,19,20,20,21,21,22,22,23,23,24,24,25,25,26,26,27,27,28,28,30,30],"right_children":[2,4,6,8,10,12,14,16,18,20,22,24,26,28,30,32,34,36,38,40,42,44,46,48,50,52,54,56,58,-1,60,-1,-1,-1,-1,-1,-1,-1,-1,-1,-1,-1,-1,-1,-1,-1,-1,-1,-1,-1,-1,-1,-1,-1,-1,-1,-1,-1,-1,-1,-1],"split_conditions":[4.1E0,2.1111112E0,7.3E0,1.4E0,3E0,5.4E0,9.4E0,8.75E-1,1.8E0,1.96E1,4E-1,8.333333E0,6.2E0,6.3333335E0,7.8E0,4E-1,2.5E0,5.12E-1,3.154122E-1,1.6666666E0,6.992059E-1,3.3E0,3.3333333E0,4.5E0,4.64E-1,2.74E1,1E0,3.2E1,3.6878178E0,2.1926252E-2,-2E0,-7.462699E-2,-6.1568465E-2,-5.3631347E-2,-3.930972E-2,-4.3677993E-2,1.4044413E-3,-3.693952E-2,-2.7281804E-2,1.21146455E-1,-1.5982835E-2,1.4187634E-1,7.848795E-3,-2.8035903E-4,1.7260944E-2,1.661331E-2,3.579999E-2,4.2927045E-2,6.456605E-2,1.6120766E-1,7.2148696E-2,8.413241E-2,1.21525444E-1,9.4650626E-2,1.3088766E-1,1.3183121E-1,-9.220115E-3,1.6484976E-1,2.0853734E-1,2.700077E-1,2.205415E-1],"split_indices":[1,1,1,1,1,1,1,1,1,11,10,13,13,13,16,1,13,10,10,14,2,1,13,1,10,11,4,11,2,0,18,0,0,0,0,0,0,0,0,0,0,0,0,0,0,0,0,0,0,0,0,0,0,0,0,0,0,0,0,0,0],"split_type":[0,0,0,0,0,0,0,0,0,0,0,0,0,0,0,0,0,0,0,0,0,0,0,0,0,0,0,0,0,0,0,0,0,0,0,0,0,0,0,0,0,0,0,0,0,0,0,0,0,0,0,0,0,0,0,0,0,0,0,0,0],"sum_hessian":[2.5166E4,1.9098E4,6.068E3,1.2404E4,6.694E3,4.958E3,1.11E3,6.955E3,5.449E3,3.433E3,3.261E3,2.612E3,2.346E3,7.94E2,3.16E2,2.964E3,3.991E3,3.03E3,2.419E3,3.043E3,3.9E2,1.715E3,1.546E3,2.53E3,8.2E1,1.478E3,8.68E2,2.14E2,5.8E2,3E0,3.13E2,5.57E2,2.407E3,3.648E3,3.43E2,2.95E3,8E1,1.148E3,1.271E3,6E0,3.037E3,3E0,3.87E2,5.8E2,1.135E3,6.92E2,8.54E2,8.54E2,1.676E3,4.2E1,4E1,1.271E3,2.07E2,4.57E2,4.11E2,2.05E2,9E0,4.66E2,1.14E2,8.7E1,2.26E2],"tree_param":{"num_deleted":"0","num_feature":"19","num_nodes":"61","size_leaf_vector":"1"}},{"base_weights":[5.714753E-4,-6.1481464E-1,1.7638993E0,-9.2500794E-1,6.304014E-3,1.4012346E0,3.4134855E0,-1.0898875E0,-7.1635014E-1,-2.945156E-1,2.4794742E-1,9.8153067E-1,1.7357283E0,2.6300454E0,3.930417E0,-1.2609497E0,-1.0059718E0,-8.170677E-1,-6.085401E-1,-3.4895477E-1,2.2913761E-1,9.5885985E-2,4.2317086E-1,7.81492E-1,1.2475117E0,1.5106087E0,1.9434297E0,1.6249262E0,2.908194E0,3.688375E0,5.2169E0,-6.542369E-2,-4.5237847E-2,-5.0771624E-2,-2.8594954E-2,-4.235031E-2,-2.2926634E-2,-3.8655683E-2,-2.7392313E-2,-2.5651965E-2,-1.1591455E-2,-1.9473631E-3,3.276011E-2,-2.342411E-2,6.7377E-3,1.654186E-2,3.9065268E-2,3.5328627E-2,7.0055984E-2,1.310647E-1,5.8899917E-2,7.011322E-2,1.0344404E-1,8.603289E-2,1.13159135E-1,9.519809E-2,1.3556913E-2,8.892725E-2,1.5404956E-1,2.9286152E-1,1.8129838E-1,2.5681412E-2,2.7916804E-1],"categories":[],"categories_nodes":[],"categories_segments":[],"categories_sizes":[],"default_left":[0,0,0,0,0,0,0,0,0,0,0,0,0,0,0,0,0,0,0,0,0,0,0,0,0,0,0,0,0,0,0,0,0,0,0,0,0,0,0,0,0,0,0,0,0,0,0,0,0,0,0,0,0,0,0,0,0,0,0,0,0,0,0],"id":9,"left_children":[1,3,5,7,9,11,13,15,17,19,21,23,25,27,29,31,33,35,37,39,41,43,45,47,49,51,53,55,57,59,61,-1,-1,-1,-1,-1,-1,-1,-1,-1,-1,-1,-1,-1,-1,-1,-1,-1,-1,-1,-1,-1,-1,-1,-1,-1,-1,-1,-1,-1,-1,-1,-1],"loss_changes":[2.7293242E4,3.5923716E3,3.8875254E3,4.2684375E2,4.5155267E2,7.471367E2,4.636494E2,9.818555E1,5.899463E1,7.8971466E1,9.169859E1,1.2486841E2,1.354961E2,1.2594043E2,1.9908008E2,3.720703E1,1.8413574E1,2.9922607E1,2.598413E1,4.7987366E1,2.9898952E1,4.0523376E1,5.253891E1,6.1701355E1,9.346118E1,8.318579E1,1.0540527E2,3.8552734E1,6.547778E1,5.8483887E1,1.8439111E2,0E0,0E0,0E0,0E0,0E0,0E0,0E0,0E0,0E0,0E0,0E0,0E0,0E0,0E0,0E0,0E0,0E0,0E0,0E0,0E0,0E0,0E0,0E0,0E0,0E0,0E0,0E0,0E0,0E0,0E0,0E0,0E0],"parents":[2147483647,0,0,1,1,2,2,3,3,4,4,5,5,6,6,7,7,8,8,9,9,10,10,11,11,12,12,13,13,14,14,15,15,16,16,17,17,18,18,19,19,20,20,21,21,22,22,23,23,24,24,25,25,26,26,27,27,28,28,29,29,30,30],"right_children":[2,4,6,8,10,12,14,16,18,20,22,24,26,28,30,32,34,36,38,40,42,44,46,48,50,52,54,56,58,60,62,-1,-1,-1,-1,-1,-1,-1,-1,-1,-1,-1,-1,-1,-1,-1,-1,-1,-1,-1,-1,-1,-1,-1,-1,-1,-1,-1,-1,-1,-1,-1,-1],"split_conditions":[3.9E0,2.1111112E0,7.2E0,1.4E0,2.8E0,5E0,8.1E0,7.5E-1,1.6666666E0,1.98E1,3.2E0,4.5E0,5.8E0,3.4E0,1.09E1,2.12E1,3.6E0,1.72E1,1.7E0,2.1E0,6.6E0,5E0,2.06E1,2.5E1,1.3540064E0,6.6666665E0,2.22E1,3.2E0,4.9E0,2.2E0,1.48E1,-6.542369E-2,-4.5237847E-2,-5.0771624E-2,-2.8594954E-2,-4.235031E-2,-2.2926634E-2,-3.8655683E-2,-2.7392313E-2,-2.5651965E-2,-1.1591455E-2,-1.9473631E-3,3.276011E-2,-2.342411E-2,6.7377E-3,1.654186E-2,3.9065268E-2,3.5328627E-2,7.0055984E-2,1.310647E-1,5.8899917E-2,7.011322E-2,1.0344404E-1,8.603289E-2,1.13159135E-1,9.519809E-2,1.3556913E-2,8.892725E-2,1.5404956E-1,2.9286152E-1,1.8129838E-1,2.5681412E-2,2.7916804E-1],"split_indices":[1,1,1,1,1,1,1,1,13,11,13,1,1,12,1,9,13,11,1,13,12,16,11,11,2,13,11,12,13,12,11,0,0,0,0,0,0,0,0,0,0,0,0,0,0,0,0,0,0,0,0,0,0,0,0,0,0,0,0,0,0,0,0],"split_type":[0,0,0,0,0,0,0,0,0,0,0,0,0,0,0,0,0,0,0,0,0,0,0,0,0,0,0,0,0,0,0,0,0,0,0,0,0,0,0,0,0,0,0,0,0,0,0,0,0,0,0,0,0,0,0,0,0,0,0,0,0,0,0],"sum_hessian":[2.515E4,1.8644E4,6.506E3,1.2434E4,6.21E3,5.335E3,1.171E3,6.943E3,5.491E3,2.766E3,3.444E3,2.368E3,2.967E3,4.68E2,7.03E2,2.28E3,4.663E3,2.835E3,2.656E3,2.506E3,2.6E2,1.845E3,1.599E3,1.354E3,1.014E3,1.428E3,1.539E3,1.03E2,3.65E2,5.95E2,1.08E2,2.009E3,2.71E2,4.562E3,1.01E2,2.615E3,2.2E2,7.12E2,1.944E3,1.042E3,1.464E3,1.6E2,1E2,1.18E2,1.727E3,1.273E3,3.26E2,1.21E3,1.44E2,4.7E1,9.67E2,1.199E3,2.29E2,9.11E2,6.28E2,8.5E1,1.8E1,5E1,3.15E2,1.4E1,5.81E2,8E0,1E2],"tree_param":{"num_deleted":"0","num_feature":"19","num_nodes":"63","size_leaf_vector":"1"}},{"base_weights":[3.2432408E-3,-5.59084E-1,1.7625335E0,-8.3039874E-1,1.6657366E-1,1.4096482E0,3.2708726E0,-1.0227187E0,-6.3747096E-1,-6.1455876E-2,3.9705878E-1,1.1033512E0,1.8140107E0,2.8866956E0,4.2257223E0,-1.2739805E0,-9.594963E-1,-7.1166706E-1,-4.502452E-1,-2.3347548E-1,1.7901896E-1,2.184045E-1,5.03898E-1,7.8040415E-1,1.2628062E0,1.4575934E0,1.9424286E0,2.4777894E0,3.3507948E0,-5.220092E-2,4.2778864E0,-6.761988E-2,-5.7226863E-2,-4.9054246E-2,-3.5407327E-2,-3.8536876E-2,-2.978439E-2,-3.121855E-2,-1.6081296E-2,1.2459785E-1,-1.2119698E-2,-2.6421065E-2,1.4484212E-2,9.424764E-3,7.745788E-2,1.8966941E-2,4.10838E-2,3.5615705E-2,9.940289E-2,4.7220428E-2,7.257202E-2,4.8893094E-2,8.33893E-2,8.481165E-2,1.0524489E-1,7.819072E-2,1.3599433E-1,1.5401566E-1,2.0742741E-1,2.435174E-1,1.8955009E-1],"categories":[],"categories_nodes":[],"categories_segments":[],"categories_sizes":[],"default_left":[0,0,0,0,0,0,0,0,0,0,0,0,0,0,0,0,0,0,0,0,0,0,0,0,0,0,0,0,0,0,0,0,0,0,0,0,0,0,0,0,0,0,0,0,0,0,0,0,0,0,0,0,0,0,0,0,0,0,0,0,0],"id":10,"left_children":[1,3,5,7,9,11,13,15,17,19,21,23,25,27,29,31,33,35,37,39,41,43,45,47,49,51,53,55,57,-1,59,-1,-1,-1,-1,-1,-1,-1,-1,-1,-1,-1,-1,-1,-1,-1,-1,-1,-1,-1,-1,-1,-1,-1,-1,-1,-1,-1,-1,-1,-1],"loss_changes":[2.481267E4,3.7421372E3,3.2284688E3,5.1247656E2,2.7193744E2,6.076924E2,4.0931348E2,1.0857568E2,9.553882E1,1.076412E2,4.892929E1,1.4325513E2,9.3907715E1,1.474873E2,9.4953125E1,1.2301514E1,2.9187012E1,3.3289062E1,4.3690186E1,3.725245E1,8.5072845E1,3.7942963E1,6.325592E1,7.478705E1,1.1106323E2,5.5177734E1,5.8288086E1,9.311987E1,6.914111E1,0E0,7.442041E1,0E0,0E0,0E0,0E0,0E0,0E0,0E0,0E0,0E0,0E0,0E0,0E0,0E0,0E0,0E0,0E0,0E0,0E0,0E0,0E0,0E0,0E0,0E0,0E0,0E0,0E0,0E0,0E0,0E0,0E0],"parents":[2147483647,0,0,1,1,2,2,3,3,4,4,5,5,6,6,7,7,8,8,9,9,10,10,11,11,12,12,13,13,14,14,15,15,16,16,17,17,18,18,19,19,20,20,21,21,22,22,23,23,24,24,25,25,26,26,27,27,28,28,30,30],"right_children":[2,4,6,8,10,12,14,16,18,20,22,24,26,28,30,32,34,36,38,40,42,44,46,48,50,52,54,56,58,-1,60,-1,-1,-1,-1,-1,-1,-1,-1,-1,-1,-1,-1,-1,-1,-1,-1,-1,-1,-1,-1,-1,-1,-1,-1,-1,-1,-1,-1,-1,-1],"split_conditions":[4.1E0,2.5E0,7.3E0,1.4E0,3.2E0,5.5E0,9.4E0,6E-1,2.1E0,3.7037036E-1,3.2E0,4.4E0,4.6666665E0,8E0,2.97E1,6.992059E-1,2.4E0,8.9E0,2E0,1.6666666E0,1.5E0,5.4E0,1.92E1,8E0,1.58E1,5.8E0,4.4011143E-1,3.4E0,3.6878178E0,-5.220092E-2,6E-1,-6.761988E-2,-5.7226863E-2,-4.9054246E-2,-3.5407327E-2,-3.8536876E-2,-2.978439E-2,-3.121855E-2,-1.6081296E-2,1.2459785E-1,-1.2119698E-2,-2.6421065E-2,1.4484212E-2,9.424764E-3,7.745788E-2,1.8966941E-2,4.10838E-2,3.5615705E-2,9.940289E-2,4.7220428E-2,7.257202E-2,4.8893094E-2,8.33893E-2,8.481165E-2,1.0524489E-1,7.819072E-2,1.3599433E-1,1.5401566E-1,2.0742741E-1,2.435174E-1,1.8955009E-1],"split_indices":[1,1,1,1,1,1,1,1,13,10,13,0,13,13,9,2,13,16,0,14,13,0,11,13,11,0,10,12,2,0,17,0,0,0,0,0,0,0,0,0,0,0,0,0,0,0,0,0,0,0,0,0,0,0,0,0,0,0,0,0,0],"split_type":[0,0,0,0,0,0,0,0,0,0,0,0,0,0,0,0,0,0,0,0,0,0,0,0,0,0,0,0,0,0,0,0,0,0,0,0,0,0,0,0,0,0,0,0,0,0,0,0,0,0,0,0,0,0,0,0,0,0,0,0,0],"sum_hessian":[2.5079E4,1.9005E4,6.074E3,1.3833E4,5.172E3,4.924E3,1.15E3,6.925E3,6.908E3,2.6E3,2.572E3,2.804E3,2.12E3,8.23E2,3.27E2,1.388E3,5.537E3,4.945E3,1.963E3,1.516E3,1.084E3,9.64E2,1.608E3,9.29E2,1.875E3,5.65E2,1.555E3,4.41E2,3.82E2,3E0,3.24E2,8.58E2,5.3E2,5.096E3,4.41E2,3.272E3,1.673E3,8.32E2,1.131E3,4E0,1.512E3,1.46E2,9.38E2,9.44E2,2E1,1.157E3,4.51E2,8.81E2,4.8E1,7E2,1.175E3,1.74E2,3.91E2,6.23E2,9.32E2,9.4E1,3.47E2,2.89E2,9.3E1,1.42E2,1.82E2],"tree_param":{"num_deleted":"0","num_feature":"19","num_nodes":"61","size_leaf_vector":"1"}},{"base_weights":[2.5052421E-3,-5.2860606E-1,1.659368E0,-8.361525E-1,3.6299013E-2,1.3741418E0,3.3181129E0,-1.0048519E0,-6.6932493E-1,-2.372589E-1,3.252052E-1,1.0122958E0,1.7468992E0,2.7263136E0,3.7299056E0,-1.1816483E0,-9.4275206E-1,-7.597498E-1,-5.748753E-1,-4.2490023E-1,-1.138743E-1,1.548197E-1,4.7679716E-1,1.0555495E0,-2.7459951E-2,1.5403328E0,2.0349755E0,2.937067E0,1.8451065E0,2.5836304E-1,3.7832403E0,-6.0433745E-2,-4.6236705E-2,-4.783876E-2,-1.3951867E-2,-3.8776126E-2,-1.4248088E-2,-3.0528286E-2,-1.2251014E-2,1.2687968E-1,-2.1669665E-2,-2.6766611E-2,-3.7562137E-3,-4.5539862E-3,1.4683149E-2,1.4782883E-2,3.0527666E-2,4.6066873E-2,6.945086E-2,2.0748138E-2,-2.9689914E-2,7.306704E-2,1.0139307E-1,9.0959996E-2,1.1807629E-1,1.4901511E-1,-4.6957802E-2,-2.7037237E-2,1.0325227E-1,5.4283287E-2,-1.5978297E-2,1.8496656E-1,2.8846624E-1],"categories":[],"categories_nodes":[],"categories_segments":[],"categories_sizes":[],"default_left":[0,0,0,0,0,0,0,0,0,0,0,0,0,0,0,0,0,0,0,0,0,0,0,0,0,0,0,0,0,0,0,0,0,0,0,0,0,0,0,0,0,0,0,0,0,0,0,0,0,0,0,0,0,0,0,0,0,0,0,0,0,0,0],"id":11,"left_children":[1,3,5,7,9,11,13,15,17,19,21,23,25,27,29,31,33,35,37,39,41,43,45,47,49,51,53,55,57,59,61,-1,-1,-1,-1,-1,-1,-1,-1,-1,-1,-1,-1,-1,-1,-1,-1,-1,-1,-1,-1,-1,-1,-1,-1,-1,-1,-1,-1,-1,-1,-1,-1],"loss_changes":[2.2008373E4,3.2904688E3,2.8672695E3,3.4428613E2,5.2778644E2,6.969082E2,2.0607715E2,6.559033E1,5.21167E1,7.9309265E1,8.375586E1,1.1850098E2,1.4831006E2,6.2632324E1,9.526807E1,9.639893E0,4.16416E1,2.3247314E1,3.5341797E1,3.510782E1,3.3721283E1,5.2317608E1,4.1353455E1,1.1158618E2,2.6823748E1,5.4068604E1,7.011621E1,5.260913E1,4.0100006E1,4.726651E0,6.3368652E1,0E0,0E0,0E0,0E0,0E0,0E0,0E0,0E0,0E0,0E0,0E0,0E0,0E0,0E0,0E0,0E0,0E0,0E0,0E0,0E0,0E0,0E0,0E0,0E0,0E0,0E0,0E0,0E0,0E0,0E0,0E0,0E0],"parents":[2147483647,0,0,1,1,2,2,3,3,4,4,5,5,6,6,7,7,8,8,9,9,10,10,11,11,12,12,13,13,14,14,15,15,16,16,17,17,18,18,19,19,20,20,21,21,22,22,23,23,24,24,25,25,26,26,27,27,28,28,29,29,30,30],"right_children":[2,4,6,8,10,12,14,16,18,20,22,24,26,28,30,32,34,36,38,40,42,44,46,48,50,52,54,56,58,60,62,-1,-1,-1,-1,-1,-1,-1,-1,-1,-1,-1,-1,-1,-1,-1,-1,-1,-1,-1,-1,-1,-1,-1,-1,-1,-1,-1,-1,-1,-1,-1,-1],"split_conditions":[4.1E0,2.1111112E0,7.7E0,1.25E0,3E0,5.4E0,8.6E0,6E-1,1.7E0,2.1E0,3.2857144E0,7E0,6.4E0,9E0,7.8E0,1E0,3.3E1,4.9868765E-1,4.4923076E-1,1.6666666E0,1.8E0,3.3195022E-1,3.8297874E-1,5.2E0,4.8E0,3.1666667E0,7E0,3.5333333E0,7.9E0,2.88E1,1.3E1,-6.0433745E-2,-4.6236705E-2,-4.783876E-2,-1.3951867E-2,-3.8776126E-2,-1.4248088E-2,-3.0528286E-2,-1.2251014E-2,1.2687968E-1,-2.1669665E-2,-2.6766611E-2,-3.7562137E-3,-4.5539862E-3,1.4683149E-2,1.4782883E-2,3.0527666E-2,4.6066873E-2,6.945086E-2,2.0748138E-2,-2.9689914E-2,7.306704E-2,1.0139307E-1,9.0959996E-2,1.1807629E-1,1.4901511E-1,-4.6957802E-2,-2.7037237E-2,1.0325227E-1,5.4283287E-2,-1.5978297E-2,1.8496656E-1,2.8846624E-1],"split_indices":[1,1,1,1,1,1,1,0,1,13,13,5,1,0,16,1,8,10,10,14,0,10,10,13,12,14,13,14,1,8,0,0,0,0,0,0,0,0,0,0,0,0,0,0,0,0,0,0,0,0,0,0,0,0,0,0,0,0,0,0,0,0,0],"split_type":[0,0,0,0,0,0,0,0,0,0,0,0,0,0,0,0,0,0,0,0,0,0,0,0,0,0,0,0,0,0,0,0,0,0,0,0,0,0,0,0,0,0,0,0,0,0,0,0,0,0,0,0,0,0,0,0,0,0,0,0,0,0,0],"sum_hessian":[2.5008E4,1.8938E4,6.07E3,1.2262E4,6.676E3,5.181E3,8.89E2,6.094E3,6.168E3,3.429E3,3.247E3,2.631E3,2.55E3,3.68E2,5.21E2,1.579E3,4.515E3,3.147E3,3.021E3,1.359E3,2.07E3,1.53E3,1.717E3,2.526E3,1.05E2,1.489E3,1.061E3,2.95E2,7.3E1,8E0,5.13E2,1.425E3,1.54E2,4.421E3,9.4E1,3.045E3,1.02E2,2.725E3,2.96E2,3E0,1.356E3,1.73E2,1.897E3,5.52E2,9.78E2,7.31E2,9.86E2,1.804E3,7.22E2,5.9E1,4.6E1,1.285E3,2.04E2,6.43E2,4.18E2,2.92E2,3E0,6E0,6.7E1,3E0,5E0,4.95E2,1.8E1],"tree_param":{"num_deleted":"0","num_feature":"19","num_nodes":"63","size_leaf_vector":"1"}},{"base_weights":[1.0668168E-2,-5.168025E-1,1.4984113E0,-7.8539044E-1,1.0135729E-2,1.1850157E0,2.9432044E0,-9.2510444E-1,-6.0495555E-1,-2.1014217E-1,2.897119E-1,8.182021E-1,1.5322629E0,2.284888E0,3.4089942E0,-1.0739609E0,-8.523537E-1,-6.525348E-1,-4.2944485E-1,-2.608441E-1,2.414868E-1,2.547663E-1,1.1642914E0,6.8653214E-1,1.1367795E0,1.3677944E0,1.8660613E0,1.9503996E0,3.0822105E0,3.202261E0,4.3662677E0,-5.4180987E-2,9.590021E-3,-4.2780314E-2,2.3644507E-2,-3.3345744E-2,-7.4596466E-3,-2.4888827E-2,-6.2861196E-3,-1.8488284E-2,-6.44559E-3,-3.9556183E-2,1.4483205E-2,4.971579E-2,1.1453867E-2,4.593143E-2,1.2933683E-1,2.9634103E-2,5.1930904E-2,2.8027097E-2,6.291233E-2,9.686861E-2,6.419158E-2,7.9138525E-2,1.0870408E-1,6.664024E-2,1.1366452E-1,2.1506035E-1,1.3933252E-1,2.672111E-1,1.5711397E-1,1.5421037E-1,2.4642086E-1],"categories":[],"categories_nodes":[],"categories_segments":[],"categories_sizes":[],"default_left":[0,0,0,0,0,0,0,0,0,0,0,0,0,0,0,0,0,0,0,0,0,0,0,0,0,0,0,0,0,0,0,0,0,0,0,0,0,0,0,0,0,0,0,0,0,0,0,0,0,0,0,0,0,0,0,0,0,0,0,0,0,0,0],"id":12,"left_children":[1,3,5,7,9,11,13,15,17,19,21,23,25,27,29,31,33,35,37,39,41,43,45,47,49,51,53,55,57,59,61,-1,-1,-1,-1,-1,-1,-1,-1,-1,-1,-1,-1,-1,-1,-1,-1,-1,-1,-1,-1,-1,-1,-1,-1,-1,-1,-1,-1,-1,-1,-1,-1],"loss_changes":[1.9775557E4,2.6330957E3,2.9827148E3,3.099414E2,3.8694235E2,6.891387E2,3.5193945E2,7.4081055E1,4.454663E1,8.0530136E1,8.418968E1,1.0973547E2,1.4996338E2,1.2416577E2,1.21020996E2,2.811084E1,2.056836E1,3.0443237E1,2.3762741E1,4.5312546E1,1.7839687E1,5.0261185E1,3.431404E1,6.1012268E1,5.3008118E1,8.6572266E1,7.611279E1,6.6006226E1,3.8826294E1,5.5333984E1,6.976294E1,0E0,0E0,0E0,0E0,0E0,0E0,0E0,0E0,0E0,0E0,0E0,0E0,0E0,0E0,0E0,0E0,0E0,0E0,0E0,0E0,0E0,0E0,0E0,0E0,0E0,0E0,0E0,0E0,0E0,0E0,0E0,0E0],"parents":[2147483647,0,0,1,1,2,2,3,3,4,4,5,5,6,6,7,7,8,8,9,9,10,10,11,11,12,12,13,13,14,14,15,15,16,16,17,17,18,18,19,19,20,20,21,21,22,22,23,23,24,24,25,25,26,26,27,27,28,28,29,29,30,30],"right_children":[2,4,6,8,10,12,14,16,18,20,22,24,26,28,30,32,34,36,38,40,42,44,46,48,50,52,54,56,58,60,62,-1,-1,-1,-1,-1,-1,-1,-1,-1,-1,-1,-1,-1,-1,-1,-1,-1,-1,-1,-1,-1,-1,-1,-1,-1,-1,-1,-1,-1,-1,-1,-1],"split_conditions":[3.9E0,2.1111112E0,7.2E0,1.4E0,3E0,5.1E0,8.1E0,7.5E-1,2.1E0,2.02E1,1.87E1,4.881356E-1,6.2E0,8E0,1.12E1,3.14E1,5.2E0,2.08E1,4.25E-1,2.5E0,1.8E0,-1.18E1,5.3E0,5.2E0,3.8E0,-6.4E0,1E0,3.8E0,2.3E0,1.9666667E0,1.09E1,-5.4180987E-2,9.590021E-3,-4.2780314E-2,2.3644507E-2,-3.3345744E-2,-7.4596466E-3,-2.4888827E-2,-6.2861196E-3,-1.8488284E-2,-6.44559E-3,-3.9556183E-2,1.4483205E-2,4.971579E-2,1.1453867E-2,4.593143E-2,1.2933683E-1,2.9634103E-2,5.1930904E-2,2.8027097E-2,6.291233E-2,9.686861E-2,6.419158E-2,7.9138525E-2,1.0870408E-1,6.664024E-2,1.1366452E-1,2.1506035E-1,1.3933252E-1,2.672111E-1,1.5711397E-1,1.5421037E-1,2.4642086E-1],"split_indices":[1,1,1,1,1,1,1,1,13,11,16,10,13,13,0,8,13,11,3,13,0,18,13,0,0,18,4,12,14,14,1,0,0,0,0,0,0,0,0,0,0,0,0,0,0,0,0,0,0,0,0,0,0,0,0,0,0,0,0,0,0,0,0],"split_type":[0,0,0,0,0,0,0,0,0,0,0,0,0,0,0,0,0,0,0,0,0,0,0,0,0,0,0,0,0,0,0,0,0,0,0,0,0,0,0,0,0,0,0,0,0,0,0,0,0,0,0,0,0,0,0,0,0,0,0,0,0,0,0],"sum_hessian":[2.5198E4,1.8603E4,6.595E3,1.2322E4,6.281E3,5.421E3,1.174E3,6.942E3,5.38E3,3.513E3,2.768E3,2.638E3,2.783E3,4.89E2,6.85E2,2.274E3,4.668E3,4.23E3,1.15E3,3.159E3,3.54E2,2.663E3,1.05E2,1.869E3,7.69E2,1.868E3,9.15E2,3.47E2,1.42E2,5.67E2,1.18E2,2.257E3,1.7E1,4.657E3,1.1E1,4.112E3,1.18E2,9.38E2,2.12E2,1.729E3,1.43E3,1.5E1,3.39E2,8.8E1,2.575E3,9.1E1,1.4E1,1.478E3,3.91E2,1.35E2,6.34E2,2.37E2,1.631E3,4.8E2,4.35E2,1.21E2,2.26E2,2.5E1,1.17E2,1.3E1,5.54E2,3.8E1,8E1],"tree_param":{"num_deleted":"0","num_feature":"19","num_nodes":"63","size_leaf_vector":"1"}},{"base_weights":[-1.231167E-2,-4.8231366E-1,1.4633317E0,-7.542554E-1,2.9158736E-2,1.1968058E0,2.6818037E0,-8.9872235E-1,-6.137679E-1,-1.5630652E-1,3.2170346E-1,8.243058E-1,1.4753673E0,2.2091954E0,3.2247078E0,-1.0924437E0,-8.425714E-1,-6.7690504E-1,-5.1365334E-1,-3.0234608E-1,-2.4915019E-2,1.8984416E-1,4.51001E-1,7.232604E-1,1.2596961E0,1.3287235E0,1.7563603E0,1.8571006E0,2.7613945E0,2.3616614E0,3.3695145E0,-4.7785114E-2,-5.7632513E-2,-4.271066E-2,-1.939367E-2,-3.48815E-2,-7.866568E-3,2.4551022E-4,-2.6719818E-2,-2.2938082E-2,-8.9957E-3,-6.6097165E-3,1.360023E-2,5.8733425E-3,2.8218878E-2,2.5886739E-2,3.8737468E-3,3.1007146E-2,6.124357E-2,4.4587504E-2,9.156013E-2,5.0131183E-2,7.0683576E-2,1.192798E-1,8.2127176E-2,6.959036E-2,1.12059526E-1,1.2628163E-1,2.236981E-1,1.4240433E-1,9.349684E-3,1.551686E-1,1.8887706E-1],"categories":[],"categories_nodes":[],"categories_segments":[],"categories_sizes":[],"default_left":[0,0,0,0,0,0,0,0,0,0,0,0,0,0,0,0,0,0,0,0,0,0,0,0,0,0,0,0,0,0,0,0,0,0,0,0,0,0,0,0,0,0,0,0,0,0,0,0,0,0,0,0,0,0,0,0,0,0,0,0,0,0,0],"id":13,"left_children":[1,3,5,7,9,11,13,15,17,19,21,23,25,27,29,31,33,35,37,39,41,43,45,47,49,51,53,55,57,59,61,-1,-1,-1,-1,-1,-1,-1,-1,-1,-1,-1,-1,-1,-1,-1,-1,-1,-1,-1,-1,-1,-1,-1,-1,-1,-1,-1,-1,-1,-1,-1,-1],"loss_changes":[1.7450459E4,2.6543628E3,1.9702598E3,2.521626E2,3.5951865E2,5.162334E2,2.7200635E2,6.5674805E1,3.948169E1,7.7768524E1,4.3683502E1,9.290613E1,1.1491797E2,1.0834375E2,5.4581543E1,1.0015869E1,2.4767822E1,4.1499146E1,2.6398499E1,3.6622147E1,6.806069E1,3.4427864E1,3.223044E1,8.890198E1,8.2418396E1,5.0391846E1,6.5505615E1,6.1033325E1,7.924988E1,7.955771E1,3.428369E1,0E0,0E0,0E0,0E0,0E0,0E0,0E0,0E0,0E0,0E0,0E0,0E0,0E0,0E0,0E0,0E0,0E0,0E0,0E0,0E0,0E0,0E0,0E0,0E0,0E0,0E0,0E0,0E0,0E0,0E0,0E0,0E0],"parents":[2147483647,0,0,1,1,2,2,3,3,4,4,5,5,6,6,7,7,8,8,9,9,10,10,11,11,12,12,13,13,14,14,15,15,16,16,17,17,18,18,19,19,20,20,21,21,22,22,23,23,24,24,25,25,26,26,27,27,28,28,29,29,30,30],"right_children":[2,4,6,8,10,12,14,16,18,20,22,24,26,28,30,32,34,36,38,40,42,44,46,48,50,52,54,56,58,60,62,-1,-1,-1,-1,-1,-1,-1,-1,-1,-1,-1,-1,-1,-1,-1,-1,-1,-1,-1,-1,-1,-1,-1,-1,-1,-1,-1,-1,-1,-1,-1,-1],"split_conditions":[4.1E0,2.1111112E0,7.3E0,1.25E0,3.2E0,5.1E0,8.6E0,6E-1,1.8E0,2.6E0,3.9779004E-1,5.313433E-1,6.2E0,8E0,3.27E1,8.5E0,3.19E1,4.9868765E-1,1.4E1,8.85E0,4.2105263E-1,4.4E0,9.2E0,5.7E0,2.3333333E-1,3.4920636E-1,-4.2E0,1E0,3.7771242E0,3.1E0,1.02E1,-4.7785114E-2,-5.7632513E-2,-4.271066E-2,-1.939367E-2,-3.48815E-2,-7.866568E-3,2.4551022E-4,-2.6719818E-2,-2.2938082E-2,-8.9957E-3,-6.6097165E-3,1.360023E-2,5.8733425E-3,2.8218878E-2,2.5886739E-2,3.8737468E-3,3.1007146E-2,6.124357E-2,4.4587504E-2,9.156013E-2,5.0131183E-2,7.0683576E-2,1.192798E-1,8.2127176E-2,6.959036E-2,1.12059526E-1,1.2628163E-1,2.236981E-1,1.4240433E-1,9.349684E-3,1.551686E-1,1.8887706E-1],"split_indices":[1,1,1,1,1,1,1,1,1,1,10,10,13,13,9,9,9,10,9,15,10,0,12,13,3,10,18,4,2,14,0,0,0,0,0,0,0,0,0,0,0,0,0,0,0,0,0,0,0,0,0,0,0,0,0,0,0,0,0,0,0,0,0],"split_type":[0,0,0,0,0,0,0,0,0,0,0,0,0,0,0,0,0,0,0,0,0,0,0,0,0,0,0,0,0,0,0,0,0,0,0,0,0,0,0,0,0,0,0,0,0,0,0,0,0,0,0,0,0,0,0,0,0,0,0,0,0,0,0],"sum_hessian":[2.5159E4,1.9082E4,6.077E3,1.2458E4,6.624E3,4.988E3,1.089E3,6.139E3,6.319E3,4.054E3,2.57E3,2.136E3,2.852E3,5.85E2,5.04E2,1.375E3,4.764E3,3.871E3,2.448E3,1.919E3,2.135E3,1.274E3,1.296E3,1.736E3,4E2,1.878E3,9.74E2,3.6E2,2.25E2,7.5E1,4.29E2,4.26E2,9.49E2,4.644E3,1.2E2,3.722E3,1.49E2,9.4E1,2.354E3,8.41E2,1.078E3,1.569E3,5.66E2,1.069E3,2.05E2,1.099E3,1.97E2,1.442E3,2.94E2,2.45E2,1.55E2,3.91E2,1.487E3,1.46E2,8.28E2,1.65E2,1.95E2,2E2,2.5E1,6.1E1,1.4E1,2.65E2,1.64E2],"tree_param":{"num_deleted":"0","num_feature":"19","num_nodes":"63","size_leaf_vector":"1"}},{"base_weights":[-1.659736E-3,-4.7887182E-1,1.3533926E0,-6.7875975E-1,1.1890626E-1,1.1122501E0,2.8808002E0,-8.05792E-1,-4.2510003E-1,-1.6978692E-1,2.2126475E-1,7.4172443E-1,1.3802091E0,2.624799E0,3.6134298E0,-9.892808E-1,-7.4500644E-1,-5.429692E-1,-3.2783702E-1,1.4012413E0,-1.9845925E-1,4.7534604E-2,3.77512E-1,4.645563E-1,9.2081356E-1,1.2268573E0,1.6693065E0,2.3764298E0,3.7250733E0,3.3129842E0,4.7042403E0,-5.1681887E-2,-3.4443405E-2,-4.0761482E-2,-3.280289E-2,-2.9601777E-2,-1.7466139E-2,-2.067924E-2,-9.775977E-3,1.0058507E-2,1.1044466E-1,-1.33972345E-2,1.5889104E-2,5.8354456E-2,1.0418143E-3,1.2091971E-2,2.6421148E-2,5.8377095E-2,1.9921448E-2,1.4957225E-1,4.448132E-2,6.657565E-2,4.797202E-2,6.978043E-2,9.8218285E-2,1.2553774E-1,5.6368142E-2,2.3419964E-1,1.3352191E-1,1.7286329E-1,6.586033E-2,2.5534236E-1,8.298976E-2],"categories":[],"categories_nodes":[],"categories_segments":[],"categories_sizes":[],"default_left":[0,0,0,0,0,0,0,0,0,0,0,0,0,0,0,0,0,0,0,0,0,0,0,0,0,0,0,0,0,0,0,0,0,0,0,0,0,0,0,0,0,0,0,0,0,0,0,0,0,0,0,0,0,0,0,0,0,0,0,0,0,0,0],"id":14,"left_children":[1,3,5,7,9,11,13,15,17,19,21,23,25,27,29,31,33,35,37,39,41,43,45,47,49,51,53,55,57,59,61,-1,-1,-1,-1,-1,-1,-1,-1,-1,-1,-1,-1,-1,-1,-1,-1,-1,-1,-1,-1,-1,-1,-1,-1,-1,-1,-1,-1,-1,-1,-1,-1],"loss_changes":[1.6309653E4,2.2289585E3,2.4159102E3,4.49979E2,1.3818988E2,5.6220996E2,1.5775195E2,1.02961426E2,5.3238953E1,5.5292973E1,9.3643585E1,1.1777026E2,1.4360889E2,1.7281152E2,5.866333E1,2.995044E1,4.3041992E1,1.972821E1,2.8903748E1,2.0637901E1,4.3233288E1,4.8757286E1,3.6997314E1,4.298262E1,9.039368E1,5.8804443E1,8.882422E1,8.858179E1,1.09124756E2,4.7664307E1,4.8455566E1,0E0,0E0,0E0,0E0,0E0,0E0,0E0,0E0,0E0,0E0,0E0,0E0,0E0,0E0,0E0,0E0,0E0,0E0,0E0,0E0,0E0,0E0,0E0,0E0,0E0,0E0,0E0,0E0,0E0,0E0,0E0,0E0],"parents":[2147483647,0,0,1,1,2,2,3,3,4,4,5,5,6,6,7,7,8,8,9,9,10,10,11,11,12,12,13,13,14,14,15,15,16,16,17,17,18,18,19,19,20,20,21,21,22,22,23,23,24,24,25,25,26,26,27,27,28,28,29,29,30,30],"right_children":[2,4,6,8,10,12,14,16,18,20,22,24,26,28,30,32,34,36,38,40,42,44,46,48,50,52,54,56,58,60,62,-1,-1,-1,-1,-1,-1,-1,-1,-1,-1,-1,-1,-1,-1,-1,-1,-1,-1,-1,-1,-1,-1,-1,-1,-1,-1,-1,-1,-1,-1,-1,-1],"split_conditions":[3.9E0,2.5E0,7.7E0,1.7E0,2.8E0,5E0,3.6878178E0,7.5E-1,1.8333334E0,1.4E1,3.7299034E-1,1.42E1,6.2E0,1E1,2.96E1,2.07E1,1.25E0,4.039088E-1,1.18E1,4.4E0,2.02E1,-1.16E1,3.3333333E0,-9.8E0,1.1005049E0,8E-1,1E0,3.5023801E0,3.56E1,3.76E1,1.54E1,-5.1681887E-2,-3.4443405E-2,-4.0761482E-2,-3.280289E-2,-2.9601777E-2,-1.7466139E-2,-2.067924E-2,-9.775977E-3,1.0058507E-2,1.1044466E-1,-1.33972345E-2,1.5889104E-2,5.8354456E-2,1.0418143E-3,1.2091971E-2,2.6421148E-2,5.8377095E-2,1.9921448E-2,1.4957225E-1,4.448132E-2,6.657565E-2,4.797202E-2,6.978043E-2,9.8218285E-2,1.2553774E-1,5.6368142E-2,2.3419964E-1,1.3352191E-1,1.7286329E-1,6.586033E-2,2.5534236E-1,8.298976E-2],"split_indices":[1,1,1,1,1,1,2,1,13,9,10,11,13,1,11,9,13,10,11,11,11,18,13,18,2,17,4,2,9,9,18,0,0,0,0,0,0,0,0,0,0,0,0,0,0,0,0,0,0,0,0,0,0,0,0,0,0,0,0,0,0,0,0],"split_type":[0,0,0,0,0,0,0,0,0,0,0,0,0,0,0,0,0,0,0,0,0,0,0,0,0,0,0,0,0,0,0,0,0,0,0,0,0,0,0,0,0,0,0,0,0,0,0,0,0,0,0,0,0,0,0,0,0,0,0,0,0,0,0],"sum_hessian":[2.522E4,1.8652E4,6.568E3,1.3978E4,4.674E3,5.674E3,8.94E2,9.312E3,4.666E3,1.223E3,3.451E3,2.383E3,3.291E3,6.66E2,2.28E2,2.313E3,6.999E3,2.107E3,2.559E3,2.1E1,1.202E3,1.635E3,1.816E3,9.37E2,1.446E3,2.154E3,1.137E3,5.46E2,1.2E2,1.82E2,4.6E1,2.013E3,3E2,3.906E3,3.093E3,1.679E3,4.28E2,1.551E3,1.008E3,9E0,1.2E1,1.06E3,1.42E2,3.7E1,1.598E3,9.58E2,8.58E2,7.9E1,8.58E2,2E1,1.426E3,1.545E3,6.09E2,5.93E2,5.44E2,4.92E2,5.4E1,6.1E1,5.9E1,1.69E2,1.3E1,4E1,6E0],"tree_param":{"num_deleted":"0","num_feature":"19","num_nodes":"63","size_leaf_vector":"1"}},{"base_weights":[4.562172E-3,-5.234489E-1,1.144497E0,-7.415548E-1,-2.1708596E-1,9.0247756E-1,2.535823E0,-9.0368646E-1,-6.718181E-1,-3.6663008E-1,1.8724004E-2,5.423861E-1,1.2337389E0,2.238768E0,3.3396835E0,-9.845179E-1,-8.3735925E-1,-6.9407153E-1,-3.5105312E-1,-4.5014408E-1,-2.3129009E-1,3.5459894E-1,-5.0928485E-2,5.1911324E-1,1.6394738E0,1.0363548E0,1.4479599E0,2.0398068E0,2.6616483E0,2.5650907E0,3.685953E0,7.5624124E-3,-4.9488172E-2,-4.2739373E-2,-2.1342672E-2,-3.5327226E-2,-2.039641E-2,-2.7398262E-2,-8.936125E-3,-2.796614E-3,-2.3743799E-2,-1.8572561E-2,-1.5811824E-3,1.3738695E-2,5.1440466E-2,-5.552316E-3,1.3279012E-2,2.197162E-2,3.6961194E-2,5.4828156E-2,2.1473022E-1,2.4063626E-2,5.7611894E-2,6.1281856E-2,8.347512E-2,1.04339145E-1,-1.0263405E-2,2.7860222E-2,1.40824E-1,1.3818704E-1,1.0812796E-2,2.1942417E-1,1.5486422E-1],"categories":[],"categories_nodes":[],"categories_segments":[],"categories_sizes":[],"default_left":[0,0,0,0,0,0,0,0,0,0,0,0,0,0,0,0,0,0,0,0,0,0,0,0,0,1,0,0,0,0,0,0,0,0,0,0,0,0,0,0,0,0,0,0,0,0,0,0,0,0,0,0,0,0,0,0,0,0,0,0,0,0,0],"id":15,"left_children":[1,3,5,7,9,11,13,15,17,19,21,23,25,27,29,31,33,35,37,39,41,43,45,47,49,51,53,55,57,59,61,-1,-1,-1,-1,-1,-1,-1,-1,-1,-1,-1,-1,-1,-1,-1,-1,-1,-1,-1,-1,-1,-1,-1,-1,-1,-1,-1,-1,-1,-1,-1,-1],"loss_changes":[1.5136596E4,1.1481714E3,2.6780596E3,1.1274121E2,2.5214398E2,8.082593E2,2.735E2,1.5163086E1,4.979004E1,4.9277405E1,6.496823E1,8.196423E1,1.4759717E2,6.679492E1,7.467676E1,8.294556E0,1.1411865E1,2.303833E1,1.5371166E1,2.6283264E1,4.673967E1,2.5258549E1,4.3758995E1,5.5435303E1,9.133197E1,1.1776807E2,8.095288E1,6.3051758E1,8.704602E1,4.623047E1,7.498755E1,0E0,0E0,0E0,0E0,0E0,0E0,0E0,0E0,0E0,0E0,0E0,0E0,0E0,0E0,0E0,0E0,0E0,0E0,0E0,0E0,0E0,0E0,0E0,0E0,0E0,0E0,0E0,0E0,0E0,0E0,0E0,0E0],"parents":[2147483647,0,0,1,1,2,2,3,3,4,4,5,5,6,6,7,7,8,8,9,9,10,10,11,11,12,12,13,13,14,14,15,15,16,16,17,17,18,18,19,19,20,20,21,21,22,22,23,23,24,24,25,25,26,26,27,27,28,28,29,29,30,30],"right_children":[2,4,6,8,10,12,14,16,18,20,22,24,26,28,30,32,34,36,38,40,42,44,46,48,50,52,54,56,58,60,62,-1,-1,-1,-1,-1,-1,-1,-1,-1,-1,-1,-1,-1,-1,-1,-1,-1,-1,-1,-1,-1,-1,-1,-1,-1,-1,-1,-1,-1,-1,-1,-1],"split_conditions":[3.4E0,1.8E0,7.2E0,9E-1,2.6E0,4.7E0,9.4E0,6E-1,1.64E1,2.2E0,-5.6E0,1.995E1,5.5E0,6.4E0,1.54E1,-7E-1,2.3E0,3.2857144E0,3.01E1,3.95E0,1.18E1,-6E0,2.02E1,4.3E0,2.6853511E0,9.45E0,1E0,3.2E1,4.75E0,1.22E1,5.6E0,7.5624124E-3,-4.9488172E-2,-4.2739373E-2,-2.1342672E-2,-3.5327226E-2,-2.039641E-2,-2.7398262E-2,-8.936125E-3,-2.796614E-3,-2.3743799E-2,-1.8572561E-2,-1.5811824E-3,1.3738695E-2,5.1440466E-2,-5.552316E-3,1.3279012E-2,2.197162E-2,3.6961194E-2,5.4828156E-2,2.1473022E-1,2.4063626E-2,5.7611894E-2,6.1281856E-2,8.347512E-2,1.04339145E-1,-1.0263405E-2,2.7860222E-2,1.40824E-1,1.3818704E-1,1.0812796E-2,2.1942417E-1,1.5486422E-1],"split_indices":[1,1,1,1,1,1,1,0,11,13,18,16,13,12,16,3,13,13,9,16,11,18,11,1,2,16,4,11,13,18,12,0,0,0,0,0,0,0,0,0,0,0,0,0,0,0,0,0,0,0,0,0,0,0,0,0,0,0,0,0,0,0,0],"split_type":[0,0,0,0,0,0,0,0,0,0,0,0,0,0,0,0,0,0,0,0,0,0,0,0,0,0,0,0,0,0,0,0,0,0,0,0,0,0,0,0,0,0,0,0,0,0,0,0,0,0,0,0,0,0,0,0,0,0,0,0,0,0,0],"sum_hessian":[2.5146E4,1.7186E4,7.96E3,1.0038E4,7.148E3,6.782E3,1.178E3,3.015E3,7.023E3,4.374E3,2.774E3,3.251E3,3.531E3,8.63E2,3.15E2,1.352E3,1.663E3,6.566E3,4.57E2,2.703E3,1.671E3,4.76E2,2.298E3,3.185E3,6.6E1,1.841E3,1.69E3,5.91E2,2.72E2,1E2,2.15E2,6E0,1.346E3,1.594E3,6.9E1,6.29E3,2.76E2,2.12E2,2.45E2,1.6E2,2.543E3,9.81E2,6.9E2,4.27E2,4.9E1,1.932E3,3.66E2,2.341E3,8.44E2,5.6E1,1E1,3.19E2,1.522E3,8.47E2,8.43E2,5.79E2,1.2E1,1.9E1,2.53E2,9.2E1,8E0,9.5E1,1.2E2],"tree_param":{"num_deleted":"0","num_feature":"19","num_nodes":"63","size_leaf_vector":"1"}},{"base_weights":[6.0925685E-4,-4.0473285E-1,1.2827907E0,-6.3852984E-1,2.9033523E-2,1.017707E0,2.3884284E0,-8.2346785E-1,-5.546205E-1,-1.7480634E-1,2.4770744E-1,7.879379E-1,1.33219E0,2.0536041E0,3.3012195E0,-9.0438706E-1,-7.324542E-1,-6.172436E-1,-3.940653E-1,-2.2276482E-1,1.8934092E-1,2.170547E-1,8.052329E-1,7.509085E-1,1.7877396E0,1.554087E0,1.1836994E0,1.5003867E0,2.2771685E0,8.825996E-1,3.4993591E0,-4.6906006E-2,-3.529617E-2,7.720273E-3,-3.697137E-2,-3.1641427E-2,-7.484693E-3,3.8452556E-3,-2.065474E-2,7.433864E-2,-1.1415844E-2,1.3522916E-1,8.176484E-3,1.0153013E-2,4.7537096E-2,6.1848886E-2,2.0348823E-2,2.8445218E-2,4.6002325E-2,2.1738049E-2,1.11580126E-1,6.695395E-2,1.0079517E-1,5.38821E-2,8.192551E-2,6.782784E-2,1.4623903E-1,9.337817E-2,1.311041E-1,1.3005035E-1,-5.937127E-2,7.980468E-2,1.8213509E-1],"categories":[],"categories_nodes":[],"categories_segments":[],"categories_sizes":[],"default_left":[0,0,0,0,0,0,0,0,0,0,0,1,0,0,0,0,0,0,0,0,0,0,0,0,0,0,0,0,0,0,0,0,0,0,0,0,0,0,0,0,0,0,0,0,0,0,0,0,0,0,0,0,0,0,0,0,0,0,0,0,0,0,0],"id":16,"left_children":[1,3,5,7,9,11,13,15,17,19,21,23,25,27,29,31,33,35,37,39,41,43,45,47,49,51,53,55,57,59,61,-1,-1,-1,-1,-1,-1,-1,-1,-1,-1,-1,-1,-1,-1,-1,-1,-1,-1,-1,-1,-1,-1,-1,-1,-1,-1,-1,-1,-1,-1,-1,-1],"loss_changes":[1.3088249E4,1.940521E3,1.7701094E3,1.9234131E2,2.9878864E2,3.5143164E2,3.4995996E2,2.7734375E1,8.568164E1,6.062796E1,5.4991028E1,1.02917114E2,6.572998E1,1.02322754E2,1.4599146E2,1.2884277E1,1.1496155E1,4.4662354E1,2.161081E1,2.9314346E1,2.549921E1,3.1182098E1,2.8218964E1,8.318262E1,5.8816833E1,7.858472E1,5.7678833E1,4.682184E1,8.069263E1,9.21585E1,7.223413E1,0E0,0E0,0E0,0E0,0E0,0E0,0E0,0E0,0E0,0E0,0E0,0E0,0E0,0E0,0E0,0E0,0E0,0E0,0E0,0E0,0E0,0E0,0E0,0E0,0E0,0E0,0E0,0E0,0E0,0E0,0E0,0E0],"parents":[2147483647,0,0,1,1,2,2,3,3,4,4,5,5,6,6,7,7,8,8,9,9,10,10,11,11,12,12,13,13,14,14,15,15,16,16,17,17,18,18,19,19,20,20,21,21,22,22,23,23,24,24,25,25,26,26,27,27,28,28,29,29,30,30],"right_children":[2,4,6,8,10,12,14,16,18,20,22,24,26,28,30,32,34,36,38,40,42,44,46,48,50,52,54,56,58,60,62,-1,-1,-1,-1,-1,-1,-1,-1,-1,-1,-1,-1,-1,-1,-1,-1,-1,-1,-1,-1,-1,-1,-1,-1,-1,-1,-1,-1,-1,-1,-1,-1],"split_conditions":[4.1E0,2.1111112E0,7.2E0,1E0,3E0,5.5E0,9.4E0,8E-1,1.8E0,1.96E1,1.855E1,2.025E1,6E-1,3.8E0,3.25E1,1.99E1,2E-1,4.9266863E-1,1.42E1,1.6666666E0,6.992059E-1,5.2E0,5.5525607E-1,4.7E0,3.36E1,6.8E0,2.76E1,9.6E0,1E0,1.26E1,3.297491E-1,-4.6906006E-2,-3.529617E-2,7.720273E-3,-3.697137E-2,-3.1641427E-2,-7.484693E-3,3.8452556E-3,-2.065474E-2,7.433864E-2,-1.1415844E-2,1.3522916E-1,8.176484E-3,1.0153013E-2,4.7537096E-2,6.1848886E-2,2.0348823E-2,2.8445218E-2,4.6002325E-2,2.1738049E-2,1.11580126E-1,6.695395E-2,1.0079517E-1,5.38821E-2,8.192551E-2,6.782784E-2,1.4623903E-1,9.337817E-2,1.311041E-1,1.3005035E-1,-5.937127E-2,7.980468E-2,1.8213509E-1],"split_indices":[1,1,1,0,1,1,1,1,1,11,16,16,17,12,9,9,0,10,9,14,2,0,10,1,9,0,11,0,4,16,10,0,0,0,0,0,0,0,0,0,0,0,0,0,0,0,0,0,0,0,0,0,0,0,0,0,0,0,0,0,0,0,0],"split_type":[0,0,0,0,0,0,0,0,0,0,0,0,0,0,0,0,0,0,0,0,0,0,0,0,0,0,0,0,0,0,0,0,0,0,0,0,0,0,0,0,0,0,0,0,0,0,0,0,0,0,0,0,0,0,0,0,0,0,0,0,0,0,0],"sum_hessian":[2.5181E4,1.9133E4,6.048E3,1.2432E4,6.701E3,4.88E3,1.168E3,3.877E3,8.555E3,3.468E3,3.233E3,2.822E3,2.058E3,8.57E2,3.11E2,2.047E3,1.83E3,6.152E3,2.403E3,3.065E3,4.03E2,3.066E3,1.67E2,2.723E3,9.9E1,8.21E2,1.237E3,2.49E2,6.08E2,2.4E1,2.87E2,1.746E3,3.01E2,1.4E1,1.816E3,5.953E3,1.99E2,9.3E1,2.31E3,9E0,3.056E3,3E0,4E2,3.01E3,5.6E1,7.9E1,8.8E1,1.314E3,1.409E3,2.5E1,7.4E1,5.63E2,2.58E2,1.006E3,2.31E2,2.28E2,2.1E1,2.81E2,3.27E2,1.3E1,1.1E1,2.1E1,2.66E2],"tree_param":{"num_deleted":"0","num_feature":"19","num_nodes":"63","size_leaf_vector":"1"}},{"base_weights":[-2.1361583E-3,-3.8220307E-1,1.2157558E0,-6.412539E-1,-3.7763525E-2,9.173582E-1,2.0804439E0,-7.656111E-1,-5.42076E-1,-1.9496527E-1,2.84086E-1,7.632331E-1,1.4617441E0,1.891005E0,3.2114205E0,-8.5069925E-1,-6.062134E-1,-5.6541896E-1,-1.1312015E-1,-2.8913072E-1,4.437742E-2,7.518878E-2,5.202789E-1,6.8871933E-1,1.3298753E0,9.320063E-1,1.6541454E0,1.4538436E0,2.1510897E0,3.4129932E0,1.2559108E0,-3.7201647E-2,-4.6702165E-2,-3.1191835E-2,4.8462446E-3,-2.9870575E-2,-1.7618496E-2,-5.514849E-2,-2.0966919E-3,-2.0572377E-2,-9.230221E-3,-3.2793318E-3,1.6707798E-2,5.753133E-3,-4.809081E-2,2.483727E-2,2.07022E-1,3.637681E-2,-1.8414866E-2,4.6479847E-2,8.0557205E-2,5.0896265E-2,-5.5988368E-2,6.6623986E-2,9.895169E-2,-2.3081869E-2,7.555005E-2,1.3050827E-1,9.161367E-2,-7.2910744E-3,1.7534755E-1,2.0806885E-1,2.8643493E-2],"categories":[],"categories_nodes":[],"categories_segments":[],"categories_sizes":[],"default_left":[0,0,0,0,0,0,0,0,0,0,0,0,0,0,0,0,0,0,0,0,0,0,0,0,0,0,0,0,0,0,0,0,0,0,0,0,0,0,0,0,0,0,0,0,0,0,0,0,0,0,0,0,0,0,0,0,0,0,0,0,0,0,0],"id":17,"left_children":[1,3,5,7,9,11,13,15,17,19,21,23,25,27,29,31,33,35,37,39,41,43,45,47,49,51,53,55,57,59,61,-1,-1,-1,-1,-1,-1,-1,-1,-1,-1,-1,-1,-1,-1,-1,-1,-1,-1,-1,-1,-1,-1,-1,-1,-1,-1,-1,-1,-1,-1,-1,-1],"loss_changes":[1.1612663E4,1.7060239E3,1.5374023E3,1.3404932E2,4.1538336E2,3.7102515E2,3.2122168E2,6.496948E1,6.0697754E1,1.24355865E2,1.3282338E2,1.450149E2,9.787964E1,1.4579883E2,8.1177246E1,2.7158447E1,2.1030273E1,3.8961548E1,2.203534E1,5.0481506E1,4.9694794E1,5.9196995E1,1.05165924E2,1.2589673E2,4.339514E1,4.749295E1,7.1857666E1,5.4777954E1,1.149353E2,6.6720215E1,4.0802803E1,0E0,0E0,0E0,0E0,0E0,0E0,0E0,0E0,0E0,0E0,0E0,0E0,0E0,0E0,0E0,0E0,0E0,0E0,0E0,0E0,0E0,0E0,0E0,0E0,0E0,0E0,0E0,0E0,0E0,0E0,0E0,0E0],"parents":[2147483647,0,0,1,1,2,2,3,3,4,4,5,5,6,6,7,7,8,8,9,9,10,10,11,11,12,12,13,13,14,14,15,15,16,16,17,17,18,18,19,19,20,20,21,21,22,22,23,23,24,24,25,25,26,26,27,27,28,28,29,29,30,30],"right_children":[2,4,6,8,10,12,14,16,18,20,22,24,26,28,30,32,34,36,38,40,42,44,46,48,50,52,54,56,58,60,62,-1,-1,-1,-1,-1,-1,-1,-1,-1,-1,-1,-1,-1,-1,-1,-1,-1,-1,-1,-1,-1,-1,-1,-1,-1,-1,-1,-1,-1,-1,-1,-1],"split_conditions":[4.2E0,2E0,7E0,1.88E1,3.1E0,6.2E0,1.02E1,1.1E0,3.2857144E0,1.52E1,4E-1,5.6E-1,5.2E0,6.3333335E0,3.78E1,2.2E0,2.3570225E0,4.2813456E-1,1.99E1,1.9E0,3.4E0,7E0,3.38E1,7E0,5.2E0,2.14E1,1E0,1.6465452E0,1.6E0,1.06E1,1.06E1,-3.7201647E-2,-4.6702165E-2,-3.1191835E-2,4.8462446E-3,-2.9870575E-2,-1.7618496E-2,-5.514849E-2,-2.0966919E-3,-2.0572377E-2,-9.230221E-3,-3.2793318E-3,1.6707798E-2,5.753133E-3,-4.809081E-2,2.483727E-2,2.07022E-1,3.637681E-2,-1.8414866E-2,4.6479847E-2,8.0557205E-2,5.0896265E-2,-5.5988368E-2,6.6623986E-2,9.895169E-2,-2.3081869E-2,7.555005E-2,1.3050827E-1,9.161367E-2,-7.2910744E-3,1.7534755E-1,2.0806885E-1,2.8643493E-2],"split_indices":[0,0,0,8,13,13,0,13,13,11,10,10,0,13,9,12,2,10,9,13,0,5,11,5,0,16,4,2,18,16,0,0,0,0,0,0,0,0,0,0,0,0,0,0,0,0,0,0,0,0,0,0,0,0,0,0,0,0,0,0,0,0,0],"split_type":[0,0,0,0,0,0,0,0,0,0,0,0,0,0,0,0,0,0,0,0,0,0,0,0,0,0,0,0,0,0,0,0,0,0,0,0,0,0,0,0,0,0,0,0,0,0,0,0,0,0,0,0,0,0,0,0,0,0,0,0,0,0,0],"sum_hessian":[2.5086E4,1.912E4,5.966E3,1.0912E4,8.208E3,4.437E3,1.529E3,4.838E3,6.074E3,5.515E3,2.693E3,3.46E3,9.77E2,1.312E3,2.17E2,3.151E3,1.687E3,5.76E3,3.14E2,3.958E3,1.557E3,1.43E3,1.263E3,3.06E3,4E2,2.62E2,7.15E2,4.92E2,8.2E2,1.96E2,2.1E1,1.387E3,1.764E3,1.646E3,4.1E1,5.006E3,7.54E2,2E1,2.94E2,1.822E3,2.136E3,1.129E3,4.28E2,1.378E3,5.2E1,1.256E3,7E0,2.952E3,1.08E2,1.67E2,2.33E2,2.52E2,1E1,3.62E2,3.53E2,1.4E1,4.78E2,3.33E2,4.87E2,5E0,1.91E2,3E0,1.8E1],"tree_param":{"num_deleted":"0","num_feature":"19","num_nodes":"63","size_leaf_vector":"1"}},{"base_weights":[-1.9143664E-3,-3.881232E-1,1.0918901E0,-5.579829E-1,5.4189943E-2,7.68804E-1,1.8459175E0,-6.8777317E-1,-4.1750544E-1,-1.1539541E-1,2.0665346E-1,5.747268E-1,1.0178336E0,1.5130903E0,2.4593713E0,-7.977171E-1,-6.3223183E-1,-4.9656212E-1,-3.2923546E-1,-3.6270678E-1,-5.411759E-2,1.6216546E-1,6.162274E-1,4.8894784E-1,9.512152E-1,1.0552039E0,1.4189522E-1,1.1967984E0,1.8134471E0,8.007868E-1,2.5097866E0,-2.996586E-2,-4.2223375E-2,-3.2191303E-2,-1.3280118E-2,-2.5241438E-2,8.887736E-3,-1.8423658E-2,-4.3713744E-3,1.2383445E-1,-1.9281505E-2,-4.072705E-3,2.9982379E-2,-3.3326305E-2,8.912042E-3,1.3229172E-2,5.535726E-2,1.147049E-1,2.3747027E-2,3.6401875E-2,8.312138E-2,4.5586843E-2,6.587754E-2,6.4661175E-2,-2.122023E-2,-6.783573E-2,6.1601985E-2,6.513577E-2,1.180073E-1,6.380907E-2,-5.2539546E-2,1.971245E-1,1.21949665E-1],"categories":[],"categories_nodes":[],"categories_segments":[],"categories_sizes":[],"default_left":[0,0,0,0,0,0,0,0,0,0,0,0,0,0,0,0,0,0,1,0,1,0,0,0,0,0,0,0,0,0,0,0,0,0,0,0,0,0,0,0,0,0,0,0,0,0,0,0,0,0,0,0,0,0,0,0,0,0,0,0,0,0,0],"id":18,"left_children":[1,3,5,7,9,11,13,15,17,19,21,23,25,27,29,31,33,35,37,39,41,43,45,47,49,51,53,55,57,59,61,-1,-1,-1,-1,-1,-1,-1,-1,-1,-1,-1,-1,-1,-1,-1,-1,-1,-1,-1,-1,-1,-1,-1,-1,-1,-1,-1,-1,-1,-1,-1,-1],"loss_changes":[1.0679561E4,1.4038313E3,1.6054521E3,2.4574316E2,1.3409415E2,2.2254468E2,3.9973828E2,4.218921E1,4.501538E1,3.7143482E1,4.958413E1,8.332501E1,6.59187E1,1.1960376E2,5.568994E1,2.1146484E1,1.9572021E1,1.9181152E1,2.9031311E1,3.2443993E1,3.5186314E1,3.290754E1,4.5661644E1,5.2212982E1,7.489819E1,7.155615E1,5.540348E1,5.8262146E1,1.8000464E2,2.07286E1,5.800586E1,0E0,0E0,0E0,0E0,0E0,0E0,0E0,0E0,0E0,0E0,0E0,0E0,0E0,0E0,0E0,0E0,0E0,0E0,0E0,0E0,0E0,0E0,0E0,0E0,0E0,0E0,0E0,0E0,0E0,0E0,0E0,0E0],"parents":[2147483647,0,0,1,1,2,2,3,3,4,4,5,5,6,6,7,7,8,8,9,9,10,10,11,11,12,12,13,13,14,14,15,15,16,16,17,17,18,18,19,19,20,20,21,21,22,22,23,23,24,24,25,25,26,26,27,27,28,28,29,29,30,30],"right_children":[2,4,6,8,10,12,14,16,18,20,22,24,26,28,30,32,34,36,38,40,42,44,46,48,50,52,54,56,58,60,62,-1,-1,-1,-1,-1,-1,-1,-1,-1,-1,-1,-1,-1,-1,-1,-1,-1,-1,-1,-1,-1,-1,-1,-1,-1,-1,-1,-1,-1,-1,-1,-1],"split_conditions":[3.9E0,2.4E0,6.4E0,1.4E0,3E0,5.1E0,8.1E0,8E-1,1.75E0,1.4E0,5.346535E-1,5.252525E-1,7E0,1E0,7.8E0,8E0,3.22E1,1.225E1,1.19E1,1.35E1,1.72E1,3.7E0,6.4E0,1.1352924E0,5.2E0,9.55E0,8.5E0,5E0,6.6666665E0,1.04E1,2.4E0,-2.996586E-2,-4.2223375E-2,-3.2191303E-2,-1.3280118E-2,-2.5241438E-2,8.887736E-3,-1.8423658E-2,-4.3713744E-3,1.2383445E-1,-1.9281505E-2,-4.072705E-3,2.9982379E-2,-3.3326305E-2,8.912042E-3,1.3229172E-2,5.535726E-2,1.147049E-1,2.3747027E-2,3.6401875E-2,8.312138E-2,4.5586843E-2,6.587754E-2,6.4661175E-2,-2.122023E-2,-6.783573E-2,6.1601985E-2,6.513577E-2,1.180073E-1,6.380907E-2,-5.2539546E-2,1.971245E-1,1.21949665E-1],"split_indices":[1,1,1,1,1,1,1,1,13,13,10,10,5,4,16,9,9,15,16,9,16,16,12,2,0,15,15,0,13,13,12,0,0,0,0,0,0,0,0,0,0,0,0,0,0,0,0,0,0,0,0,0,0,0,0,0,0,0,0,0,0,0,0],"split_type":[0,0,0,0,0,0,0,0,0,0,0,0,0,0,0,0,0,0,0,0,0,0,0,0,0,0,0,0,0,0,0,0,0,0,0,0,0,0,0,0,0,0,0,0,0,0,0,0,0,0,0,0,0,0,0,0,0,0,0,0,0,0,0],"sum_hessian":[2.5279E4,1.8683E4,6.596E3,1.3499E4,5.184E3,4.619E3,1.977E3,7.014E3,6.485E3,2.454E3,2.73E3,2.598E3,2.021E3,1.284E3,6.93E2,2.349E3,4.665E3,3.418E3,3.067E3,4.86E2,1.968E3,2.464E3,2.66E2,2.118E3,4.8E2,1.938E3,8.3E1,6.28E2,6.56E2,2.1E1,6.72E2,4.51E2,1.898E3,4.521E3,1.44E2,3.377E3,4.1E1,2.638E3,4.29E2,3E0,4.83E2,1.89E3,7.8E1,4.6E1,2.418E3,1.56E2,1.1E2,1.5E1,2.103E3,3.67E2,1.13E2,1.256E3,6.82E2,2.7E1,5.6E1,8E0,6.2E2,3.41E2,3.15E2,1.7E1,4E0,2.9E1,6.43E2],"tree_param":{"num_deleted":"0","num_feature":"19","num_nodes":"63","size_leaf_vector":"1"}},{"base_weights":[2.1468783E-3,-4.2970264E-1,9.2615753E-1,-6.009933E-1,-1.8669039E-1,6.6137177E-1,1.7525403E0,-7.628115E-1,-5.518139E-1,-3.0407795E-1,-2.1202941E-3,3.744604E-1,8.811129E-1,1.4701316E0,2.4972093E0,-9.069914E-1,-7.1130806E-1,-5.5308896E-1,1.01006426E-1,-4.001584E-1,-2.2199053E-1,-1.3894492E-1,1.6418862E-1,-7.3111594E-1,3.93122E-1,9.271243E-1,-1.1188581E-1,1.2386696E0,1.7386478E0,2.2783487E0,3.2386374E0,-4.6063498E-2,-5.3979526E-3,-2.5325552E-2,-3.7683778E-2,-3.05232E-2,-2.4832554E-2,-2.4771798E-2,-1.47993E-2,-1.6385173E-2,-5.956051E-3,2.0272786E-2,-9.8267775E-3,6.54901E-2,6.9298684E-3,-3.5901684E-3,-8.840767E-2,6.2279504E-2,1.8498458E-2,1.19354E-2,4.8299327E-2,-2.1017937E-2,4.49775E-2,8.995987E-2,5.3786065E-2,1.1585233E-1,7.239423E-2,2.2174457E-1,1.1014407E-1,4.9793527E-2,1.7399605E-1],"categories":[],"categories_nodes":[],"categories_segments":[],"categories_sizes":[],"default_left":[0,0,0,0,0,0,0,0,0,0,0,0,0,0,0,0,0,0,0,0,0,0,0,0,0,0,0,0,0,0,0,0,0,0,0,0,0,0,0,0,0,0,0,0,0,0,0,0,0,0,0,0,0,0,0,0,0,0,0,0,0],"id":19,"left_children":[1,3,5,7,9,11,13,15,17,19,21,23,25,27,29,31,33,35,-1,37,39,41,43,45,47,49,51,53,55,57,59,-1,-1,-1,-1,-1,-1,-1,-1,-1,-1,-1,-1,-1,-1,-1,-1,-1,-1,-1,-1,-1,-1,-1,-1,-1,-1,-1,-1,-1,-1],"loss_changes":[1.0040132E4,7.135654E2,1.7521777E3,7.948242E1,1.5360397E2,3.822981E2,4.0475732E2,1.657666E1,2.6278076E1,3.403122E1,6.277901E1,5.46185E1,1.5721948E2,8.53064E1,7.855908E1,6.7799377E0,1.450293E1,2.4564941E1,0E0,1.9575165E1,2.5362923E1,4.752628E1,3.617415E1,2.9773245E1,5.0536102E1,8.753369E1,4.80663E1,6.737598E1,1.0575183E2,5.710742E1,6.0482788E1,0E0,0E0,0E0,0E0,0E0,0E0,0E0,0E0,0E0,0E0,0E0,0E0,0E0,0E0,0E0,0E0,0E0,0E0,0E0,0E0,0E0,0E0,0E0,0E0,0E0,0E0,0E0,0E0,0E0,0E0],"parents":[2147483647,0,0,1,1,2,2,3,3,4,4,5,5,6,6,7,7,8,8,9,9,10,10,11,11,12,12,13,13,14,14,15,15,16,16,17,17,19,19,20,20,21,21,22,22,23,23,24,24,25,25,26,26,27,27,28,28,29,29,30,30],"right_children":[2,4,6,8,10,12,14,16,18,20,22,24,26,28,30,32,34,36,-1,38,40,42,44,46,48,50,52,54,56,58,60,-1,-1,-1,-1,-1,-1,-1,-1,-1,-1,-1,-1,-1,-1,-1,-1,-1,-1,-1,-1,-1,-1,-1,-1,-1,-1,-1,-1,-1,-1],"split_conditions":[3.4E0,1.8E0,6.4E0,7.5E-1,2.6E0,4.4E0,8.6E0,4E-1,6.3366336E-1,3.154122E-1,3.7037036E-1,1.65E1,6E0,2.18E1,1.12E1,7.527726E-1,9E0,1.25E0,1.01006426E-1,1E0,2.7E1,-7.4E0,1.62E1,1.59E1,1.84E1,2.33E1,5.445026E-1,-4.2E0,6E-1,1.9666667E0,2.16E0,-4.6063498E-2,-5.3979526E-3,-2.5325552E-2,-3.7683778E-2,-3.05232E-2,-2.4832554E-2,-2.4771798E-2,-1.47993E-2,-1.6385173E-2,-5.956051E-3,2.0272786E-2,-9.8267775E-3,6.54901E-2,6.9298684E-3,-3.5901684E-3,-8.840767E-2,6.2279504E-2,1.8498458E-2,1.19354E-2,4.8299327E-2,-2.1017937E-2,4.49775E-2,8.995987E-2,5.3786065E-2,1.1585233E-1,7.239423E-2,2.2174457E-1,1.1014407E-1,4.9793527E-2,1.7399605E-1],"split_indices":[1,1,1,1,1,1,1,1,10,10,10,9,5,11,0,2,9,1,0,4,8,18,8,9,9,9,10,18,17,14,14,0,0,0,0,0,0,0,0,0,0,0,0,0,0,0,0,0,0,0,0,0,0,0,0,0,0,0,0,0,0],"split_type":[0,0,0,0,0,0,0,0,0,0,0,0,0,0,0,0,0,0,0,0,0,0,0,0,0,0,0,0,0,0,0,0,0,0,0,0,0,0,0,0,0,0,0,0,0,0,0,0,0,0,0,0,0,0,0,0,0,0,0,0,0],"sum_hessian":[2.5159E4,1.7146E4,8.013E3,1.0056E4,7.09E3,6.07E3,1.943E3,2.34E3,7.716E3,4.333E3,2.757E3,2.634E3,3.436E3,1.411E3,5.32E2,6.11E2,1.729E3,7.713E3,3E0,1.994E3,2.339E3,1.513E3,1.244E3,4.3E1,2.591E3,3.284E3,1.52E2,7.61E2,6.5E2,4.14E2,1.18E2,6E2,1.1E1,2.99E2,1.43E3,3.819E3,3.894E3,1.039E3,9.55E2,1.152E3,1.187E3,1.44E2,1.369E3,2.6E1,1.218E3,2.7E1,1.6E1,6.7E1,2.524E3,1.76E2,3.108E3,1.17E2,3.5E1,1.69E2,5.92E2,2.15E2,4.35E2,1.2E1,4.02E2,1.2E1,1.06E2],"tree_param":{"num_deleted":"0","num_feature":"19","num_nodes":"61","size_leaf_vector":"1"}},{"base_weights":[-8.9375125E-3,-3.3361563E-1,1.0288877E0,-5.3503823E-1,7.4477936E-3,8.1407285E-1,1.8482907E0,-6.4393115E-1,-4.0108165E-1,-1.3126579E-1,2.5024587E-1,6.29972E-1,1.2185769E0,1.4018233E0,2.201482E0,-7.010383E-1,-4.7136363E-1,5.001558E-1,-4.137376E-1,-2.1357518E-1,6.647385E-2,8.912839E-2,4.390064E-1,3.742468E-1,7.595077E-1,1.0049733E0,1.5159005E0,7.792284E-1,1.7270694E0,2.5345016E0,1.7908881E0,-3.968267E-2,-3.2385793E-2,-2.1573005E-2,-3.3498064E-2,4.0053832E-3,8.231413E-2,-2.54699E-2,-1.5068844E-2,2.6884113E-2,-1.142124E-2,1.2422059E-2,-7.965889E-3,6.7007714E-3,-4.1458104E-2,1.5189786E-2,3.9175786E-2,-3.342364E-2,2.1132294E-2,2.9914891E-2,5.2889626E-2,4.2120244E-2,7.386554E-2,7.0255086E-2,1.3989858E-1,4.9932983E-2,-3.239398E-2,1.3338816E-1,7.613762E-2,-4.2653777E-2,1.3004042E-1,1.7685838E-1,8.422831E-2],"categories":[],"categories_nodes":[],"categories_segments":[],"categories_sizes":[],"default_left":[0,0,0,0,0,0,0,0,0,0,0,0,0,0,0,0,0,0,0,0,0,0,0,0,0,0,0,0,1,0,0,0,0,0,0,0,0,0,0,0,0,0,0,0,0,0,0,0,0,0,0,0,0,0,0,0,0,0,0,0,0,0,0],"id":20,"left_children":[1,3,5,7,9,11,13,15,17,19,21,23,25,27,29,31,33,35,37,39,41,43,45,47,49,51,53,55,57,59,61,-1,-1,-1,-1,-1,-1,-1,-1,-1,-1,-1,-1,-1,-1,-1,-1,-1,-1,-1,-1,-1,-1,-1,-1,-1,-1,-1,-1,-1,-1,-1,-1],"loss_changes":[8.454579E3,1.3130105E3,1.0506528E3,1.7491357E2,2.390674E2,3.5195874E2,1.9224463E2,6.485034E1,6.168817E1,7.354684E1,7.8403046E1,1.0755859E2,9.228198E1,1.0997925E2,8.9512695E1,2.3915527E1,1.268457E1,3.5802612E1,5.691504E1,3.5679108E1,5.461163E1,5.7501358E1,5.499182E1,5.5670303E1,1.0316443E2,6.494452E1,8.329419E1,6.0494125E1,6.490271E1,8.7524414E1,5.163324E1,0E0,0E0,0E0,0E0,0E0,0E0,0E0,0E0,0E0,0E0,0E0,0E0,0E0,0E0,0E0,0E0,0E0,0E0,0E0,0E0,0E0,0E0,0E0,0E0,0E0,0E0,0E0,0E0,0E0,0E0,0E0,0E0],"parents":[2147483647,0,0,1,1,2,2,3,3,4,4,5,5,6,6,7,7,8,8,9,9,10,10,11,11,12,12,13,13,14,14,15,15,16,16,17,17,18,18,19,19,20,20,21,21,22,22,23,23,24,24,25,25,26,26,27,27,28,28,29,29,30,30],"right_children":[2,4,6,8,10,12,14,16,18,20,22,24,26,28,30,32,34,36,38,40,42,44,46,48,50,52,54,56,58,60,62,-1,-1,-1,-1,-1,-1,-1,-1,-1,-1,-1,-1,-1,-1,-1,-1,-1,-1,-1,-1,-1,-1,-1,-1,-1,-1,-1,-1,-1,-1,-1,-1],"split_conditions":[4.2E0,2.2E0,7.3E0,1.25E0,3.1E0,6.2E0,7.4E0,2.43E1,-1.3E0,3.2E0,4.039088E-1,4E0,9.3E0,1.36E1,3.3333334E-1,8.232726E-1,8.6E0,-1.4E0,1.6E0,-1.4E1,4.25E-1,5E0,2.2509258E0,2.1587302E-1,9.5E0,5.346535E-1,1.1E1,7E0,1.485E1,2.74E1,-7.6E0,-3.968267E-2,-3.2385793E-2,-2.1573005E-2,-3.3498064E-2,4.0053832E-3,8.231413E-2,-2.54699E-2,-1.5068844E-2,2.6884113E-2,-1.142124E-2,1.2422059E-2,-7.965889E-3,6.7007714E-3,-4.1458104E-2,1.5189786E-2,3.9175786E-2,-3.342364E-2,2.1132294E-2,2.9914891E-2,5.2889626E-2,4.2120244E-2,7.386554E-2,7.0255086E-2,1.3989858E-1,4.9932983E-2,-3.239398E-2,1.3338816E-1,7.613762E-2,-4.2653777E-2,1.3004042E-1,1.7685838E-1,8.422831E-2],"split_indices":[0,0,13,13,13,0,0,9,3,0,10,13,15,16,3,2,12,3,0,18,3,5,2,10,15,10,12,0,16,8,18,0,0,0,0,0,0,0,0,0,0,0,0,0,0,0,0,0,0,0,0,0,0,0,0,0,0,0,0,0,0,0,0],"split_type":[0,0,0,0,0,0,0,0,0,0,0,0,0,0,0,0,0,0,0,0,0,0,0,0,0,0,0,0,0,0,0,0,0,0,0,0,0,0,0,0,0,0,0,0,0,0,0,0,0,0,0,0,0,0,0,0,0,0,0,0,0,0,0],"sum_hessian":[2.5089E4,1.9111E4,5.978E3,1.2015E4,7.096E3,4.738E3,1.24E3,6.625E3,5.39E3,4.516E3,2.58E3,3.258E3,1.48E3,5.5E2,6.9E2,4.975E3,1.65E3,7.4E1,5.316E3,3.189E3,1.327E3,1.393E3,1.187E3,1.097E3,2.161E3,8.64E2,6.16E2,1.9E2,3.6E2,3.78E2,3.12E2,1.812E3,3.163E3,1.377E3,2.73E2,5.5E1,1.9E1,2.869E3,2.447E3,6.1E1,3.128E3,7.35E2,5.92E2,1.329E3,6.4E1,8.54E2,3.33E2,4.8E1,1.049E3,1.405E3,7.56E2,6.45E2,2.19E2,5.69E2,4.7E1,1.65E2,2.5E1,6.2E1,2.98E2,7E0,3.71E2,1.6E1,2.96E2],"tree_param":{"num_deleted":"0","num_feature":"19","num_nodes":"63","size_leaf_vector":"1"}},{"base_weights":[-4.3517216E-3,-3.36577E-1,9.430702E-1,-4.9959743E-1,-7.908018E-3,7.9365623E-1,2.0090668E0,-5.918697E-1,-3.81315E-1,-1.2856542E-1,1.6713543E-1,5.406288E-1,9.757592E-1,1.85643E0,2.8872924E0,-6.859782E-1,-5.4552007E-1,-3.953482E-1,5.2250057E-2,-1.8407716E-1,6.4471245E-2,-2.5051206E-1,2.4389465E-1,2.232695E-1,6.149916E-1,8.752594E-1,1.2720423E0,1.9059458E0,-6.528591E-1,3.405655E0,1.6717614E0,-3.6235273E-2,-2.5167564E-2,-2.2175131E-2,-2.9129032E-2,-2.0749634E-2,-6.4327973E-3,9.467558E-3,-4.432958E-2,-1.4736113E-3,-1.31517975E-2,9.822269E-2,2.276316E-3,-1.4865386E-2,1.1757182E-1,-1.1552912E-2,1.4784338E-2,8.903886E-3,2.1310146E-1,2.2907708E-2,4.0376026E-2,3.62247E-2,5.215646E-2,1.2769918E-1,5.964581E-2,1.01961486E-1,6.658744E-2,-1.4825615E-1,7.197395E-2,1.523235E-1,3.144954E-1,-2.6104817E-2,1.4430109E-1],"categories":[],"categories_nodes":[],"categories_segments":[],"categories_sizes":[],"default_left":[0,0,0,0,0,0,0,0,0,0,0,0,0,0,0,0,0,0,0,0,0,0,0,0,0,0,1,0,0,0,0,0,0,0,0,0,0,0,0,0,0,0,0,0,0,0,0,0,0,0,0,0,0,0,0,0,0,0,0,0,0,0,0],"id":21,"left_children":[1,3,5,7,9,11,13,15,17,19,21,23,25,27,29,31,33,35,37,39,41,43,45,47,49,51,53,55,57,59,61,-1,-1,-1,-1,-1,-1,-1,-1,-1,-1,-1,-1,-1,-1,-1,-1,-1,-1,-1,-1,-1,-1,-1,-1,-1,-1,-1,-1,-1,-1,-1,-1],"loss_changes":[7.92648E3,9.989402E2,1.0394634E3,1.3570068E2,1.3060435E2,2.6361865E2,1.0180737E2,3.003125E1,3.3305664E1,3.9254375E1,8.0943535E1,5.6489014E1,9.794653E1,8.672876E1,6.75188E1,1.5814819E1,1.7390015E1,2.7627747E1,2.2237345E1,3.4680893E1,2.9153492E1,4.822357E1,5.2519447E1,8.2390594E1,5.8264343E1,6.216272E1,8.198682E1,4.8529297E1,7.215333E1,6.3818665E1,1.00308E2,0E0,0E0,0E0,0E0,0E0,0E0,0E0,0E0,0E0,0E0,0E0,0E0,0E0,0E0,0E0,0E0,0E0,0E0,0E0,0E0,0E0,0E0,0E0,0E0,0E0,0E0,0E0,0E0,0E0,0E0,0E0,0E0],"parents":[2147483647,0,0,1,1,2,2,3,3,4,4,5,5,6,6,7,7,8,8,9,9,10,10,11,11,12,12,13,13,14,14,15,15,16,16,17,17,18,18,19,19,20,20,21,21,22,22,23,23,24,24,25,25,26,26,27,27,28,28,29,29,30,30],"right_children":[2,4,6,8,10,12,14,16,18,20,22,24,26,28,30,32,34,36,38,40,42,44,46,48,50,52,54,56,58,60,62,-1,-1,-1,-1,-1,-1,-1,-1,-1,-1,-1,-1,-1,-1,-1,-1,-1,-1,-1,-1,-1,-1,-1,-1,-1,-1,-1,-1,-1,-1,-1,-1],"split_conditions":[3.9E0,2.1111112E0,7.9E0,1.4E0,1.44E1,5E0,1.12E1,8E-1,5.12E-1,3.2857144E0,1.6666666E0,3.1746033E-1,7E0,1.1E1,1.4E0,2.02E1,2.4E0,3.4E0,1.8973666E0,3.2E0,1.8E0,2.5473297E0,3.4188035E-1,3.76E1,4.5E0,2.04E1,7.6E0,3.72E1,3.5023801E0,1.2E0,1.2E1,-3.6235273E-2,-2.5167564E-2,-2.2175131E-2,-2.9129032E-2,-2.0749634E-2,-6.4327973E-3,9.467558E-3,-4.432958E-2,-1.4736113E-3,-1.31517975E-2,9.822269E-2,2.276316E-3,-1.4865386E-2,1.1757182E-1,-1.1552912E-2,1.4784338E-2,8.903886E-3,2.1310146E-1,2.2907708E-2,4.0376026E-2,3.62247E-2,5.215646E-2,1.2769918E-1,5.964581E-2,1.01961486E-1,6.658744E-2,-1.4825615E-1,7.197395E-2,1.523235E-1,3.144954E-1,-2.6104817E-2,1.4430109E-1],"split_indices":[1,1,1,1,11,1,0,1,10,1,13,10,13,0,3,8,12,13,2,12,14,2,10,8,1,11,16,8,2,3,0,0,0,0,0,0,0,0,0,0,0,0,0,0,0,0,0,0,0,0,0,0,0,0,0,0,0,0,0,0,0,0,0],"split_type":[0,0,0,0,0,0,0,0,0,0,0,0,0,0,0,0,0,0,0,0,0,0,0,0,0,0,0,0,0,0,0,0,0,0,0,0,0,0,0,0,0,0,0,0,0,0,0,0,0,0,0,0,0,0,0,0,0,0,0,0,0,0,0],"sum_hessian":[2.5181E4,1.8644E4,6.537E3,1.2462E4,6.182E3,5.735E3,8.02E2,6.998E3,5.464E3,3.66E3,2.522E3,2.402E3,3.333E3,6.86E2,1.16E2,2.304E3,4.694E3,5.293E3,1.71E2,2.843E3,8.17E2,3.91E2,2.131E3,4.57E2,1.945E3,2.492E3,8.41E2,6.73E2,1.3E1,8E1,3.6E1,1.898E3,4.06E2,1.255E3,3.439E3,4.929E3,3.64E2,1.5E2,2.1E1,9.62E2,1.881E3,7E0,8.1E2,3.85E2,6E0,2.09E2,1.922E3,4.53E2,4E0,1.074E3,8.71E2,1.316E3,1.176E3,4.7E1,7.94E2,5.44E2,1.29E2,6E0,7E0,7.3E1,7E0,1.3E1,2.3E1],"tree_param":{"num_deleted":"0","num_feature":"19","num_nodes":"63","size_leaf_vector":"1"}},{"base_weights":[1.22897625E-2,-3.7380856E-1,7.873992E-1,-5.4144454E-1,-1.6403757E-1,6.225923E-1,1.7856286E0,-6.7080015E-1,-4.904433E-1,-2.6742977E-1,1.0746118E-3,3.5662723E-1,8.895414E-1,1.6686587E0,2.8606117E0,-8.241137E-1,-6.253746E-1,-5.457192E-1,-4.0767968E-1,-2.8760773E-1,1.9901858E-1,-2.736506E-1,5.7025343E-2,3.409924E-1,1.6123149E0,9.245789E-1,1.7864177E-1,1.2123712E0,1.8166832E0,3.3119934E0,1.7313966E0,-4.2952016E-2,-2.0123897E-2,-2.320352E-2,-3.3030752E-2,-2.843894E-2,-1.433495E-2,-2.1125104E-2,1.4789469E-2,-2.2593899E-2,-1.1787054E-2,7.158144E-2,2.6976673E-3,1.3190517E-1,-1.4867795E-2,-5.1769833E-3,9.597636E-3,1.7754327E-1,1.6817948E-2,-5.0747484E-2,1.0282435E-1,3.974713E-2,5.5331316E-2,-1.3180571E-2,7.466438E-2,9.82134E-2,4.2083185E-2,1.7446248E-1,8.715431E-2,1.8095452E-1,-5.5661805E-2,1.5475524E-3,1.5000916E-1],"categories":[],"categories_nodes":[],"categories_segments":[],"categories_sizes":[],"default_left":[0,0,0,0,0,0,0,0,0,0,0,0,0,0,0,0,0,0,0,0,0,0,0,0,0,0,0,0,0,0,0,0,0,0,0,0,0,0,0,0,0,0,0,0,0,0,0,0,0,0,0,0,0,0,0,0,0,0,0,0,0,0,0],"id":22,"left_children":[1,3,5,7,9,11,13,15,17,19,21,23,25,27,29,31,33,35,37,39,41,43,45,47,49,51,53,55,57,59,61,-1,-1,-1,-1,-1,-1,-1,-1,-1,-1,-1,-1,-1,-1,-1,-1,-1,-1,-1,-1,-1,-1,-1,-1,-1,-1,-1,-1,-1,-1,-1,-1],"loss_changes":[7.543397E3,5.914944E2,1.3774487E3,6.1246338E1,1.27634964E2,5.1039673E2,1.4402808E2,1.7732422E1,3.038379E1,4.3332947E1,4.424727E1,7.004959E1,8.9144775E1,6.996655E1,5.2377502E1,8.363892E0,1.118866E1,2.3762695E1,2.8207336E1,3.7372986E1,3.3926697E1,3.4165066E1,5.1872143E1,5.1408356E1,5.3537506E1,7.966553E1,9.9355675E1,7.220938E1,9.285669E1,1.1435663E2,7.5116615E1,0E0,0E0,0E0,0E0,0E0,0E0,0E0,0E0,0E0,0E0,0E0,0E0,0E0,0E0,0E0,0E0,0E0,0E0,0E0,0E0,0E0,0E0,0E0,0E0,0E0,0E0,0E0,0E0,0E0,0E0,0E0,0E0],"parents":[2147483647,0,0,1,1,2,2,3,3,4,4,5,5,6,6,7,7,8,8,9,9,10,10,11,11,12,12,13,13,14,14,15,15,16,16,17,17,18,18,19,19,20,20,21,21,22,22,23,23,24,24,25,25,26,26,27,27,28,28,29,29,30,30],"right_children":[2,4,6,8,10,12,14,16,18,20,22,24,26,28,30,32,34,36,38,40,42,44,46,48,50,52,54,56,58,60,62,-1,-1,-1,-1,-1,-1,-1,-1,-1,-1,-1,-1,-1,-1,-1,-1,-1,-1,-1,-1,-1,-1,-1,-1,-1,-1,-1,-1,-1,-1,-1,-1],"split_conditions":[3.2857144E0,1.7E0,7.2E0,8E-1,2.5E0,4.7E0,1.12E1,4E-1,1.1737878E0,4.1E0,1.5E0,8.333333E0,6E0,6.3333335E0,1.4E0,3.3E0,9.2E0,3.12E1,5.12E-1,2.08E1,2.2222222E-1,1.6E0,3.4055728E-1,6.992059E-1,2.6294822E-1,9.3E0,5.445026E-1,4.10596E-1,2.0333333E0,4E0,2E0,-4.2952016E-2,-2.0123897E-2,-2.320352E-2,-3.3030752E-2,-2.843894E-2,-1.433495E-2,-2.1125104E-2,1.4789469E-2,-2.2593899E-2,-1.1787054E-2,7.158144E-2,2.6976673E-3,1.3190517E-1,-1.4867795E-2,-5.1769833E-3,9.597636E-3,1.7754327E-1,1.6817948E-2,-5.0747484E-2,1.0282435E-1,3.974713E-2,5.5331316E-2,-1.3180571E-2,7.466438E-2,9.82134E-2,4.2083185E-2,1.7446248E-1,8.715431E-2,1.8095452E-1,-5.5661805E-2,1.5475524E-3,1.5000916E-1],"split_indices":[1,1,1,0,1,1,0,1,2,13,13,13,5,13,3,14,8,8,10,8,10,14,10,2,10,15,10,10,14,5,3,0,0,0,0,0,0,0,0,0,0,0,0,0,0,0,0,0,0,0,0,0,0,0,0,0,0,0,0,0,0,0,0],"split_type":[0,0,0,0,0,0,0,0,0,0,0,0,0,0,0,0,0,0,0,0,0,0,0,0,0,0,0,0,0,0,0,0,0,0,0,0,0,0,0,0,0,0,0,0,0,0,0,0,0,0,0,0,0,0,0,0,0,0,0,0,0,0,0],"sum_hessian":[2.5204E4,1.6824E4,8.38E3,9.35E3,7.474E3,7.194E3,1.186E3,2.64E3,6.71E3,4.596E3,2.878E3,3.605E3,3.589E3,1.072E3,1.14E2,5.99E2,2.041E3,4.019E3,2.691E3,4.406E3,1.9E2,4.86E2,2.392E3,3.562E3,4.3E1,3.42E3,1.69E2,2.65E2,8.07E2,8E1,3.4E1,5.52E2,4.7E1,3.69E2,1.672E3,3.689E3,3.3E2,2.636E3,5.5E1,1.055E3,3.351E3,1.9E1,1.71E2,3E0,4.83E2,1.092E3,1.3E3,4E0,3.558E3,6E0,3.7E1,2.001E3,1.419E3,1.27E2,4.2E1,8.6E1,1.79E2,3.2E1,7.75E2,7.5E1,5E0,1.5E1,1.9E1],"tree_param":{"num_deleted":"0","num_feature":"19","num_nodes":"63","size_leaf_vector":"1"}},{"base_weights":[4.720404E-3,-2.861458E-1,9.213502E-1,-4.4443423E-1,9.380706E-3,7.273313E-1,1.7226393E0,-5.581198E-1,-3.6036295E-1,-1.1266426E-1,2.0018981E-1,5.411988E-1,9.416094E-1,1.5637081E0,2.4185336E0,-6.123329E-1,-4.540133E-1,8.594853E-1,-3.6528105E-1,-1.4149742E-1,2.0293103E-1,-1.1734738E0,2.1023984E-1,3.5618997E-1,6.739504E-1,1.4044676E0,8.725897E-1,1.4439081E0,2.115572E0,1.007495E0,2.8318932E0,-2.432246E-2,-3.381384E-2,-2.004521E-2,-3.933265E-2,7.128604E-2,-1.7446695E-2,-1.9995797E-2,-9.478269E-3,2.3886303E-3,-8.872184E-3,-1.520838E-3,2.5224805E-2,-1.8135624E-2,-8.039293E-2,5.1684286E-2,9.678212E-3,1.6898027E-2,1.255633E-1,7.634323E-2,3.1526834E-2,5.740098E-2,1.893496E-1,3.1411156E-2,5.172729E-2,8.079044E-2,5.0633777E-2,9.496414E-2,2.2869451E-1,1.36236E-1,1.7284429E-2,1.4645562E-1,-4.516368E-2],"categories":[],"categories_nodes":[],"categories_segments":[],"categories_sizes":[],"default_left":[0,0,0,0,0,0,0,0,0,0,0,0,0,0,0,0,0,0,0,0,0,0,1,0,0,0,0,0,0,0,0,0,0,0,0,0,0,0,0,0,0,0,0,0,0,0,0,0,0,0,0,0,0,0,0,0,0,0,0,0,0,0,0],"id":23,"left_children":[1,3,5,7,9,11,13,15,17,19,21,23,25,27,29,31,33,35,37,39,41,43,45,47,49,51,53,55,57,59,61,-1,-1,-1,-1,-1,-1,-1,-1,-1,-1,-1,-1,-1,-1,-1,-1,-1,-1,-1,-1,-1,-1,-1,-1,-1,-1,-1,-1,-1,-1,-1,-1],"loss_changes":[6.7217324E3,8.952932E2,9.426421E2,1.1882446E2,1.5549725E2,1.9441528E2,1.2665869E2,2.9505615E1,4.32677E1,3.7076176E1,3.6113342E1,6.40047E1,7.112891E1,6.045459E1,1.2391492E2,2.755896E1,3.1683014E1,2.04484E1,4.3318542E1,2.5412292E1,2.4058767E1,5.911215E0,3.5200455E1,4.1962936E1,5.525238E1,1.7418005E2,7.7545654E1,5.7181885E1,8.105591E1,5.6711052E1,6.3854126E1,0E0,0E0,0E0,0E0,0E0,0E0,0E0,0E0,0E0,0E0,0E0,0E0,0E0,0E0,0E0,0E0,0E0,0E0,0E0,0E0,0E0,0E0,0E0,0E0,0E0,0E0,0E0,0E0,0E0,0E0,0E0,0E0],"parents":[2147483647,0,0,1,1,2,2,3,3,4,4,5,5,6,6,7,7,8,8,9,9,10,10,11,11,12,12,13,13,14,14,15,15,16,16,17,17,18,18,19,19,20,20,21,21,22,22,23,23,24,24,25,25,26,26,27,27,28,28,29,29,30,30],"right_children":[2,4,6,8,10,12,14,16,18,20,22,24,26,28,30,32,34,36,38,40,42,44,46,48,50,52,54,56,58,60,62,-1,-1,-1,-1,-1,-1,-1,-1,-1,-1,-1,-1,-1,-1,-1,-1,-1,-1,-1,-1,-1,-1,-1,-1,-1,-1,-1,-1,-1,-1,-1,-1],"split_conditions":[4.1E0,2.1111112E0,7.2E0,1.2E0,3.2E0,5.375E0,1.04E1,1.98E1,7.2E0,2.1E1,3.55E0,1.58E1,-5.6E0,1.01E1,3.34E1,1.8E0,8.4E0,1.4E0,2.25E0,-5.8E0,2E-1,2.2E0,4.5E0,3.76E1,2.8E0,1.055E1,5.5E0,8E-1,3.14E1,2.4E0,1.82E1,-2.432246E-2,-3.381384E-2,-2.004521E-2,-3.933265E-2,7.128604E-2,-1.7446695E-2,-1.9995797E-2,-9.478269E-3,2.3886303E-3,-8.872184E-3,-1.520838E-3,2.5224805E-2,-1.8135624E-2,-8.039293E-2,5.1684286E-2,9.678212E-3,1.6898027E-2,1.255633E-1,7.634323E-2,3.1526834E-2,5.740098E-2,1.893496E-1,3.1411156E-2,5.172729E-2,8.079044E-2,5.0633777E-2,9.496414E-2,2.2869451E-1,1.36236E-1,1.7284429E-2,1.4645562E-1,-4.516368E-2],"split_indices":[1,1,1,0,1,1,13,8,8,11,16,11,18,15,8,12,12,18,13,18,3,12,16,8,12,15,13,17,11,14,18,0,0,0,0,0,0,0,0,0,0,0,0,0,0,0,0,0,0,0,0,0,0,0,0,0,0,0,0,0,0,0,0],"split_type":[0,0,0,0,0,0,0,0,0,0,0,0,0,0,0,0,0,0,0,0,0,0,0,0,0,0,0,0,0,0,0,0,0,0,0,0,0,0,0,0,0,0,0,0,0,0,0,0,0,0,0,0,0,0,0,0,0,0,0,0,0,0,0],"sum_hessian":[2.5209E4,1.9137E4,6.072E3,1.2462E4,6.675E3,4.89E3,1.182E3,5.295E3,7.167E3,4.071E3,2.604E3,2.619E3,2.271E3,9.65E2,2.17E2,3.478E3,1.817E3,2.8E1,7.139E3,3.731E3,3.4E2,1.8E1,2.586E3,1.096E3,1.523E3,2.92E2,1.979E3,7.96E2,1.69E2,5E1,1.67E2,1.175E3,2.303E3,1.569E3,2.48E2,1.9E1,9E0,5.962E3,1.177E3,5.95E2,3.136E3,1.92E2,1.48E2,7E0,1.1E1,5E1,2.536E3,1.088E3,8E0,7.2E1,1.451E3,2.65E2,2.7E1,7.91E2,1.188E3,5.67E2,2.29E2,1.57E2,1.2E1,1.3E1,3.7E1,1.63E2,4E0],"tree_param":{"num_deleted":"0","num_feature":"19","num_nodes":"63","size_leaf_vector":"1"}},{"base_weights":[-4.195298E-3,-2.5580415E-1,8.822825E-1,-3.947569E-1,1.3046098E-1,7.3636776E-1,1.8751298E0,-4.6699739E-1,-2.2809252E-1,1.09987855E-2,2.5697598E-1,6.194992E-1,1.079666E0,1.6441053E0,2.4103374E0,-5.864339E-1,-4.1521814E-1,-2.4687728E-1,1.5651788E-1,1.4013573E0,4.913832E-4,2.0719066E-1,6.3084185E-1,5.376461E-1,9.554671E-1,7.967089E-1,1.3391893E0,1.812261E0,8.938949E-1,-6.612731E-1,2.5653985E0,-3.642194E-2,-2.7530367E-2,1.7630717E-2,-2.1022286E-2,-1.6173279E-2,-8.019361E-3,-2.5445243E-2,1.7979963E-2,1.07344106E-1,1.1048107E-4,4.183663E-2,-6.448235E-4,6.2966035E-3,2.425104E-2,1.9417904E-2,7.342309E-2,-5.5281956E-2,2.7526185E-2,5.2988943E-2,8.741225E-3,3.8339447E-2,2.0709737E-1,1.5102609E-1,6.2147934E-2,-1.2934916E-2,9.325319E-2,-1.8557979E-2,7.772128E-2,1.0368627E-1,-9.793066E-2,1.5887236E-2,1.3459973E-1],"categories":[],"categories_nodes":[],"categories_segments":[],"categories_sizes":[],"default_left":[0,0,0,0,0,0,0,0,0,0,0,0,0,0,0,0,0,0,0,0,0,0,0,0,0,0,0,0,0,0,0,0,0,0,0,0,0,0,0,0,0,0,0,0,0,0,0,0,0,0,0,0,0,0,0,0,0,0,0,0,0,0,0],"id":24,"left_children":[1,3,5,7,9,11,13,15,17,19,21,23,25,27,29,31,33,35,37,39,41,43,45,47,49,51,53,55,57,59,61,-1,-1,-1,-1,-1,-1,-1,-1,-1,-1,-1,-1,-1,-1,-1,-1,-1,-1,-1,-1,-1,-1,-1,-1,-1,-1,-1,-1,-1,-1,-1,-1],"loss_changes":[5.6276055E3,1.0549056E3,8.064492E2,1.7384888E2,7.856194E1,1.9434888E2,8.391504E1,6.200659E1,3.1641815E1,3.895296E1,4.67834E1,9.921692E1,8.9337036E1,6.1437744E1,1.0333594E2,1.4967773E1,2.8400879E1,2.7522324E1,2.7735601E1,2.0642334E1,2.9839546E1,5.0222504E1,5.936435E1,6.2408447E1,5.7506714E1,5.568631E1,9.969214E1,4.5368164E1,7.924235E1,4.3080574E1,5.660608E1,0E0,0E0,0E0,0E0,0E0,0E0,0E0,0E0,0E0,0E0,0E0,0E0,0E0,0E0,0E0,0E0,0E0,0E0,0E0,0E0,0E0,0E0,0E0,0E0,0E0,0E0,0E0,0E0,0E0,0E0,0E0,0E0],"parents":[2147483647,0,0,1,1,2,2,3,3,4,4,5,5,6,6,7,7,8,8,9,9,10,10,11,11,12,12,13,13,14,14,15,15,16,16,17,17,18,18,19,19,20,20,21,21,22,22,23,23,24,24,25,25,26,26,27,27,28,28,29,29,30,30],"right_children":[2,4,6,8,10,12,14,16,18,20,22,24,26,28,30,32,34,36,38,40,42,44,46,48,50,52,54,56,58,60,62,-1,-1,-1,-1,-1,-1,-1,-1,-1,-1,-1,-1,-1,-1,-1,-1,-1,-1,-1,-1,-1,-1,-1,-1,-1,-1,-1,-1,-1,-1,-1,-1],"split_conditions":[4.3E0,2.6E0,8.1E0,1.8E0,3.1E0,6.4E0,1E1,8.75E-1,1.06E1,1.4E1,5.313433E-1,1.005E1,1E0,3.72E1,3.2E1,4E-1,7E0,9.15E0,2.6431718E-1,2.7E0,-1.48E1,4.2E0,7.8E0,1.8439716E-1,1.16E1,1.215E1,-8.2E0,-1.22E1,5.2E0,-6.6E0,3.297491E-1,-3.642194E-2,-2.7530367E-2,1.7630717E-2,-2.1022286E-2,-1.6173279E-2,-8.019361E-3,-2.5445243E-2,1.7979963E-2,1.07344106E-1,1.1048107E-4,4.183663E-2,-6.448235E-4,6.2966035E-3,2.425104E-2,1.9417904E-2,7.342309E-2,-5.5281956E-2,2.7526185E-2,5.2988943E-2,8.741225E-3,3.8339447E-2,2.0709737E-1,1.5102609E-1,6.2147934E-2,-1.2934916E-2,9.325319E-2,-1.8557979E-2,7.772128E-2,1.0368627E-1,-9.793066E-2,1.5887236E-2,1.3459973E-1],"split_indices":[1,1,1,1,13,1,1,1,12,9,10,15,4,8,9,1,9,15,10,13,18,0,12,10,15,15,18,18,12,18,10,0,0,0,0,0,0,0,0,0,0,0,0,0,0,0,0,0,0,0,0,0,0,0,0,0,0,0,0,0,0,0,0],"split_type":[0,0,0,0,0,0,0,0,0,0,0,0,0,0,0,0,0,0,0,0,0,0,0,0,0,0,0,0,0,0,0,0,0,0,0,0,0,0,0,0,0,0,0,0,0,0,0,0,0,0,0,0,0,0,0,0,0,0,0,0,0,0,0],"sum_hessian":[2.5229E4,1.9652E4,5.577E3,1.4453E4,5.199E3,4.864E3,7.13E2,1.0081E4,4.372E3,2.675E3,2.524E3,3.631E3,1.233E3,5.01E2,2.12E2,3.045E3,7.036E3,4.169E3,2.03E2,1.9E1,2.656E3,2.229E3,2.95E2,2.922E3,7.09E2,5.92E2,6.41E2,4.08E2,9.3E1,1E1,2.02E2,6.09E2,2.436E3,4.7E1,6.989E3,2.209E3,1.96E3,4.7E1,1.56E2,1.2E1,7E0,4.1E1,2.615E3,1.726E3,5.03E2,2.3E2,6.5E1,2.2E1,2.9E3,6.25E2,8.4E1,5.88E2,4E0,3.3E1,6.08E2,1E1,3.98E2,3.2E1,6.1E1,3E0,7E0,1.1E1,1.91E2],"tree_param":{"num_deleted":"0","num_feature":"19","num_nodes":"63","size_leaf_vector":"1"}},{"base_weights":[-3.299321E-3,-2.8011477E-1,7.946661E-1,-3.9380503E-1,5.5344377E-2,6.556076E-1,1.7895418E0,-4.628337E-1,-2.5617468E-1,-4.112045E-2,1.7669496E-1,4.829978E-1,8.850669E-1,1.6835104E0,3.1042953E0,-5.092931E-1,-3.4337482E-1,-3.518799E-1,-2.0075497E-1,-1.8568526E-1,4.7493417E-2,5.819775E-1,1.4508861E-1,2.4282894E-1,5.82875E-1,6.5528196E-1,1.1086586E0,1.4981332E0,2.201388E0,1.415226E0,3.5585768E0,-2.8918086E-2,-2.2074772E-2,-1.7440548E-2,7.2621636E-2,6.016924E-2,-1.7998276E-2,-1.3206648E-2,-5.594748E-3,-7.0182583E-4,-1.4953734E-2,4.8858128E-3,-2.044191E-2,1.4436986E-1,2.2458134E-2,-6.514755E-4,1.2210263E-2,-1.8962706E-2,1.5362014E-2,2.4661247E-2,5.1846188E-2,4.144864E-2,2.0861546E-2,5.0552E-2,8.7418616E-2,6.7169175E-2,1.0787994E-1,1.1549391E-1,-2.8506232E-2,1.2571348E-1,-9.679753E-2,2.1547134E-1,6.855717E-2],"categories":[],"categories_nodes":[],"categories_segments":[],"categories_sizes":[],"default_left":[0,0,0,0,0,0,0,0,0,0,0,0,0,0,0,0,0,0,0,0,0,0,0,0,0,0,0,0,0,0,0,0,0,0,0,0,0,0,0,0,0,0,0,0,0,0,0,0,0,0,0,0,0,0,0,0,0,0,0,0,0,0,0],"id":25,"left_children":[1,3,5,7,9,11,13,15,17,19,21,23,25,27,29,31,33,35,37,39,41,43,45,47,49,51,53,55,57,59,61,-1,-1,-1,-1,-1,-1,-1,-1,-1,-1,-1,-1,-1,-1,-1,-1,-1,-1,-1,-1,-1,-1,-1,-1,-1,-1,-1,-1,-1,-1,-1,-1],"loss_changes":[5.557522E3,7.124813E2,8.950642E2,1.3235986E2,5.5378796E1,2.2468042E2,1.0498291E2,5.1299194E1,2.4606445E1,3.3778168E1,2.6678764E1,7.768701E1,1.2445935E2,6.708594E1,3.897058E1,3.0950928E1,2.5826935E1,2.1827332E1,1.6580353E1,1.9466568E1,3.7457287E1,4.4604702E1,3.0508602E1,3.8415485E1,9.267328E1,4.9394287E1,7.507959E1,5.24718E1,5.9221985E1,5.6488586E1,6.743268E1,0E0,0E0,0E0,0E0,0E0,0E0,0E0,0E0,0E0,0E0,0E0,0E0,0E0,0E0,0E0,0E0,0E0,0E0,0E0,0E0,0E0,0E0,0E0,0E0,0E0,0E0,0E0,0E0,0E0,0E0,0E0,0E0],"parents":[2147483647,0,0,1,1,2,2,3,3,4,4,5,5,6,6,7,7,8,8,9,9,10,10,11,11,12,12,13,13,14,14,15,15,16,16,17,17,18,18,19,19,20,20,21,21,22,22,23,23,24,24,25,25,26,26,27,27,28,28,29,29,30,30],"right_children":[2,4,6,8,10,12,14,16,18,20,22,24,26,28,30,32,34,36,38,40,42,44,46,48,50,52,54,56,58,60,62,-1,-1,-1,-1,-1,-1,-1,-1,-1,