{"learner":{"attributes":{"best_iteration":"129","best_score":"6.337832196487038"},"feature_names":["L5_PTS","L10_PTS","SEASON_AVG_PTS","L5_REB","L5_AST","REST_DAYS","IS_HOME","OPP_DEF_STRENGTH"],"feature_types":["float","float","float","float","float","float","int","float"],"gradient_booster":{"model":{"cats":{"enc":[],"feature_segments":[],"sorted_idx":[]},"gbtree_model_param":{"num_parallel_tree":"1","num_trees":"180"},"iteration_indptr":[0,1,2,3,4,5,6,7,8,9,10,11,12,13,14,15,16,17,18,19,20,21,22,23,24,25,26,27,28,29,30,31,32,33,34,35,36,37,38,39,40,41,42,43,44,45,46,47,48,49,50,51,52,53,54,55,56,57,58,59,60,61,62,63,64,65,66,67,68,69,70,71,72,73,74,75,76,77,78,79,80,81,82,83,84,85,86,87,88,89,90,91,92,93,94,95,96,97,98,99,100,101,102,103,104,105,106,107,108,109,110,111,112,113,114,115,116,117,118,119,120,121,122,123,124,125,126,127,128,129,130,131,132,133,134,135,136,137,138,139,140,141,142,143,144,145,146,147,148,149,150,151,152,153,154,155,156,157,158,159,160,161,162,163,164,165,166,167,168,169,170,171,172,173,174,175,176,177,178,179,180],"tree_info":[0,0,0,0,0,0,0,0,0,0,0,0,0,0,0,0,0,0,0,0,0,0,0,0,0,0,0,0,0,0,0,0,0,0,0,0,0,0,0,0,0,0,0,0,0,0,0,0,0,0,0,0,0,0,0,0,0,0,0,0,0,0,0,0,0,0,0,0,0,0,0,0,0,0,0,0,0,0,0,0,0,0,0,0,0,0,0,0,0,0,0,0,0,0,0,0,0,0,0,0,0,0,0,0,0,0,0,0,0,0,0,0,0,0,0,0,0,0,0,0,0,0,0,0,0,0,0,0,0,0,0,0,0,0,0,0,0,0,0,0,0,0,0,0,0,0,0,0,0,0,0,0,0,0,0,0,0,0,0,0,0,0,0,0,0,0,0,0,0,0,0,0,0,0,0,0,0,0,0,0],"trees":[{"base_weights":[-1.5650224E-8,-3.6167479E0,8.401298E0,-6.829248E0,-1.2647029E0,6.0126605E0,1.30727005E1,-4.3540215E-1,-2.9993594E-1,-1.3154352E-1,2.5989294E-2,2.2750223E-1,4.1599607E-1,6.144209E-1,9.4959575E-1],"categories":[],"categories_nodes":[],"categories_segments":[],"categories_sizes":[],"default_left":[0,0,0,0,0,0,0,0,0,0,0,0,0,0,0],"id":0,"left_children":[1,3,5,7,9,11,13,-1,-1,-1,-1,-1,-1,-1,-1],"loss_changes":[9.665588E5,1.6801294E5,1.06739625E5,1.4613875E4,3.1301701E4,2.1343828E4,1.47985E4,0E0,0E0,0E0,0E0,0E0,0E0,0E0,0E0],"parents":[2147483647,0,0,1,1,2,2,3,3,4,4,5,5,6,6],"right_children":[2,4,6,8,10,12,14,-1,-1,-1,-1,-1,-1,-1,-1],"split_conditions":[1.42E1,7.4E0,2.2074074E1,3.7E0,1.12E1,1.91E1,2.975E1,-4.3540215E-1,-2.9993594E-1,-1.3154352E-1,2.5989294E-2,2.2750223E-1,4.1599607E-1,6.144209E-1,9.4959575E-1],"split_indices":[2,1,2,1,1,1,2,0,0,0,0,0,0,0,0],"split_type":[0,0,0,0,0,0,0,0,0,0,0,0,0,0,0],"sum_hessian":[3.1808E4,2.2236E4,9.572E3,9.398E3,1.2838E4,6.335E3,3.237E3,2.878E3,6.52E3,7.271E3,5.567E3,3.879E3,2.456E3,2.861E3,3.76E2],"tree_param":{"num_deleted":"0","num_feature":"8","num_nodes":"15","size_leaf_vector":"1"}},{"base_weights":[4.2916632E-5,-3.3746133E0,8.128582E0,-6.2727733E0,-9.612527E-1,5.8476496E0,1.2419549E1,-3.9116096E-1,-2.603607E-1,-1.0288018E-1,4.793725E-2,2.2296934E-1,3.9570227E-1,4.9049702E-1,7.02347E-1],"categories":[],"categories_nodes":[],"categories_segments":[],"categories_sizes":[],"default_left":[0,0,0,0,0,0,0,0,0,0,0,0,0,0,0],"id":1,"left_children":[1,3,5,7,9,11,13,-1,-1,-1,-1,-1,-1,-1,-1],"loss_changes":[8.725809E5,1.5721195E5,9.126344E4,1.6832062E4,2.5821797E4,1.7449438E4,1.3613531E4,0E0,0E0,0E0,0E0,0E0,0E0,0E0,0E0],"parents":[2147483647,0,0,1,1,2,2,3,3,4,4,5,5,6,6],"right_children":[2,4,6,8,10,12,14,-1,-1,-1,-1,-1,-1,-1,-1],"split_conditions":[1.45E1,7.8E0,2.2074074E1,4.5E0,1.2E1,1.91E1,2.4430555E1,-3.9116096E-1,-2.603607E-1,-1.0288018E-1,4.793725E-2,2.2296934E-1,3.9570227E-1,4.9049702E-1,7.02347E-1],"split_indices":[2,1,2,1,1,1,2,0,0,0,0,0,0,0,0],"split_type":[0,0,0,0,0,0,0,0,0,0,0,0,0,0,0],"sum_hessian":[3.1808E4,2.2477E4,9.331E3,1.0212E4,1.2265E4,6.094E3,3.237E3,4.157E3,6.055E3,7.807E3,4.458E3,3.647E3,2.447E3,1.246E3,1.991E3],"tree_param":{"num_deleted":"0","num_feature":"8","num_nodes":"15","size_leaf_vector":"1"}},{"base_weights":[7.5603384E-5,-3.4041817E0,7.29107E0,-6.167663E0,-1.288775E0,4.3909507E0,1.0662969E1,-3.7882578E-1,-2.6207447E-1,-1.2991877E-1,7.647322E-3,1.3947655E-1,2.8945833E-1,4.3364736E-1,6.6724724E-1],"categories":[],"categories_nodes":[],"categories_segments":[],"categories_sizes":[],"default_left":[0,0,0,0,0,0,0,0,0,0,0,0,0,0,0],"id":2,"left_children":[1,3,5,7,9,11,13,-1,-1,-1,-1,-1,-1,-1,-1],"loss_changes":[7.895375E5,1.26760125E5,9.896475E4,1.2228406E4,2.3193562E4,1.2175922E4,2.4867625E4,0E0,0E0,0E0,0E0,0E0,0E0,0E0,0E0],"parents":[2147483647,0,0,1,1,2,2,3,3,4,4,5,5,6,6],"right_children":[2,4,6,8,10,12,14,-1,-1,-1,-1,-1,-1,-1,-1],"split_conditions":[1.44E1,7.4E0,2.0041666E1,4E0,1.04E1,1.5928572E1,2.4430555E1,-3.7882578E-1,-2.6207447E-1,-1.2991877E-1,7.647322E-3,1.3947655E-1,2.8945833E-1,4.3364736E-1,6.6724724E-1],"split_indices":[1,1,2,0,2,2,2,0,0,0,0,0,0,0,0],"split_type":[0,0,0,0,0,0,0,0,0,0,0,0,0,0,0],"sum_hessian":[3.1808E4,2.1684E4,1.0124E4,9.401E3,1.2283E4,5.444E3,4.68E3,3.726E3,5.675E3,6.436E3,5.847E3,2.539E3,2.905E3,2.689E3,1.991E3],"tree_param":{"num_deleted":"0","num_feature":"8","num_nodes":"15","size_leaf_vector":"1"}},{"base_weights":[9.600366E-5,-3.107993E0,7.2198358E0,-5.510246E0,-7.8409487E-1,4.91711E0,1.0824126E1,-3.2734165E-1,-2.0057452E-1,-9.993503E-2,2.3375874E-2,1.7367826E-1,3.3299723E-1,4.6050468E-1,6.675552E-1],"categories":[],"categories_nodes":[],"categories_segments":[],"categories_sizes":[],"default_left":[0,0,0,0,0,0,0,0,0,0,0,0,0,0,0],"id":3,"left_children":[1,3,5,7,9,11,13,-1,-1,-1,-1,-1,-1,-1,-1],"loss_changes":[7.1380344E5,1.24135734E5,7.939975E4,1.6960688E4,1.7185453E4,1.4677047E4,1.5094344E4,0E0,0E0,0E0,0E0,0E0,0E0,0E0,0E0],"parents":[2147483647,0,0,1,1,2,2,3,3,4,4,5,5,6,6],"right_children":[2,4,6,8,10,12,14,-1,-1,-1,-1,-1,-1,-1,-1],"split_conditions":[1.42E1,8.2E0,2.17E1,5.8E0,1.12E1,1.7846153E1,2.5597702E1,-3.2734165E-1,-2.0057452E-1,-9.993503E-2,2.3375874E-2,1.7367826E-1,3.3299723E-1,4.6050468E-1,6.675552E-1],"split_indices":[2,1,1,1,1,2,2,0,0,0,0,0,0,0,0],"split_type":[0,0,0,0,0,0,0,0,0,0,0,0,0,0,0],"sum_hessian":[3.1808E4,2.2236E4,9.572E3,1.0933E4,1.1303E4,5.842E3,3.73E3,6.461E3,4.472E3,5.736E3,5.567E3,3.197E3,2.645E3,2.279E3,1.451E3],"tree_param":{"num_deleted":"0","num_feature":"8","num_nodes":"15","size_leaf_vector":"1"}},{"base_weights":[1.2371076E-4,-3.1367393E0,6.48374E0,-5.5718E0,-1.234473E0,3.8871691E0,9.63482E0,-3.5961744E-1,-2.4279042E-1,-1.1924776E-1,3.6514455E-3,1.2507729E-1,2.5893602E-1,3.9145717E-1,6.035999E-1],"categories":[],"categories_nodes":[],"categories_segments":[],"categories_sizes":[],"default_left":[0,0,0,0,0,0,0,0,0,0,0,0,0,0,0],"id":4,"left_children":[1,3,5,7,9,11,13,-1,-1,-1,-1,-1,-1,-1,-1],"loss_changes":[6.469586E5,9.929684E4,8.482628E4,1.08741875E4,1.8106924E4,1.01663125E4,2.0523031E4,0E0,0E0,0E0,0E0,0E0,0E0,0E0,0E0],"parents":[2147483647,0,0,1,1,2,2,3,3,4,4,5,5,6,6],"right_children":[2,4,6,8,10,12,14,-1,-1,-1,-1,-1,-1,-1,-1],"split_conditions":[1.42E1,7.4E0,2.0041666E1,3.7E0,1.04E1,1.5928572E1,2.4430555E1,-3.5961744E-1,-2.4279042E-1,-1.1924776E-1,3.6514455E-3,1.2507729E-1,2.5893602E-1,3.9145717E-1,6.035999E-1],"split_indices":[1,1,2,1,2,2,2,0,0,0,0,0,0,0,0],"split_type":[0,0,0,0,0,0,0,0,0,0,0,0,0,0,0],"sum_hessian":[3.1808E4,2.1437E4,1.0371E4,9.401E3,1.2036E4,5.687E3,4.684E3,2.878E3,6.523E3,6.402E3,5.634E3,2.745E3,2.942E3,2.693E3,1.991E3],"tree_param":{"num_deleted":"0","num_feature":"8","num_nodes":"15","size_leaf_vector":"1"}},{"base_weights":[1.3815319E-4,-2.9276404E0,6.2706447E0,-5.2932744E0,-1.1167793E0,4.0801067E0,9.586717E0,-3.4164205E-1,-2.3022616E-1,-1.04387455E-1,1.7966183E-2,1.4470477E-1,3.0257785E-1,4.4913346E-1,7.705547E-1],"categories":[],"categories_nodes":[],"categories_segments":[],"categories_sizes":[],"default_left":[0,0,0,0,0,0,0,0,0,0,0,0,0,0,0],"id":5,"left_children":[1,3,5,7,9,11,13,-1,-1,-1,-1,-1,-1,-1,-1],"loss_changes":[5.839888E5,9.288903E4,7.350869E4,9.9381875E3,1.7606807E4,1.424293E4,1.4029344E4,0E0,0E0,0E0,0E0,0E0,0E0,0E0,0E0],"parents":[2147483647,0,0,1,1,2,2,3,3,4,4,5,5,6,6],"right_children":[2,4,6,8,10,12,14,-1,-1,-1,-1,-1,-1,-1,-1],"split_conditions":[1.44E1,7.4E0,2.13E1,3.4E0,1.1047619E1,1.7846153E1,2.975E1,-3.4164205E-1,-2.3022616E-1,-1.04387455E-1,1.7966183E-2,1.4470477E-1,3.0257785E-1,4.4913346E-1,7.705547E-1],"split_indices":[1,1,1,0,2,2,2,0,0,0,0,0,0,0,0],"split_type":[0,0,0,0,0,0,0,0,0,0,0,0,0,0,0],"sum_hessian":[3.1808E4,2.1684E4,1.0124E4,9.401E3,1.2283E4,6.098E3,4.026E3,2.903E3,6.498E3,7.409E3,4.874E3,3.809E3,2.289E3,3.65E3,3.76E2],"tree_param":{"num_deleted":"0","num_feature":"8","num_nodes":"15","size_leaf_vector":"1"}},{"base_weights":[1.629546E-4,-2.676524E0,6.217805E0,-4.7386413E0,-6.8166673E-1,4.2287045E0,9.333941E0,-2.9687512E-1,-1.8626204E-1,-7.142495E-2,4.3956585E-2,1.2404072E-1,2.6150957E-1,4.367136E-1,7.3212916E-1],"categories":[],"categories_nodes":[],"categories_segments":[],"categories_sizes":[],"default_left":[0,0,0,0,0,0,0,0,0,0,0,0,0,0,0],"id":6,"left_children":[1,3,5,7,9,11,13,-1,-1,-1,-1,-1,-1,-1,-1],"loss_changes":[5.294037E5,9.147153E4,5.9296938E4,1.3261891E4,1.3177817E4,1.0218641E4,1.1743125E4,0E0,0E0,0E0,0E0,0E0,0E0,0E0,0E0],"parents":[2147483647,0,0,1,1,2,2,3,3,4,4,5,5,6,6],"right_children":[2,4,6,8,10,12,14,-1,-1,-1,-1,-1,-1,-1,-1],"split_conditions":[1.42E1,8.2E0,2.1362068E1,5E0,1.24E1,1.67E1,2.975E1,-2.9687512E-1,-1.8626204E-1,-7.142495E-2,4.3956585E-2,1.2404072E-1,2.6150957E-1,4.367136E-1,7.3212916E-1],"split_indices":[2,1,2,1,1,1,2,0,0,0,0,0,0,0,0],"split_type":[0,0,0,0,0,0,0,0,0,0,0,0,0,0,0],"sum_hessian":[3.1808E4,2.2236E4,9.572E3,1.0933E4,1.1303E4,5.844E3,3.728E3,5.006E3,5.927E3,7.645E3,3.658E3,2.13E3,3.714E3,3.352E3,3.76E2],"tree_param":{"num_deleted":"0","num_feature":"8","num_nodes":"15","size_leaf_vector":"1"}},{"base_weights":[1.8748012E-4,-2.4971962E0,6.015639E0,-4.167584E0,-2.0607518E-1,4.6893296E0,1.0212734E1,-2.6868555E-1,-1.4875112E-1,-4.6334166E-2,5.01297E-2,1.7248195E-1,3.2508048E-1,4.7294936E-1,6.9561976E-1],"categories":[],"categories_nodes":[],"categories_segments":[],"categories_sizes":[],"default_left":[0,0,0,0,0,0,0,0,0,0,0,0,0,0,0],"id":7,"left_children":[1,3,5,7,9,11,13,-1,-1,-1,-1,-1,-1,-1,-1],"loss_changes":[4.7787816E5,8.602381E4,5.190003E4,1.8682953E4,8.256918E3,1.59131875E4,6.1148906E3,0E0,0E0,0E0,0E0,0E0,0E0,0E0,0E0],"parents":[2147483647,0,0,1,1,2,2,3,3,4,4,5,5,6,6],"right_children":[2,4,6,8,10,12,14,-1,-1,-1,-1,-1,-1,-1,-1],"split_conditions":[1.45E1,9.2E0,2.3545454E1,5.8E0,1.26E1,1.98E1,2.975E1,-2.6868555E-1,-1.4875112E-1,-4.6334166E-2,5.01297E-2,1.7248195E-1,3.2508048E-1,4.7294936E-1,6.9561976E-1],"split_indices":[2,1,2,1,1,1,2,0,0,0,0,0,0,0,0],"split_type":[0,0,0,0,0,0,0,0,0,0,0,0,0,0,0],"sum_hessian":[3.1808E4,2.2477E4,9.331E3,1.2999E4,9.478E3,7.092E3,2.239E3,6.461E3,6.538E3,5.938E3,3.54E3,4.213E3,2.879E3,1.863E3,3.76E2],"tree_param":{"num_deleted":"0","num_feature":"8","num_nodes":"15","size_leaf_vector":"1"}},{"base_weights":[2.1745816E-4,-2.3983524E0,5.679838E0,-4.2134E0,-5.277215E-1,4.42856E0,9.70262E0,-2.62889E-1,-1.5644476E-1,-6.547408E-2,4.3848034E-2,1.5055582E-1,2.972247E-1,4.4931456E-1,6.6093105E-1],"categories":[],"categories_nodes":[],"categories_segments":[],"categories_sizes":[],"default_left":[0,0,0,0,0,0,0,0,0,0,0,0,0,0,0],"id":8,"left_children":[1,3,5,7,9,11,13,-1,-1,-1,-1,-1,-1,-1,-1],"loss_changes":[4.333466E5,7.593328E4,4.74995E4,1.2840094E4,1.2096989E4,1.5466E4,5.5229062E3,0E0,0E0,0E0,0E0,0E0,0E0,0E0,0E0],"parents":[2147483647,0,0,1,1,2,2,3,3,4,4,5,5,6,6],"right_children":[2,4,6,8,10,12,14,-1,-1,-1,-1,-1,-1,-1,-1],"split_conditions":[1.5E1,8.4E0,2.3545454E1,5.571429E0,1.1974359E1,1.8421686E1,2.975E1,-2.62889E-1,-1.5644476E-1,-6.547408E-2,4.3848034E-2,1.5055582E-1,2.972247E-1,4.4931456E-1,6.6093105E-1],"split_indices":[1,1,2,2,2,2,2,0,0,0,0,0,0,0,0],"split_type":[0,0,0,0,0,0,0,0,0,0,0,0,0,0,0],"sum_hessian":[3.1808E4,2.2364E4,9.444E3,1.135E4,1.1014E4,7.205E3,2.239E3,5.78E3,5.57E3,7.076E3,3.938E3,3.725E3,3.48E3,1.863E3,3.76E2],"tree_param":{"num_deleted":"0","num_feature":"8","num_nodes":"15","size_leaf_vector":"1"}},{"base_weights":[2.4176626E-4,-2.540054E0,4.8436093E0,-4.5945926E0,-1.2455382E0,2.6544256E0,7.3332872E0,-3.05008E-1,-2.061754E-1,-1.1406273E-1,-1.5916476E-2,7.245879E-2,1.7744131E-1,2.9911086E-1,4.741741E-1],"categories":[],"categories_nodes":[],"categories_segments":[],"categories_sizes":[],"default_left":[0,0,0,0,0,0,0,0,0,0,0,0,0,0,0],"id":9,"left_children":[1,3,5,7,9,11,13,-1,-1,-1,-1,-1,-1,-1,-1],"loss_changes":[3.9137706E5,5.5490156E4,5.9629312E4,5.6949375E3,1.2293359E4,6.2740703E3,1.48171875E4,0E0,0E0,0E0,0E0,0E0,0E0,0E0,0E0],"parents":[2147483647,0,0,1,1,2,2,3,3,4,4,5,5,6,6],"right_children":[2,4,6,8,10,12,14,-1,-1,-1,-1,-1,-1,-1,-1],"split_conditions":[1.3208333E1,6.7E0,1.98E1,2.6E0,9.8E0,1.56E1,2.4430555E1,-3.05008E-1,-2.061754E-1,-1.1406273E-1,-1.5916476E-2,7.245879E-2,1.7744131E-1,2.9911086E-1,4.741741E-1],"split_indices":[2,1,1,0,1,1,2,0,0,0,0,0,0,0,0],"split_type":[0,0,0,0,0,0,0,0,0,0,0,0,0,0,0],"sum_hessian":[3.1808E4,2.0865E4,1.0943E4,8.064E3,1.2801E4,5.824E3,5.119E3,1.919E3,6.145E3,6.046E3,6.755E3,2.482E3,3.342E3,3.146E3,1.973E3],"tree_param":{"num_deleted":"0","num_feature":"8","num_nodes":"15","size_leaf_vector":"1"}},{"base_weights":[2.4170872E-4,-2.3215156E0,4.799107E0,-4.140449E0,-9.2222494E-1,3.184055E0,7.656187E0,-2.4540003E-1,-1.5201035E-1,-9.1726996E-2,4.239566E-3,1.1014982E-1,2.37456E-1,3.3737203E-1,5.089129E-1],"categories":[],"categories_nodes":[],"categories_segments":[],"categories_sizes":[],"default_left":[0,0,0,0,0,0,0,0,0,0,0,0,0,0,0],"id":10,"left_children":[1,3,5,7,9,11,13,-1,-1,-1,-1,-1,-1,-1,-1],"loss_changes":[3.5442066E5,5.4560523E4,4.783547E4,7.8565938E3,1.1133156E4,1.0166297E4,8.514578E3,0E0,0E0,0E0,0E0,0E0,0E0,0E0,0E0],"parents":[2147483647,0,0,1,1,2,2,3,3,4,4,5,5,6,6],"right_children":[2,4,6,8,10,12,14,-1,-1,-1,-1,-1,-1,-1,-1],"split_conditions":[1.42E1,7.1578946E0,2.17E1,5.6E0,1.04E1,1.7846153E1,2.6675438E1,-2.4540003E-1,-1.5201035E-1,-9.1726996E-2,4.239566E-3,1.1014982E-1,2.37456E-1,3.3737203E-1,5.089129E-1],"split_indices":[1,2,1,0,2,2,2,0,0,0,0,0,0,0,0],"split_type":[0,0,0,0,0,0,0,0,0,0,0,0,0,0,0],"sum_hessian":[3.1808E4,2.1437E4,1.0371E4,9.32E3,1.2117E4,6.627E3,3.744E3,5.488E3,3.832E3,6.357E3,5.76E3,4.075E3,2.552E3,2.755E3,9.89E2],"tree_param":{"num_deleted":"0","num_feature":"8","num_nodes":"15","size_leaf_vector":"1"}},{"base_weights":[2.5195468E-4,-2.0837464E0,4.841145E0,-3.4157863E0,-2.1180749E-1,3.384045E0,7.467628E0,-2.2865216E-1,-1.2648061E-1,-4.1644134E-2,3.753003E-2,9.4008826E-2,2.0990928E-1,3.477572E-1,5.789482E-1],"categories":[],"categories_nodes":[],"categories_segments":[],"categories_sizes":[],"default_left":[0,0,0,0,0,0,0,0,0,0,0,0,0,0,0],"id":11,"left_children":[1,3,5,7,9,11,13,-1,-1,-1,-1,-1,-1,-1,-1],"loss_changes":[3.2091244E5,5.544717E4,3.6611062E4,1.3312141E4,5.527216E3,7.5329375E3,7.1148594E3,0E0,0E0,0E0,0E0,0E0,0E0,0E0,0E0],"parents":[2147483647,0,0,1,1,2,2,3,3,4,4,5,5,6,6],"right_children":[2,4,6,8,10,12,14,-1,-1,-1,-1,-1,-1,-1,-1],"split_conditions":[1.42E1,9.2E0,2.22E1,5.2E0,1.28E1,1.64E1,2.975E1,-2.2865216E-1,-1.2648061E-1,-4.1644134E-2,3.753003E-2,9.4008826E-2,2.0990928E-1,3.477572E-1,5.789482E-1],"split_indices":[2,1,1,0,0,0,2,0,0,0,0,0,0,0,0],"split_type":[0,0,0,0,0,0,0,0,0,0,0,0,0,0,0],"sum_hessian":[3.1808E4,2.2236E4,9.572E3,1.2991E4,9.245E3,6.158E3,3.414E3,5.632E3,7.359E3,5.619E3,3.626E3,2.164E3,3.994E3,3.038E3,3.76E2],"tree_param":{"num_deleted":"0","num_feature":"8","num_nodes":"15","size_leaf_vector":"1"}},{"base_weights":[2.6681347E-4,-2.2065291E0,4.1359158E0,-3.9662862E0,-1.086901E0,2.2619846E0,6.329934E0,-2.6644143E-1,-1.7699926E-1,-9.745275E-2,-1.5130927E-2,5.7613354E-2,1.5835805E-1,2.5662425E-1,4.0972325E-1],"categories":[],"categories_nodes":[],"categories_segments":[],"categories_sizes":[],"default_left":[0,0,0,0,0,0,0,0,0,0,0,0,0,0,0],"id":12,"left_children":[1,3,5,7,9,11,13,-1,-1,-1,-1,-1,-1,-1,-1],"loss_changes":[2.9031503E5,4.086311E4,4.5491094E4,4.6657266E3,8.57192E3,5.99416E3,1.1340141E4,0E0,0E0,0E0,0E0,0E0,0E0,0E0,0E0],"parents":[2147483647,0,0,1,1,2,2,3,3,4,4,5,5,6,6],"right_children":[2,4,6,8,10,12,14,-1,-1,-1,-1,-1,-1,-1,-1],"split_conditions":[1.3117647E1,6.7E0,1.9605263E1,2.6E0,9.8E0,1.58E1,2.4430555E1,-2.6644143E-1,-1.7699926E-1,-9.745275E-2,-1.5130927E-2,5.7613354E-2,1.5835805E-1,2.5662425E-1,4.0972325E-1],"split_indices":[2,1,2,0,1,0,2,0,0,0,0,0,0,0,0],"split_type":[0,0,0,0,0,0,0,0,0,0,0,0,0,0,0],"sum_hessian":[3.1808E4,2.0741E4,1.1067E4,8.064E3,1.2677E4,5.97E3,5.097E3,1.919E3,6.145E3,6.038E3,6.639E3,2.683E3,3.287E3,3.106E3,1.991E3],"tree_param":{"num_deleted":"0","num_feature":"8","num_nodes":"15","size_leaf_vector":"1"}},{"base_weights":[2.6381575E-4,-2.0563672E0,4.0163546E0,-3.5848873E0,-8.4023744E-1,2.2029603E0,6.012144E0,-2.0578384E-1,-1.2047018E-1,-7.3473476E-2,8.407291E-3,7.131576E-2,1.6203414E-1,2.4472181E-1,3.8977525E-1],"categories":[],"categories_nodes":[],"categories_segments":[],"categories_sizes":[],"default_left":[0,0,0,0,0,0,0,0,0,0,0,0,0,0,0],"id":13,"left_children":[1,3,5,7,9,11,13,-1,-1,-1,-1,-1,-1,-1,-1],"loss_changes":[2.627384E5,3.9102227E4,3.8975906E4,5.8057656E3,7.4347676E3,4.5457246E3,1.0183359E4,0E0,0E0,0E0,0E0,0E0,0E0,0E0,0E0],"parents":[2147483647,0,0,1,1,2,2,3,3,4,4,5,5,6,6],"right_children":[2,4,6,8,10,12,14,-1,-1,-1,-1,-1,-1,-1,-1],"split_conditions":[1.39E1,7.1578946E0,1.98E1,6.4E0,1.1E1,1.6434782E1,2.4430555E1,-2.0578384E-1,-1.2047018E-1,-7.3473476E-2,8.407291E-3,7.131576E-2,1.6203414E-1,2.4472181E-1,3.8977525E-1],"split_indices":[1,2,1,0,2,2,2,0,0,0,0,0,0,0,0],"split_type":[0,0,0,0,0,0,0,0,0,0,0,0,0,0,0],"sum_hessian":[3.1808E4,2.1036E4,1.0772E4,9.32E3,1.1716E4,5.645E3,5.127E3,6.419E3,2.901E3,7.214E3,4.502E3,3.23E3,2.415E3,3.154E3,1.973E3],"tree_param":{"num_deleted":"0","num_feature":"8","num_nodes":"15","size_leaf_vector":"1"}},{"base_weights":[2.6567912E-4,-1.7490957E0,4.2700696E0,-3.4153872E0,-5.8615804E-1,2.899656E0,6.3046494E0,-2.211833E-1,-1.387352E-1,-7.4219875E-2,1.5433106E-2,1.08203195E-1,1.9542342E-1,2.902522E-1,4.9749222E-1],"categories":[],"categories_nodes":[],"categories_segments":[],"categories_sizes":[],"default_left":[0,0,0,0,0,0,0,0,0,0,0,0,0,0,0],"id":14,"left_children":[1,3,5,7,9,11,13,-1,-1,-1,-1,-1,-1,-1,-1],"loss_changes":[2.3760256E5,4.3724297E4,2.5758781E4,5.979258E3,1.0683268E4,4.0922422E3,6.7169375E3,0E0,0E0,0E0,0E0,0E0,0E0,0E0,0E0],"parents":[2147483647,0,0,1,1,2,2,3,3,4,4,5,5,6,6],"right_children":[2,4,6,8,10,12,14,-1,-1,-1,-1,-1,-1,-1,-1],"split_conditions":[1.52E1,7.2E0,2.1362068E1,4.647059E0,1.026E1,1.7846153E1,3.08E1,-2.211833E-1,-1.387352E-1,-7.4219875E-2,1.5433106E-2,1.08203195E-1,1.9542342E-1,2.902522E-1,4.9749222E-1],"split_indices":[1,0,2,2,2,2,0,0,0,0,0,0,0,0,0],"split_type":[0,0,0,0,0,0,0,0,0,0,0,0,0,0,0],"sum_hessian":[3.1808E4,2.2564E4,9.244E3,9.274E3,1.329E4,5.525E3,3.719E3,3.601E3,5.673E3,6.632E3,6.658E3,3.197E3,2.328E3,3.273E3,4.46E2],"tree_param":{"num_deleted":"0","num_feature":"8","num_nodes":"15","size_leaf_vector":"1"}},{"base_weights":[2.7339993E-4,-1.9010668E0,3.5634825E0,-3.5493245E0,-1.0011272E0,1.9450465E0,5.442587E0,-2.4504805E-1,-1.6117306E-1,-8.405301E-2,-4.4697034E-3,5.1068503E-2,1.3357085E-1,2.2092779E-1,3.5364422E-1],"categories":[],"categories_nodes":[],"categories_segments":[],"categories_sizes":[],"default_left":[0,0,0,0,0,0,0,0,0,0,0,0,0,0,0],"id":15,"left_children":[1,3,5,7,9,11,13,-1,-1,-1,-1,-1,-1,-1,-1],"loss_changes":[2.1550872E5,3.0763727E4,3.3649516E4,3.2105E3,8.317902E3,3.9879688E3,8.518141E3,0E0,0E0,0E0,0E0,0E0,0E0,0E0,0E0],"parents":[2147483647,0,0,1,1,2,2,3,3,4,4,5,5,6,6],"right_children":[2,4,6,8,10,12,14,-1,-1,-1,-1,-1,-1,-1,-1],"split_conditions":[1.3117647E1,6.2105265E0,1.98E1,2.2E0,1.04E1,1.54E1,2.4430555E1,-2.4504805E-1,-1.6117306E-1,-8.405301E-2,-4.4697034E-3,5.1068503E-2,1.3357085E-1,2.2092779E-1,3.5364422E-1],"split_indices":[2,2,1,0,0,0,2,0,0,0,0,0,0,0,0],"split_type":[0,0,0,0,0,0,0,0,0,0,0,0,0,0,0],"sum_hessian":[3.1808E4,2.0741E4,1.1067E4,7.324E3,1.3417E4,5.947E3,5.12E3,1.42E3,5.904E3,7.685E3,5.732E3,2.619E3,3.328E3,3.147E3,1.973E3],"tree_param":{"num_deleted":"0","num_feature":"8","num_nodes":"15","size_leaf_vector":"1"}},{"base_weights":[2.68078E-4,-1.5950545E0,3.8429236E0,-2.8743858E0,-3.4250072E-1,2.886974E0,6.2947054E0,-1.7753498E-1,-9.4615E-2,-5.3314853E-2,1.9106044E-2,1.0239655E-1,1.9862078E-1,2.8509238E-1,4.5421797E-1],"categories":[],"categories_nodes":[],"categories_segments":[],"categories_sizes":[],"default_left":[0,0,0,0,0,0,0,0,0,0,0,0,0,0,0],"id":16,"left_children":[1,3,5,7,9,11,13,-1,-1,-1,-1,-1,-1,-1,-1],"loss_changes":[1.9500405E5,3.601847E4,2.1853984E4,7.379164E3,5.957958E3,6.10834E3,4.276375E3,0E0,0E0,0E0,0E0,0E0,0E0,0E0,0E0],"parents":[2147483647,0,0,1,1,2,2,3,3,4,4,5,5,6,6],"right_children":[2,4,6,8,10,12,14,-1,-1,-1,-1,-1,-1,-1,-1],"split_conditions":[1.45E1,8.2E0,2.35E1,6.2105265E0,1.12E1,1.9043478E1,3.08E1,-1.7753498E-1,-9.4615E-2,-5.3314853E-2,1.9106044E-2,1.0239655E-1,1.9862078E-1,2.8509238E-1,4.5421797E-1],"split_indices":[2,0,1,2,1,2,0,0,0,0,0,0,0,0,0],"split_type":[0,0,0,0,0,0,0,0,0,0,0,0,0,0,0],"sum_hessian":[3.1808E4,2.2477E4,9.331E3,1.1119E4,1.1358E4,6.715E3,2.616E3,6.583E3,4.536E3,5.682E3,5.676E3,3.789E3,2.926E3,2.16E3,4.56E2],"tree_param":{"num_deleted":"0","num_feature":"8","num_nodes":"15","size_leaf_vector":"1"}},{"base_weights":[2.7781804E-4,-1.4621985E0,3.8039746E0,-2.4668782E0,8.293248E-2,2.974698E0,6.255546E0,-1.6583692E-1,-8.321847E-2,-3.0059239E-2,3.527085E-2,1.0020596E-1,1.8796937E-1,2.8419536E-1,4.526588E-1],"categories":[],"categories_nodes":[],"categories_segments":[],"categories_sizes":[],"default_left":[0,0,0,0,0,0,0,0,0,0,0,0,0,0,0],"id":17,"left_children":[1,3,5,7,9,11,13,-1,-1,-1,-1,-1,-1,-1,-1],"loss_changes":[1.7695319E5,3.566727E4,1.7941188E4,9.490242E3,3.8560918E3,5.021328E3,3.5180312E3,0E0,0E0,0E0,0E0,0E0,0E0,0E0,0E0],"parents":[2147483647,0,0,1,1,2,2,3,3,4,4,5,5,6,6],"right_children":[2,4,6,8,10,12,14,-1,-1,-1,-1,-1,-1,-1,-1],"split_conditions":[1.58E1,9.277311E0,2.3545454E1,6E0,1.1974359E1,1.7621622E1,2.975E1,-1.6583692E-1,-8.321847E-2,-3.0059239E-2,3.527085E-2,1.0020596E-1,1.8796937E-1,2.8419536E-1,4.526588E-1],"split_indices":[0,2,2,0,2,2,2,0,0,0,0,0,0,0,0],"split_type":[0,0,0,0,0,0,0,0,0,0,0,0,0,0,0],"sum_hessian":[3.1808E4,2.2975E4,8.833E3,1.3922E4,9.053E3,6.602E3,2.231E3,6.76E3,7.162E3,4.313E3,4.74E3,2.953E3,3.649E3,1.855E3,3.76E2],"tree_param":{"num_deleted":"0","num_feature":"8","num_nodes":"15","size_leaf_vector":"1"}},{"base_weights":[2.8849102E-4,-1.6048702E0,3.1347659E0,-2.8127084E0,-6.4388496E-1,1.7212102E0,4.6904993E0,-1.8359388E-1,-1.14974596E-1,-5.0236892E-2,2.0864634E-2,5.543211E-2,1.2698531E-1,2.0541525E-1,3.4958276E-1],"categories":[],"categories_nodes":[],"categories_segments":[],"categories_sizes":[],"default_left":[0,0,0,0,0,0,0,0,0,0,0,0,0,0,0],"id":18,"left_children":[1,3,5,7,9,11,13,-1,-1,-1,-1,-1,-1,-1,-1],"loss_changes":[1.6004672E5,2.4416152E4,2.3683E4,4.1015547E3,4.487199E3,2.828E3,6.841367E3,0E0,0E0,0E0,0E0,0E0,0E0,0E0,0E0],"parents":[2147483647,0,0,1,1,2,2,3,3,4,4,5,5,6,6],"right_children":[2,4,6,8,10,12,14,-1,-1,-1,-1,-1,-1,-1,-1],"split_conditions":[1.39E1,7.1578946E0,1.98E1,4.4366198E0,1.1974359E1,1.6434782E1,2.71E1,-1.8359388E-1,-1.14974596E-1,-5.0236892E-2,2.0864634E-2,5.543211E-2,1.2698531E-1,2.0541525E-1,3.4958276E-1],"split_indices":[1,2,1,2,2,2,1,0,0,0,0,0,0,0,0],"split_type":[0,0,0,0,0,0,0,0,0,0,0,0,0,0,0],"sum_hessian":[3.1808E4,2.1036E4,1.0772E4,9.32E3,1.1716E4,5.645E3,5.127E3,3.483E3,5.837E3,8.743E3,2.973E3,3.23E3,2.415E3,4.094E3,1.033E3],"tree_param":{"num_deleted":"0","num_feature":"8","num_nodes":"15","size_leaf_vector":"1"}},{"base_weights":[2.8682753E-4,-1.3235761E0,3.4434695E0,-2.2333524E0,7.55997E-2,2.6873646E0,5.678737E0,-1.5456252E-1,-7.8043975E-2,-1.5667615E-2,4.6799306E-2,1.0228679E-1,1.8239705E-1,2.5727868E-1,4.152622E-1],"categories":[],"categories_nodes":[],"categories_segments":[],"categories_sizes":[],"default_left":[0,0,0,0,0,0,0,0,0,0,0,0,0,0,0],"id":19,"left_children":[1,3,5,7,9,11,13,-1,-1,-1,-1,-1,-1,-1,-1],"loss_changes":[1.449996E5,2.9247172E4,1.4915047E4,8.027539E3,3.0302056E3,4.0621875E3,3.0828672E3,0E0,0E0,0E0,0E0,0E0,0E0,0E0,0E0],"parents":[2147483647,0,0,1,1,2,2,3,3,4,4,5,5,6,6],"right_children":[2,4,6,8,10,12,14,-1,-1,-1,-1,-1,-1,-1,-1],"split_conditions":[1.58E1,9.277311E0,2.3545454E1,5.6E0,1.3208333E1,1.9605263E1,3.03E1,-1.5456252E-1,-7.8043975E-2,-1.5667615E-2,4.6799306E-2,1.0228679E-1,1.8239705E-1,2.5727868E-1,4.152622E-1],"split_indices":[0,2,2,0,2,2,1,0,0,0,0,0,0,0,0],"split_type":[0,0,0,0,0,0,0,0,0,0,0,0,0,0,0],"sum_hessian":[3.1808E4,2.2975E4,8.833E3,1.3922E4,9.053E3,6.602E3,2.231E3,6.116E3,7.806E3,6.235E3,2.818E3,3.96E3,2.642E3,1.857E3,3.74E2],"tree_param":{"num_deleted":"0","num_feature":"8","num_nodes":"15","size_leaf_vector":"1"}},{"base_weights":[2.9623945E-4,-1.2583334E0,3.2758691E0,-2.373599E0,-2.1136016E-1,2.4715526E0,5.184447E0,-1.6801324E-1,-9.5081985E-2,-3.474106E-2,3.31533E-2,9.2711225E-2,1.6742328E-1,2.3365791E-1,3.7954077E-1],"categories":[],"categories_nodes":[],"categories_segments":[],"categories_sizes":[],"default_left":[0,0,0,0,0,0,0,0,0,0,0,0,0,0,0],"id":20,"left_children":[1,3,5,7,9,11,13,-1,-1,-1,-1,-1,-1,-1,-1],"loss_changes":[1.3114414E5,2.6832172E4,1.3542117E4,5.175082E3,5.0117505E3,3.3576953E3,3.1843516E3,0E0,0E0,0E0,0E0,0E0,0E0,0E0,0E0],"parents":[2147483647,0,0,1,1,2,2,3,3,4,4,5,5,6,6],"right_children":[2,4,6,8,10,12,14,-1,-1,-1,-1,-1,-1,-1,-1],"split_conditions":[1.5071428E1,8.2E0,2.35E1,4.5795455E0,1.28E1,1.9605263E1,3.08E1,-1.6801324E-1,-9.5081985E-2,-3.474106E-2,3.31533E-2,9.2711225E-2,1.6742328E-1,2.3365791E-1,3.7954077E-1],"split_indices":[2,0,1,2,0,2,0,0,0,0,0,0,0,0,0],"split_type":[0,0,0,0,0,0,0,0,0,0,0,0,0,0,0],"sum_hessian":[3.1808E4,2.2979E4,8.829E3,1.1126E4,1.1853E4,6.213E3,2.616E3,3.598E3,7.528E3,7.633E3,4.22E3,3.648E3,2.565E3,2.16E3,4.56E2],"tree_param":{"num_deleted":"0","num_feature":"8","num_nodes":"15","size_leaf_vector":"1"}},{"base_weights":[3.0064018E-4,-1.1989245E0,3.1193178E0,-2.3670921E0,-2.8920174E-1,2.4339812E0,5.1453743E0,-1.7843787E-1,-1.03188194E-1,-3.9575465E-2,2.8865794E-2,8.9085154E-2,1.5994115E-1,2.3239556E-1,3.7903875E-1],"categories":[],"categories_nodes":[],"categories_segments":[],"categories_sizes":[],"default_left":[0,0,0,0,0,0,0,0,0,0,0,0,0,0,0],"id":21,"left_children":[1,3,5,7,9,11,13,-1,-1,-1,-1,-1,-1,-1,-1],"loss_changes":[1.18982234E5,2.441611E4,1.2253758E4,3.659129E3,5.623124E3,3.2884688E3,2.6688828E3,0E0,0E0,0E0,0E0,0E0,0E0,0E0,0E0],"parents":[2147483647,0,0,1,1,2,2,3,3,4,4,5,5,6,6],"right_children":[2,4,6,8,10,12,14,-1,-1,-1,-1,-1,-1,-1,-1],"split_conditions":[1.58E1,7.53125E0,2.3545454E1,3.1E0,1.1974359E1,1.96E1,2.975E1,-1.7843787E-1,-1.03188194E-1,-3.9575465E-2,2.8865794E-2,8.9085154E-2,1.5994115E-1,2.3239556E-1,3.7903875E-1],"split_indices":[0,2,2,1,2,1,2,0,0,0,0,0,0,0,0],"split_type":[0,0,0,0,0,0,0,0,0,0,0,0,0,0,0],"sum_hessian":[3.1808E4,2.2975E4,8.833E3,1.0058E4,1.2917E4,6.602E3,2.231E3,2.025E3,8.033E3,8.177E3,4.74E3,3.565E3,3.037E3,1.855E3,3.76E2],"tree_param":{"num_deleted":"0","num_feature":"8","num_nodes":"15","size_leaf_vector":"1"}},{"base_weights":[3.0355935E-4,-1.1422569E0,2.9640417E0,-2.002033E0,-1.6755411E-2,2.311987E0,4.887444E0,-1.5746821E-1,-8.160832E-2,-2.0309648E-2,3.0556822E-2,8.218628E-2,1.50793E-1,2.2081125E-1,3.6095977E-1],"categories":[],"categories_nodes":[],"categories_segments":[],"categories_sizes":[],"default_left":[0,0,0,0,0,0,0,0,0,0,0,0,0,0,0],"id":22,"left_children":[1,3,5,7,9,11,13,-1,-1,-1,-1,-1,-1,-1,-1],"loss_changes":[1.0771661E5,2.2216918E4,1.1089305E4,5.518324E3,2.4318015E3,3.1051367E3,2.4293555E3,0E0,0E0,0E0,0E0,0E0,0E0,0E0,0E0],"parents":[2147483647,0,0,1,1,2,2,3,3,4,4,5,5,6,6],"right_children":[2,4,6,8,10,12,14,-1,-1,-1,-1,-1,-1,-1,-1],"split_conditions":[1.56E1,9.2E0,2.3545454E1,3.6E0,1.2285714E1,1.8820513E1,3.03E1,-1.5746821E-1,-8.160832E-2,-2.0309648E-2,3.0556822E-2,8.218628E-2,1.50793E-1,2.2081125E-1,3.6095977E-1],"split_indices":[1,1,2,0,2,2,1,0,0,0,0,0,0,0,0],"split_type":[0,0,0,0,0,0,0,0,0,0,0,0,0,0,0],"sum_hessian":[3.1808E4,2.2958E4,8.85E3,1.3015E4,9.943E3,6.611E3,2.239E3,3.171E3,9.844E3,6.137E3,3.806E3,3.393E3,3.218E3,1.865E3,3.74E2],"tree_param":{"num_deleted":"0","num_feature":"8","num_nodes":"15","size_leaf_vector":"1"}},{"base_weights":[3.0682195E-4,-1.0854467E0,2.8242002E0,-2.1490061E0,-2.571893E-1,2.1289456E0,4.471467E0,-1.458662E-1,-8.7081015E-2,-4.556754E-2,1.35164205E-2,8.101439E-2,1.484606E-1,2.008626E-1,3.3067444E-1],"categories":[],"categories_nodes":[],"categories_segments":[],"categories_sizes":[],"default_left":[0,0,0,0,0,0,0,0,0,0,0,0,0,0,0],"id":23,"left_children":[1,3,5,7,9,11,13,-1,-1,-1,-1,-1,-1,-1,-1],"loss_changes":[9.753112E4,2.0239025E4,1.0107789E4,3.1434062E3,4.4580127E3,2.6511035E3,2.5235078E3,0E0,0E0,0E0,0E0,0E0,0E0,0E0,0E0],"parents":[2147483647,0,0,1,1,2,2,3,3,4,4,5,5,6,6],"right_children":[2,4,6,8,10,12,14,-1,-1,-1,-1,-1,-1,-1,-1],"split_conditions":[1.58E1,7.53125E0,2.35E1,4.4366198E0,1.04E1,1.9605263E1,3.08E1,-1.458662E-1,-8.7081015E-2,-4.556754E-2,1.35164205E-2,8.101439E-2,1.484606E-1,2.008626E-1,3.3067444E-1],"split_indices":[0,2,1,2,0,2,0,0,0,0,0,0,0,0,0],"split_type":[0,0,0,0,0,0,0,0,0,0,0,0,0,0,0],"sum_hessian":[3.1808E4,2.2975E4,8.833E3,1.0058E4,1.2917E4,6.213E3,2.62E3,3.483E3,6.575E3,5.766E3,7.151E3,3.872E3,2.341E3,2.164E3,4.56E2],"tree_param":{"num_deleted":"0","num_feature":"8","num_nodes":"15","size_leaf_vector":"1"}},{"base_weights":[3.0703723E-4,-1.0351782E0,2.6951487E0,-2.1283753E0,-2.957254E-1,2.0391421E0,4.2517896E0,-1.5996791E-1,-9.237569E-2,-4.6927497E-2,1.033225E-2,7.7167474E-2,1.3716966E-1,1.9314097E-1,3.2944104E-1],"categories":[],"categories_nodes":[],"categories_segments":[],"categories_sizes":[],"default_left":[0,0,0,0,0,0,0,0,0,0,0,0,0,0,0],"id":24,"left_children":[1,3,5,7,9,11,13,-1,-1,-1,-1,-1,-1,-1,-1],"loss_changes":[8.876481E4,1.8575658E4,9.00823E3,2.7830898E3,4.427323E3,2.165461E3,2.353496E3,0E0,0E0,0E0,0E0,0E0,0E0,0E0,0E0],"parents":[2147483647,0,0,1,1,2,2,3,3,4,4,5,5,6,6],"right_children":[2,4,6,8,10,12,14,-1,-1,-1,-1,-1,-1,-1,-1],"split_conditions":[1.5071428E1,7.2E0,2.35E1,2.6E0,9.722222E0,1.9605263E1,2.975E1,-1.5996791E-1,-9.237569E-2,-4.6927497E-2,1.033225E-2,7.7167474E-2,1.3716966E-1,1.9314097E-1,3.2944104E-1],"split_indices":[2,0,1,0,2,2,2,0,0,0,0,0,0,0,0],"split_type":[0,0,0,0,0,0,0,0,0,0,0,0,0,0,0],"sum_hessian":[3.1808E4,2.2979E4,8.829E3,9.271E3,1.3708E4,6.213E3,2.616E3,1.924E3,7.347E3,6.013E3,7.695E3,3.648E3,2.565E3,2.245E3,3.71E2],"tree_param":{"num_deleted":"0","num_feature":"8","num_nodes":"15","size_leaf_vector":"1"}},{"base_weights":[3.0593222E-4,-1.1365656E0,2.2203343E0,-2.2132049E0,-5.615004E-1,1.4555112E0,3.6552396E0,-9.706425E-2,-1.5955171E-1,-4.9494002E-2,1.9938077E-3,3.6828987E-2,9.9641435E-2,1.6625218E-1,3.008875E-1],"categories":[],"categories_nodes":[],"categories_segments":[],"categories_sizes":[],"default_left":[0,0,0,0,0,0,0,0,0,0,0,0,0,0,0],"id":25,"left_children":[1,3,5,7,9,11,13,-1,-1,-1,-1,-1,-1,-1,-1],"loss_changes":[8.028484E4,1.3023559E4,1.1817492E4,1.9411914E3,3.5330054E3,2.713796E3,2.9014336E3,0E0,0E0,0E0,0E0,0E0,0E0,0E0,0E0],"parents":[2147483647,0,0,1,1,2,2,3,3,4,4,5,5,6,6],"right_children":[2,4,6,8,10,12,14,-1,-1,-1,-1,-1,-1,-1,-1],"split_conditions":[1.39E1,6.2105265E0,2.17E1,3E0,1.04E1,1.67E1,3.08E1,-9.706425E-2,-1.5955171E-1,-4.9494002E-2,1.9938077E-3,3.6828987E-2,9.9641435E-2,1.6625218E-1,3.008875E-1],"split_indices":[1,2,1,5,0,1,0,0,0,0,0,0,0,0,0],"split_type":[0,0,0,0,0,0,0,0,0,0,0,0,0,0,0],"sum_hessian":[3.1808E4,2.1036E4,1.0772E4,7.323E3,1.3713E4,7.028E3,3.744E3,5.732E3,1.591E3,8.008E3,5.705E3,3.007E3,4.021E3,3.287E3,4.57E2],"tree_param":{"num_deleted":"0","num_feature":"8","num_nodes":"15","size_leaf_vector":"1"}},{"base_weights":[2.998394E-4,-1.1247053E0,2.0385947E0,-2.1007228E0,-5.709781E-1,1.1100904E0,3.160268E0,-1.6064522E-1,-9.340436E-2,-4.987222E-2,-4.3537007E-3,1.4142203E-2,7.75077E-2,1.3588592E-1,2.3938064E-1],"categories":[],"categories_nodes":[],"categories_segments":[],"categories_sizes":[],"default_left":[0,0,0,0,0,0,0,0,0,0,0,0,0,0,0],"id":26,"left_children":[1,3,5,7,9,11,13,-1,-1,-1,-1,-1,-1,-1,-1],"loss_changes":[7.294327E4,1.1076352E4,1.1778738E4,1.9135371E3,2.6990107E3,2.2533394E3,3.6764766E3,0E0,0E0,0E0,0E0,0E0,0E0,0E0,0E0],"parents":[2147483647,0,0,1,1,2,2,3,3,4,4,5,5,6,6],"right_children":[2,4,6,8,10,12,14,-1,-1,-1,-1,-1,-1,-1,-1],"split_conditions":[1.29375E1,6.2E0,1.98E1,2.4E0,9.277311E0,2.4E0,2.76E1,-1.6064522E-1,-9.340436E-2,-4.987222E-2,-4.3537007E-3,1.4142203E-2,7.75077E-2,1.3588592E-1,2.3938064E-1],"split_indices":[2,0,1,1,2,4,0,0,0,0,0,0,0,0,0],"split_type":[0,0,0,0,0,0,0,0,0,0,0,0,0,0,0],"sum_hessian":[3.1808E4,2.0496E4,1.1312E4,7.418E3,1.3078E4,6.19E3,5.122E3,1.281E3,6.137E3,6.951E3,6.127E3,2.15E3,4.04E3,4.029E3,1.093E3],"tree_param":{"num_deleted":"0","num_feature":"8","num_nodes":"15","size_leaf_vector":"1"}},{"base_weights":[2.8996347E-4,-8.944409E-1,2.32736E0,-1.695059E0,-1.3957614E-1,1.8473397E0,3.9826803E0,-1.0644404E-1,-5.3463507E-2,-3.136079E-2,1.6166745E-2,6.222839E-2,1.1518892E-1,1.775428E-1,2.9075503E-1],"categories":[],"categories_nodes":[],"categories_segments":[],"categories_sizes":[],"default_left":[0,0,0,0,0,0,0,0,0,0,0,0,0,0,0],"id":27,"left_children":[1,3,5,7,9,11,13,-1,-1,-1,-1,-1,-1,-1,-1],"loss_changes":[6.623165E4,1.3885502E4,7.0120234E3,3.0247344E3,2.669956E3,1.8817656E3,1.5500469E3,0E0,0E0,0E0,0E0,0E0,0E0,0E0,0E0],"parents":[2147483647,0,0,1,1,2,2,3,3,4,4,5,5,6,6],"right_children":[2,4,6,8,10,12,14,-1,-1,-1,-1,-1,-1,-1,-1],"split_conditions":[1.58E1,8.2E0,2.4430555E1,6.2105265E0,1.12E1,1.7621622E1,2.975E1,-1.0644404E-1,-5.3463507E-2,-3.136079E-2,1.6166745E-2,6.222839E-2,1.1518892E-1,1.775428E-1,2.9075503E-1],"split_indices":[0,0,2,2,1,2,2,0,0,0,0,0,0,0,0],"split_type":[0,0,0,0,0,0,0,0,0,0,0,0,0,0,0],"sum_hessian":[3.1808E4,2.2975E4,8.833E3,1.1149E4,1.1826E4,6.849E3,1.984E3,6.583E3,4.566E3,5.759E3,6.067E3,2.953E3,3.896E3,1.608E3,3.76E2],"tree_param":{"num_deleted":"0","num_feature":"8","num_nodes":"15","size_leaf_vector":"1"}},{"base_weights":[2.9025922E-4,-1.1120543E0,1.695283E0,-1.9163764E0,-6.192791E-1,8.429514E-1,2.8255918E0,-8.323523E-2,-1.4096126E-1,-4.961188E-2,-5.461432E-3,1.0052526E-2,6.077983E-2,1.1973099E-1,2.1266373E-1],"categories":[],"categories_nodes":[],"categories_segments":[],"categories_sizes":[],"default_left":[0,0,0,0,0,0,0,0,0,0,0,0,0,0,0],"id":28,"left_children":[1,3,5,7,9,11,13,-1,-1,-1,-1,-1,-1,-1,-1],"loss_changes":[5.9975082E4,7.6111113E3,1.2140289E4,1.6531152E3,2.2656929E3,1.7188945E3,3.3234648E3,0E0,0E0,0E0,0E0,0E0,0E0,0E0,0E0],"parents":[2147483647,0,0,1,1,2,2,3,3,4,4,5,5,6,6],"right_children":[2,4,6,8,10,12,14,-1,-1,-1,-1,-1,-1,-1,-1],"split_conditions":[1.28E1,6.2105265E0,1.9043478E1,3E0,9.8E0,1.3027027E1,2.7E1,-8.323523E-2,-1.4096126E-1,-4.961188E-2,-5.461432E-3,1.0052526E-2,6.077983E-2,1.1973099E-1,2.1266373E-1],"split_indices":[0,2,2,5,2,2,0,0,0,0,0,0,0,0,0],"split_type":[0,0,0,0,0,0,0,0,0,0,0,0,0,0,0],"sum_hessian":[3.1808E4,1.9205E4,1.2603E4,7.295E3,1.191E4,7.186E3,5.417E3,5.707E3,1.588E3,6.879E3,5.031E3,2.64E3,4.546E3,4.163E3,1.254E3],"tree_param":{"num_deleted":"0","num_feature":"8","num_nodes":"15","size_leaf_vector":"1"}},{"base_weights":[2.7961744E-4,-8.09391E-1,2.1074405E0,-1.6720384E0,-2.2588551E-1,1.6317393E0,3.506208E0,-1.2956488E-1,-7.154935E-2,-2.6428971E-2,2.2731883E-2,5.5122048E-2,1.0636365E-1,1.56835E-1,2.661932E-1],"categories":[],"categories_nodes":[],"categories_segments":[],"categories_sizes":[],"default_left":[0,0,0,0,0,0,0,0,0,0,0,0,0,0,0],"id":29,"left_children":[1,3,5,7,9,11,13,-1,-1,-1,-1,-1,-1,-1,-1],"loss_changes":[5.427124E4,1.1566824E4,5.8697188E3,2.0508633E3,2.8241602E3,1.726377E3,1.4877695E3,0E0,0E0,0E0,0E0,0E0,0E0,0E0,0E0],"parents":[2147483647,0,0,1,1,2,2,3,3,4,4,5,5,6,6],"right_children":[2,4,6,8,10,12,14,-1,-1,-1,-1,-1,-1,-1,-1],"split_conditions":[1.5071428E1,7.2E0,2.3545454E1,2.6E0,1.28E1,1.9E1,2.975E1,-1.2956488E-1,-7.154935E-2,-2.6428971E-2,2.2731883E-2,5.5122048E-2,1.0636365E-1,1.56835E-1,2.661932E-1],"split_indices":[2,0,2,0,0,0,2,0,0,0,0,0,0,0,0],"split_type":[0,0,0,0,0,0,0,0,0,0,0,0,0,0,0],"sum_hessian":[3.1808E4,2.2979E4,8.829E3,9.271E3,1.3708E4,6.59E3,2.239E3,1.924E3,7.347E3,9.488E3,4.22E3,3.188E3,3.402E3,1.863E3,3.76E2],"tree_param":{"num_deleted":"0","num_feature":"8","num_nodes":"15","size_leaf_vector":"1"}},{"base_weights":[2.7762767E-4,-7.70993E-1,2.0062447E0,-1.3152977E0,6.610962E-2,1.6068872E0,3.5027566E0,-1.1408844E-1,-5.3979207E-2,-2.707957E-3,6.1348956E-2,7.0704825E-2,1.376023E-1,1.8050781E-1,-1.7013602E-1],"categories":[],"categories_nodes":[],"categories_segments":[],"categories_sizes":[],"default_left":[0,0,0,0,0,0,0,0,0,0,0,0,0,0,0],"id":30,"left_children":[1,3,5,7,9,11,13,-1,-1,-1,-1,-1,-1,-1,-1],"loss_changes":[4.921463E4,1.046885E4,5.273949E3,3.1693398E3,1.2641528E3,1.5360195E3,1.391748E3,0E0,0E0,0E0,0E0,0E0,0E0,0E0,0E0],"parents":[2147483647,0,0,1,1,2,2,3,3,4,4,5,5,6,6],"right_children":[2,4,6,8,10,12,14,-1,-1,-1,-1,-1,-1,-1,-1],"split_conditions":[1.58E1,9.277311E0,2.4727272E1,3.6E0,1.6544117E1,2.35E1,1.2E1,-1.1408844E-1,-5.3979207E-2,-2.707957E-3,6.1348956E-2,7.0704825E-2,1.376023E-1,1.8050781E-1,-1.7013602E-1],"split_indices":[0,2,2,1,2,1,5,0,0,0,0,0,0,0,0],"split_type":[0,0,0,0,0,0,0,0,0,0,0,0,0,0,0],"sum_hessian":[3.1808E4,2.2975E4,8.833E3,1.3922E4,9.053E3,6.974E3,1.859E3,2.728E3,1.1194E4,8.204E3,8.49E2,5.971E3,1.003E3,1.831E3,2.8E1],"tree_param":{"num_deleted":"0","num_feature":"8","num_nodes":"15","size_leaf_vector":"1"}},{"base_weights":[2.6700585E-4,-6.731638E-1,2.085249E0,-1.3787038E0,-2.277476E-2,1.7745274E0,3.6539412E0,-1.1528607E-1,-5.765107E-2,-2.4381176E-2,1.6621752E-2,6.6576324E-2,1.1103417E-1,1.5569825E-1,2.592531E-1],"categories":[],"categories_nodes":[],"categories_segments":[],"categories_sizes":[],"default_left":[0,0,0,0,0,0,0,0,0,0,0,0,0,0,0],"id":31,"left_children":[1,3,5,7,9,11,13,-1,-1,-1,-1,-1,-1,-1,-1],"loss_changes":[4.466413E4,1.1033173E4,3.7788672E3,2.4101797E3,2.0661292E3,1.2785879E3,1.0445977E3,0E0,0E0,0E0,0E0,0E0,0E0,0E0,0E0],"parents":[2147483647,0,0,1,1,2,2,3,3,4,4,5,5,6,6],"right_children":[2,4,6,8,10,12,14,-1,-1,-1,-1,-1,-1,-1,-1],"split_conditions":[1.67E1,8.4E0,2.7E1,1.4E0,1.12E1,2.0241758E1,2.975E1,-1.1528607E-1,-5.765107E-2,-2.4381176E-2,1.6621752E-2,6.6576324E-2,1.1103417E-1,1.5569825E-1,2.592531E-1],"split_indices":[1,0,0,3,1,2,2,0,0,0,0,0,0,0,0],"split_type":[0,0,0,0,0,0,0,0,0,0,0,0,0,0,0],"sum_hessian":[3.1808E4,2.4043E4,7.765E3,1.1532E4,1.2511E4,6.483E3,1.282E3,2.256E3,9.276E3,5.419E3,7.092E3,3.255E3,3.228E3,9.5E2,3.32E2],"tree_param":{"num_deleted":"0","num_feature":"8","num_nodes":"15","size_leaf_vector":"1"}},{"base_weights":[2.6673632E-4,-8.7533844E-1,1.457604E0,-1.5931767E0,-4.561912E-1,9.28017E-1,2.6201508E0,-6.8036206E-2,-1.2147073E-1,-3.6591597E-2,-2.2469205E-3,2.271841E-2,7.2530724E-2,1.1814864E-1,2.227834E-1],"categories":[],"categories_nodes":[],"categories_segments":[],"categories_sizes":[],"default_left":[0,0,0,0,0,0,0,0,0,0,0,0,0,0,0],"id":32,"left_children":[1,3,5,7,9,11,13,-1,-1,-1,-1,-1,-1,-1,-1],"loss_changes":[4.059122E4,5.9780596E3,7.348049E3,1.4205684E3,1.42227E3,2.0300581E3,1.7530664E3,0E0,0E0,0E0,0E0,0E0,0E0,0E0,0E0],"parents":[2147483647,0,0,1,1,2,2,3,3,4,4,5,5,6,6],"right_children":[2,4,6,8,10,12,14,-1,-1,-1,-1,-1,-1,-1,-1],"split_conditions":[1.2583333E1,6.2105265E0,2.2E1,3E0,1.04E1,1.6544117E1,3.08E1,-6.8036206E-2,-1.2147073E-1,-3.6591597E-2,-2.2469205E-3,2.271841E-2,7.2530724E-2,1.1814864E-1,2.227834E-1],"split_indices":[2,2,0,5,0,2,0,0,0,0,0,0,0,0,0],"split_type":[0,0,0,0,0,0,0,0,0,0,0,0,0,0,0],"sum_hessian":[3.1808E4,1.987E4,1.1938E4,7.324E3,1.2546E4,8.203E3,3.735E3,5.733E3,1.591E3,7.511E3,5.035E3,4.304E3,3.899E3,3.278E3,4.57E2],"tree_param":{"num_deleted":"0","num_feature":"8","num_nodes":"15","size_leaf_vector":"1"}},{"base_weights":[2.5986452E-4,-8.70236E-1,1.3267231E0,-1.5155727E0,-4.6302512E-1,6.5804267E-1,2.2134857E0,-1.262842E-1,-6.69164E-2,-3.7301075E-2,-1.972608E-3,6.2400955E-3,4.8520286E-2,9.5385395E-2,1.7829104E-1],"categories":[],"categories_nodes":[],"categories_segments":[],"categories_sizes":[],"default_left":[0,0,0,0,0,0,0,0,0,0,0,0,0,0,0],"id":33,"left_children":[1,3,5,7,9,11,13,-1,-1,-1,-1,-1,-1,-1,-1],"loss_changes":[3.6730395E4,5.0464062E3,7.4722188E3,1.3268652E3,1.411675E3,1.1969797E3,2.2336172E3,0E0,0E0,0E0,0E0,0E0,0E0,0E0,0E0],"parents":[2147483647,0,0,1,1,2,2,3,3,4,4,5,5,6,6],"right_children":[2,4,6,8,10,12,14,-1,-1,-1,-1,-1,-1,-1,-1],"split_conditions":[1.28E1,6.2E0,1.9043478E1,1.8E0,9.875E0,2.4E0,2.6675438E1,-1.262842E-1,-6.69164E-2,-3.7301075E-2,-1.972608E-3,6.2400955E-3,4.8520286E-2,9.5385395E-2,1.7829104E-1],"split_indices":[0,0,2,0,2,4,2,0,0,0,0,0,0,0,0],"split_type":[0,0,0,0,0,0,0,0,0,0,0,0,0,0,0],"sum_hessian":[3.1808E4,1.9205E4,1.2603E4,7.429E3,1.1776E4,7.186E3,5.417E3,1.107E3,6.322E3,7.059E3,4.717E3,2.655E3,4.531E3,4.42E3,9.97E2],"tree_param":{"num_deleted":"0","num_feature":"8","num_nodes":"15","size_leaf_vector":"1"}},{"base_weights":[2.499268E-4,-6.073179E-1,1.7279568E0,-1.2711555E0,-1.1150107E-1,1.3885216E0,2.8988917E0,-5.353583E-2,-1.0641476E-1,-2.1297358E-2,1.612499E-2,6.1089218E-2,1.1432115E-1,1.500506E-1,-1.8243669E-1],"categories":[],"categories_nodes":[],"categories_segments":[],"categories_sizes":[],"default_left":[0,0,0,0,0,0,0,0,0,0,0,0,0,0,0],"id":34,"left_children":[1,3,5,7,9,11,13,-1,-1,-1,-1,-1,-1,-1,-1],"loss_changes":[3.339093E4,7.745882E3,3.2853262E3,1.726415E3,1.8387957E3,9.580674E2,1.25396E3,0E0,0E0,0E0,0E0,0E0,0E0,0E0,0E0],"parents":[2147483647,0,0,1,1,2,2,3,3,4,4,5,5,6,6],"right_children":[2,4,6,8,10,12,14,-1,-1,-1,-1,-1,-1,-1,-1],"split_conditions":[1.64E1,7.53125E0,2.4727272E1,3E0,1.1641026E1,2.35E1,1.2E1,-5.353583E-2,-1.0641476E-1,-2.1297358E-2,1.612499E-2,6.1089218E-2,1.1432115E-1,1.500506E-1,-1.8243669E-1],"split_indices":[0,2,2,5,2,1,5,0,0,0,0,0,0,0,0],"split_type":[0,0,0,0,0,0,0,0,0,0,0,0,0,0,0],"sum_hessian":[3.1808E4,2.3533E4,8.275E3,1.0061E4,1.3472E4,6.417E3,1.858E3,8.156E3,1.905E3,7.812E3,5.66E3,5.414E3,1.003E3,1.83E3,2.8E1],"tree_param":{"num_deleted":"0","num_feature":"8","num_nodes":"15","size_leaf_vector":"1"}},{"base_weights":[2.3685861E-4,-5.5394244E-1,1.716009E0,-1.1374166E0,-1.607786E-2,1.4525307E0,3.046233E0,-9.819593E-2,-4.6810724E-2,-1.963911E-2,1.3588843E-2,7.588332E-2,-3.684464E-2,1.2817998E-1,2.2077084E-1],"categories":[],"categories_nodes":[],"categories_segments":[],"categories_sizes":[],"default_left":[0,0,0,0,0,0,0,0,0,0,0,0,0,0,0],"id":35,"left_children":[1,3,5,7,9,11,13,-1,-1,-1,-1,-1,-1,-1,-1],"loss_changes":[3.0246393E4,7.545713E3,2.7174434E3,1.9160312E3,1.3568594E3,9.257988E2,8.365039E2,0E0,0E0,0E0,0E0,0E0,0E0,0E0,0E0],"parents":[2147483647,0,0,1,1,2,2,3,3,4,4,5,5,6,6],"right_children":[2,4,6,8,10,12,14,-1,-1,-1,-1,-1,-1,-1,-1],"split_conditions":[1.67E1,8.4E0,2.7E1,1.4E0,1.12E1,8E0,2.975E1,-9.819593E-2,-4.6810724E-2,-1.963911E-2,1.3588843E-2,7.588332E-2,-3.684464E-2,1.2817998E-1,2.2077084E-1],"split_indices":[1,0,0,3,1,5,2,0,0,0,0,0,0,0,0],"split_type":[0,0,0,0,0,0,0,0,0,0,0,0,0,0,0],"sum_hessian":[3.1808E4,2.4043E4,7.765E3,1.1532E4,1.2511E4,6.483E3,1.282E3,2.256E3,9.276E3,5.419E3,7.092E3,6.296E3,1.87E2,9.5E2,3.32E2],"tree_param":{"num_deleted":"0","num_feature":"8","num_nodes":"15","size_leaf_vector":"1"}},{"base_weights":[2.3238732E-4,-7.5146514E-1,1.1514075E0,-1.4326802E0,-4.443096E-1,5.71021E-1,1.9044578E0,-1.17728285E-1,-6.3197635E-2,-1.6707042E-2,-6.537641E-2,1.349269E-2,5.145743E-2,8.2119964E-2,1.5818563E-1],"categories":[],"categories_nodes":[],"categories_segments":[],"categories_sizes":[],"default_left":[0,0,0,0,0,0,0,0,0,0,0,0,0,0,0],"id":36,"left_children":[1,3,5,7,9,11,13,-1,-1,-1,-1,-1,-1,-1,-1],"loss_changes":[2.7526318E4,4.02596E3,5.4910117E3,9.271963E2,1.2610608E3,9.790547E2,1.7995645E3,0E0,0E0,0E0,0E0,0E0,0E0,0E0,0E0],"parents":[2147483647,0,0,1,1,2,2,3,3,4,4,5,5,6,6],"right_children":[2,4,6,8,10,12,14,-1,-1,-1,-1,-1,-1,-1,-1],"split_conditions":[1.2285714E1,5.4E0,1.9043478E1,2E0,3E0,1.64E1,2.82E1,-1.17728285E-1,-6.3197635E-2,-1.6707042E-2,-6.537641E-2,1.349269E-2,5.145743E-2,8.2119964E-2,1.5818563E-1],"split_indices":[2,0,2,1,5,0,0,0,0,0,0,0,0,0,0],"split_type":[0,0,0,0,0,0,0,0,0,0,0,0,0,0,0],"sum_hessian":[3.1808E4,1.9243E4,1.2565E4,5.979E3,1.3264E4,7.097E3,5.468E3,9.23E2,5.056E3,1.1764E4,1.5E3,4.283E3,2.814E3,4.528E3,9.4E2],"tree_param":{"num_deleted":"0","num_feature":"8","num_nodes":"15","size_leaf_vector":"1"}},{"base_weights":[2.2200764E-4,-7.177301E-1,1.0942388E0,-1.329078E0,-4.095825E-1,6.6322327E-1,2.0352507E0,-5.6458026E-2,-1.0094037E-1,-3.2618124E-2,-1.803386E-3,4.9381754E-3,4.647904E-2,9.235572E-2,1.9115691E-1],"categories":[],"categories_nodes":[],"categories_segments":[],"categories_sizes":[],"default_left":[0,0,0,0,0,0,0,0,0,0,0,0,0,0,0],"id":37,"left_children":[1,3,5,7,9,11,13,-1,-1,-1,-1,-1,-1,-1,-1],"loss_changes":[2.4985217E4,3.617585E3,5.110717E3,8.851738E2,1.158075E3,1.2998176E3,1.3246133E3,0E0,0E0,0E0,0E0,0E0,0E0,0E0,0E0],"parents":[2147483647,0,0,1,1,2,2,3,3,4,4,5,5,6,6],"right_children":[2,4,6,8,10,12,14,-1,-1,-1,-1,-1,-1,-1,-1],"split_conditions":[1.28E1,5.8E0,2.102469E1,3E0,9.8E0,2.4E0,3.03E1,-5.6458026E-2,-1.0094037E-1,-3.2618124E-2,-1.803386E-3,4.9381754E-3,4.647904E-2,9.235572E-2,1.9115691E-1],"split_indices":[0,2,2,5,2,4,1,0,0,0,0,0,0,0,0],"split_type":[0,0,0,0,0,0,0,0,0,0,0,0,0,0,0],"sum_hessian":[3.1808E4,1.9205E4,1.2603E4,6.435E3,1.277E4,8.645E3,3.958E3,4.991E3,1.444E3,7.739E3,5.031E3,2.772E3,5.873E3,3.583E3,3.75E2],"tree_param":{"num_deleted":"0","num_feature":"8","num_nodes":"15","size_leaf_vector":"1"}},{"base_weights":[2.1552443E-4,-5.178918E-1,1.3756049E0,-1.0959231E0,-1.3046694E-1,1.0937505E0,2.4071765E0,-9.997644E-2,-4.7541004E-2,-3.2350875E-3,-7.4312955E-2,3.739929E-2,7.265572E-2,1.2494381E-1,-1.6455953E-1],"categories":[],"categories_nodes":[],"categories_segments":[],"categories_sizes":[],"default_left":[0,0,0,0,0,0,0,0,0,0,0,0,0,0,0],"id":38,"left_children":[1,3,5,7,9,11,13,-1,-1,-1,-1,-1,-1,-1,-1],"loss_changes":[2.2667783E4,5.1743E3,2.52808E3,1.2138066E3,1.2334868E3,8.485713E2,9.8380176E2,0E0,0E0,0E0,0E0,0E0,0E0,0E0,0E0],"parents":[2147483647,0,0,1,1,2,2,3,3,4,4,5,5,6,6],"right_children":[2,4,6,8,10,12,14,-1,-1,-1,-1,-1,-1,-1,-1],"split_conditions":[1.5222222E1,7.2E0,2.4727272E1,2.4E0,5E0,1.96E1,1.2E1,-9.997644E-2,-4.7541004E-2,-3.2350875E-3,-7.4312955E-2,3.739929E-2,7.265572E-2,1.2494381E-1,-1.6455953E-1],"split_indices":[2,0,2,1,5,0,5,0,0,0,0,0,0,0,0],"split_type":[0,0,0,0,0,0,0,0,0,0,0,0,0,0,0],"sum_hessian":[3.1808E4,2.3105E4,8.703E3,9.271E3,1.3834E4,6.837E3,1.866E3,1.281E3,7.99E3,1.3195E4,6.39E2,3.486E3,3.351E3,1.837E3,2.9E1],"tree_param":{"num_deleted":"0","num_feature":"8","num_nodes":"15","size_leaf_vector":"1"}},{"base_weights":[1.9967201E-4,-6.5151983E-1,9.982651E-1,-1.2437723E0,-3.8447717E-1,6.2286043E-1,1.8843505E0,-9.961148E-2,-5.366681E-2,-1.4193407E-2,-5.864027E-2,1.5069433E-2,5.1449586E-2,8.405534E-2,1.6683346E-1],"categories":[],"categories_nodes":[],"categories_segments":[],"categories_sizes":[],"default_left":[0,0,0,0,0,0,0,0,0,0,0,0,0,0,0],"id":39,"left_children":[1,3,5,7,9,11,13,-1,-1,-1,-1,-1,-1,-1,-1],"loss_changes":[2.069109E4,3.0430894E3,4.178789E3,7.606953E2,1.051753E3,1.1522708E3,1.0980488E3,0E0,0E0,0E0,0E0,0E0,0E0,0E0,0E0],"parents":[2147483647,0,0,1,1,2,2,3,3,4,4,5,5,6,6],"right_children":[2,4,6,8,10,12,14,-1,-1,-1,-1,-1,-1,-1,-1],"split_conditions":[1.2285714E1,5.4E0,2.2E1,1.8E0,3E0,1.6544117E1,3.08E1,-9.961148E-2,-5.366681E-2,-1.4193407E-2,-5.864027E-2,1.5069433E-2,5.1449586E-2,8.405534E-2,1.6683346E-1],"split_indices":[2,0,0,0,5,2,0,0,0,0,0,0,0,0,0],"split_type":[0,0,0,0,0,0,0,0,0,0,0,0,0,0,0],"sum_hessian":[3.1808E4,1.9243E4,1.2565E4,5.979E3,1.3264E4,8.827E3,3.738E3,1.107E3,4.872E3,1.1764E4,1.5E3,4.928E3,3.899E3,3.281E3,4.57E2],"tree_param":{"num_deleted":"0","num_feature":"8","num_nodes":"15","size_leaf_vector":"1"}},{"base_weights":[1.9274055E-4,-6.2416655E-1,9.515926E-1,-1.0744466E0,-3.0157974E-1,5.8221096E-1,1.7580392E0,-4.5001697E-2,-8.68338E-2,-9.86286E-2,-1.28079E-2,3.5648153E-3,4.1165233E-2,7.9304434E-2,1.6937958E-1],"categories":[],"categories_nodes":[],"categories_segments":[],"categories_sizes":[],"default_left":[0,0,0,0,0,0,0,0,0,0,0,0,0,0,0],"id":40,"left_children":[1,3,5,7,9,11,13,-1,-1,-1,-1,-1,-1,-1,-1],"loss_changes":[1.8895627E4,2.7894326E3,3.753539E3,9.2429395E2,8.4888477E2,1.0649407E3,1.1039482E3,0E0,0E0,0E0,0E0,0E0,0E0,0E0,0E0],"parents":[2147483647,0,0,1,1,2,2,3,3,4,4,5,5,6,6],"right_children":[2,4,6,8,10,12,14,-1,-1,-1,-1,-1,-1,-1,-1],"split_conditions":[1.28E1,6.5833335E0,2.102469E1,3E0,1.2E0,2.4E0,2.975E1,-4.5001697E-2,-8.68338E-2,-9.86286E-2,-1.28079E-2,3.5648153E-3,4.1165233E-2,7.9304434E-2,1.6937958E-1],"split_indices":[0,2,2,5,3,4,2,0,0,0,0,0,0,0,0],"split_type":[0,0,0,0,0,0,0,0,0,0,0,0,0,0,0],"sum_hessian":[3.1808E4,1.9205E4,1.2603E4,8.015E3,1.119E4,8.645E3,3.958E3,6.346E3,1.669E3,2.95E2,1.0895E4,2.772E3,5.873E3,3.582E3,3.76E2],"tree_param":{"num_deleted":"0","num_feature":"8","num_nodes":"15","size_leaf_vector":"1"}},{"base_weights":[1.8478256E-4,-6.375414E-1,8.4600914E-1,-8.995366E-1,-1.5777838E-1,3.8287646E-1,1.4585505E0,-3.65667E-2,-8.317082E-2,-5.3916965E-3,-1.22138515E-1,-1.9842818E-2,2.4452997E-2,6.209394E-2,1.2651785E-1],"categories":[],"categories_nodes":[],"categories_segments":[],"categories_sizes":[],"default_left":[0,0,0,0,0,0,0,0,0,0,0,0,0,0,0],"id":41,"left_children":[1,3,5,7,9,11,13,-1,-1,-1,-1,-1,-1,-1,-1],"loss_changes":[1.7158451E4,2.2794746E3,3.8785898E3,1.5059307E3,7.309206E2,6.449994E2,1.3639971E3,0E0,0E0,0E0,0E0,0E0,0E0,0E0,0E0],"parents":[2147483647,0,0,1,1,2,2,3,3,4,4,5,5,6,6],"right_children":[2,4,6,8,10,12,14,-1,-1,-1,-1,-1,-1,-1,-1],"split_conditions":[1.1641026E1,2E0,1.9E1,3E0,1.3E1,1.01E1,2.6675438E1,-3.65667E-2,-8.317082E-2,-5.3916965E-3,-1.22138515E-1,-1.9842818E-2,2.4452997E-2,6.209394E-2,1.2651785E-1],"split_indices":[2,4,0,5,5,7,2,0,0,0,0,0,0,0,0],"split_type":[0,0,0,0,0,0,0,0,0,0,0,0,0,0,0],"sum_hessian":[3.1808E4,1.8135E4,1.3673E4,1.1729E4,6.406E3,7.787E3,5.886E3,9.614E3,2.115E3,6.27E3,1.36E2,9.33E2,6.854E3,4.898E3,9.88E2],"tree_param":{"num_deleted":"0","num_feature":"8","num_nodes":"15","size_leaf_vector":"1"}},{"base_weights":[1.7394878E-4,-5.671414E-1,8.646502E-1,-1.0639153E0,-3.1674573E-1,4.3380094E-1,1.436014E0,-9.152057E-2,-4.6178784E-2,-8.655456E-2,-1.34314345E-2,2.5421819E-2,-6.4967625E-2,6.1280217E-2,1.2178894E-1],"categories":[],"categories_nodes":[],"categories_segments":[],"categories_sizes":[],"default_left":[0,0,0,0,0,0,0,0,0,0,0,0,0,0,0],"id":42,"left_children":[1,3,5,7,9,11,13,-1,-1,-1,-1,-1,-1,-1,-1],"loss_changes":[1.5600599E4,2.3886978E3,3.102125E3,6.906279E2,8.686543E2,9.303325E2,1.1367461E3,0E0,0E0,0E0,0E0,0E0,0E0,0E0,0E0],"parents":[2147483647,0,0,1,1,2,2,3,3,4,4,5,5,6,6],"right_children":[2,4,6,8,10,12,14,-1,-1,-1,-1,-1,-1,-1,-1],"split_conditions":[1.28E1,5.8E0,1.9043478E1,2.5517242E0,1.2E0,5E0,2.82E1,-9.152057E-2,-4.6178784E-2,-8.655456E-2,-1.34314345E-2,2.5421819E-2,-6.4967625E-2,6.1280217E-2,1.2178894E-1],"split_indices":[0,2,2,2,3,5,0,0,0,0,0,0,0,0,0],"split_type":[0,0,0,0,0,0,0,0,0,0,0,0,0,0,0],"sum_hessian":[3.1808E4,1.9205E4,1.2603E4,6.435E3,1.277E4,7.186E3,5.417E3,9.94E2,5.441E3,4.19E2,1.2351E4,6.89E3,2.96E2,4.477E3,9.4E2],"tree_param":{"num_deleted":"0","num_feature":"8","num_nodes":"15","size_leaf_vector":"1"}},{"base_weights":[1.6250588E-4,-3.9642623E-1,1.1279198E0,-8.429943E-1,-6.288778E-2,9.669661E-1,2.3033977E0,-5.0825633E-2,-1.3369395E-2,-1.1916588E-2,1.5181019E-2,5.140516E-2,-6.2413156E-2,6.6888236E-2,1.4522694E-1],"categories":[],"categories_nodes":[],"categories_segments":[],"categories_sizes":[],"default_left":[0,0,0,0,0,0,0,0,0,0,0,0,0,0,0],"id":43,"left_children":[1,3,5,7,9,11,13,-1,-1,-1,-1,-1,-1,-1,-1],"loss_changes":[1.4227209E4,3.50528E3,1.5635713E3,1.0047041E3,8.664085E2,9.873696E2,5.742744E2,0E0,0E0,0E0,0E0,0E0,0E0,0E0,0E0],"parents":[2147483647,0,0,1,1,2,2,3,3,4,4,5,5,6,6],"right_children":[2,4,6,8,10,12,14,-1,-1,-1,-1,-1,-1,-1,-1],"split_conditions":[1.64E1,7.53125E0,2.6675438E1,2E0,3E0,8E0,5.8E0,-5.0825633E-2,-1.3369395E-2,-1.1916588E-2,1.5181019E-2,5.140516E-2,-6.2413156E-2,6.6888236E-2,1.4522694E-1],"split_indices":[0,2,2,4,4,5,4,0,0,0,0,0,0,0,0],"split_type":[0,0,0,0,0,0,0,0,0,0,0,0,0,0,0],"sum_hessian":[3.1808E4,2.3533E4,8.275E3,1.0061E4,1.3472E4,7.28E3,9.95E2,7.73E3,2.331E3,9.111E3,4.361E3,7.085E3,1.95E2,3.83E2,6.12E2],"tree_param":{"num_deleted":"0","num_feature":"8","num_nodes":"15","size_leaf_vector":"1"}},{"base_weights":[1.587872E-4,-5.549964E-1,7.3646814E-1,-4.1824543E-1,-1.2972587E0,4.5079437E-1,1.4937454E0,-3.78278E-2,-8.908599E-3,-9.211647E-2,-5.0328016E-2,1.0712632E-2,4.082347E-2,6.617495E-2,1.3563453E-1],"categories":[],"categories_nodes":[],"categories_segments":[],"categories_sizes":[],"default_left":[0,0,0,0,0,0,0,0,0,0,0,0,0,0,0],"id":44,"left_children":[1,3,5,7,9,11,13,-1,-1,-1,-1,-1,-1,-1,-1],"loss_changes":[1.3002843E4,1.840353E3,2.9574814E3,1.2438215E3,4.4513623E2,8.5874426E2,7.735762E2,0E0,0E0,0E0,0E0,0E0,0E0,0E0,0E0],"parents":[2147483647,0,0,1,1,2,2,3,3,4,4,5,5,6,6],"right_children":[2,4,6,8,10,12,14,-1,-1,-1,-1,-1,-1,-1,-1],"split_conditions":[1.1641026E1,3E0,2.2E1,6.6E0,1.8E0,1.6544117E1,3.08E1,-3.78278E-2,-8.908599E-3,-9.211647E-2,-5.0328016E-2,1.0712632E-2,4.082347E-2,6.617495E-2,1.3563453E-1],"split_indices":[2,5,0,0,3,2,0,0,0,0,0,0,0,0,0],"split_type":[0,0,0,0,0,0,0,0,0,0,0,0,0,0,0],"sum_hessian":[3.1808E4,1.8135E4,1.3673E4,1.5315E4,2.82E3,9.929E3,3.744E3,6.356E3,8.959E3,9.79E2,1.841E3,6.03E3,3.899E3,3.287E3,4.57E2],"tree_param":{"num_deleted":"0","num_feature":"8","num_nodes":"15","size_leaf_vector":"1"}},{"base_weights":[1.5278682E-4,-5.27257E-1,6.9966316E-1,-1.1221548E0,-3.6690962E-1,4.2825994E-1,1.4191115E0,-1.00046806E-1,-5.0306745E-2,-2.91513E-2,-3.247613E-3,1.7037804E-3,3.1971462E-2,6.370004E-2,1.3560526E-1],"categories":[],"categories_nodes":[],"categories_segments":[],"categories_sizes":[],"default_left":[0,0,0,0,0,0,0,0,0,0,0,0,0,0,0],"id":45,"left_children":[1,3,5,7,9,11,13,-1,-1,-1,-1,-1,-1,-1,-1],"loss_changes":[1.173562E4,1.7295874E3,2.6693853E3,3.9051807E2,9.32302E2,8.265475E2,6.992085E2,0E0,0E0,0E0,0E0,0E0,0E0,0E0,0E0],"parents":[2147483647,0,0,1,1,2,2,3,3,4,4,5,5,6,6],"right_children":[2,4,6,8,10,12,14,-1,-1,-1,-1,-1,-1,-1,-1],"split_conditions":[1.1641026E1,4.647059E0,2.2E1,1.4E0,2E0,2.4E0,3.03E1,-1.00046806E-1,-5.0306745E-2,-2.91513E-2,-3.247613E-3,1.7037804E-3,3.1971462E-2,6.370004E-2,1.3560526E-1],"split_indices":[2,2,0,1,4,4,1,0,0,0,0,0,0,0,0],"split_type":[0,0,0,0,0,0,0,0,0,0,0,0,0,0,0],"sum_hessian":[3.1808E4,1.8135E4,1.3673E4,3.849E3,1.4286E4,9.929E3,3.744E3,4.47E2,3.402E3,8.326E3,5.96E3,3.464E3,6.465E3,3.368E3,3.76E2],"tree_param":{"num_deleted":"0","num_feature":"8","num_nodes":"15","size_leaf_vector":"1"}},{"base_weights":[1.4667687E-4,-4.6976626E-1,7.1620095E-1,-1.0639461E0,-3.208232E-1,4.3540838E-1,1.3292387E0,-9.505563E-2,-4.766946E-2,-2.4120813E-2,5.436221E-4,2.4991674E-2,-5.1380843E-2,5.715127E-2,1.2633125E-1],"categories":[],"categories_nodes":[],"categories_segments":[],"categories_sizes":[],"default_left":[0,0,0,0,0,0,0,0,0,0,0,0,0,0,0],"id":46,"left_children":[1,3,5,7,9,11,13,-1,-1,-1,-1,-1,-1,-1,-1],"loss_changes":[1.0703528E4,1.6993696E3,2.1690288E3,3.5443018E2,8.2318945E2,8.154474E2,8.798462E2,0E0,0E0,0E0,0E0,0E0,0E0,0E0,0E0],"parents":[2147483647,0,0,1,1,2,2,3,3,4,4,5,5,6,6],"right_children":[2,4,6,8,10,12,14,-1,-1,-1,-1,-1,-1,-1,-1],"split_conditions":[1.28E1,4.647059E0,2.102469E1,1.4E0,9.8E0,5E0,1E1,-9.505563E-2,-4.766946E-2,-2.4120813E-2,5.436221E-4,2.4991674E-2,-5.1380843E-2,5.715127E-2,1.2633125E-1],"split_indices":[0,2,2,1,2,5,3,0,0,0,0,0,0,0,0],"split_type":[0,0,0,0,0,0,0,0,0,0,0,0,0,0,0],"sum_hessian":[3.1808E4,1.9205E4,1.2603E4,3.848E3,1.5357E4,8.645E3,3.958E3,4.47E2,3.401E3,1.0326E4,5.031E3,8.281E3,3.64E2,3.427E3,5.31E2],"tree_param":{"num_deleted":"0","num_feature":"8","num_nodes":"15","size_leaf_vector":"1"}},{"base_weights":[1.3898477E-4,-3.2387912E-1,9.4827783E-1,-5.940368E-1,7.334107E-2,7.8886086E-1,1.8298347E0,-2.3387719E-2,-6.034838E-2,-1.0024708E-2,1.7326707E-2,4.195185E-2,-5.3406727E-2,9.64031E-2,-1.8480125E-1],"categories":[],"categories_nodes":[],"categories_segments":[],"categories_sizes":[],"default_left":[0,0,0,0,0,0,0,0,0,0,0,0,0,0,0],"id":47,"left_children":[1,3,5,7,9,11,13,-1,-1,-1,-1,-1,-1,-1,-1],"loss_changes":[9.772481E3,2.5441985E3,1.1371719E3,1.0916611E3,7.180947E2,6.403696E2,6.801865E2,0E0,0E0,0E0,0E0,0E0,0E0,0E0,0E0],"parents":[2147483647,0,0,1,1,2,2,3,3,4,4,5,5,6,6],"right_children":[2,4,6,8,10,12,14,-1,-1,-1,-1,-1,-1,-1,-1],"split_conditions":[1.66E1,9.8E0,2.6112677E1,3E0,2.4E0,8E0,1.2E1,-2.3387719E-2,-6.034838E-2,-1.0024708E-2,1.7326707E-2,4.195185E-2,-5.3406727E-2,9.64031E-2,-1.8480125E-1],"split_indices":[0,0,2,5,4,5,5,0,0,0,0,0,0,0,0],"split_type":[0,0,0,0,0,0,0,0,0,0,0,0,0,0,0],"sum_hessian":[3.1808E4,2.3707E4,8.101E3,1.411E4,9.597E3,6.862E3,1.239E3,1.1701E4,2.409E3,4.793E3,4.804E3,6.682E3,1.8E2,1.218E3,2.1E1],"tree_param":{"num_deleted":"0","num_feature":"8","num_nodes":"15","size_leaf_vector":"1"}},{"base_weights":[1.2661034E-4,-2.996336E-1,9.2820203E-1,-5.473086E-1,1.0386637E-1,6.4335155E-1,1.4225996E0,-3.6884394E-2,-6.105513E-3,-4.3420694E-3,1.4712988E-2,3.4605574E-2,-8.712659E-2,5.6776173E-2,1.2423774E-1],"categories":[],"categories_nodes":[],"categories_segments":[],"categories_sizes":[],"default_left":[0,0,0,0,0,0,0,0,0,0,0,0,0,0,0],"id":48,"left_children":[1,3,5,7,9,11,13,-1,-1,-1,-1,-1,-1,-1,-1],"loss_changes":[8.849543E3,2.4029392E3,1.0927656E3,1.2059678E3,3.3211224E2,5.746233E2,8.6254004E2,0E0,0E0,0E0,0E0,0E0,0E0,0E0,0E0],"parents":[2147483647,0,0,1,1,2,2,3,3,4,4,5,5,6,6],"right_children":[2,4,6,8,10,12,14,-1,-1,-1,-1,-1,-1,-1,-1],"split_conditions":[1.67E1,9.8E0,5.6E0,2E0,1E0,1.2E1,2.75E1,-3.6884394E-2,-6.105513E-3,-4.3420694E-3,1.4712988E-2,3.4605574E-2,-8.712659E-2,5.6776173E-2,1.2423774E-1],"split_indices":[1,2,4,4,6,5,1,0,0,0,0,0,0,0,0],"split_type":[0,0,0,0,0,0,0,0,0,0,0,0,0,0,0],"sum_hessian":[3.1808E4,2.4043E4,7.765E3,1.4898E4,9.145E3,4.928E3,2.837E3,1.029E4,4.608E3,4.569E3,4.576E3,4.83E3,9.8E1,2.235E3,6.02E2],"tree_param":{"num_deleted":"0","num_feature":"8","num_nodes":"15","size_leaf_vector":"1"}},{"base_weights":[1.2329427E-4,-2.93473E-1,8.5924214E-1,-5.401558E-1,6.923125E-2,7.109655E-1,1.6467614E0,-5.7374448E-2,-2.1058775E-2,-9.236455E-3,1.612979E-2,3.7419062E-2,-9.587437E-2,6.1484303E-2,1.24146044E-1],"categories":[],"categories_nodes":[],"categories_segments":[],"categories_sizes":[],"default_left":[0,0,0,0,0,0,0,0,0,0,0,0,0,0,0],"id":49,"left_children":[1,3,5,7,9,11,13,-1,-1,-1,-1,-1,-1,-1,-1],"loss_changes":[8.023567E3,2.1212612E3,9.449053E2,1.0191875E3,6.176386E2,6.721504E2,4.4438208E2,0E0,0E0,0E0,0E0,0E0,0E0,0E0,0E0],"parents":[2147483647,0,0,1,1,2,2,3,3,4,4,5,5,6,6],"right_children":[2,4,6,8,10,12,14,-1,-1,-1,-1,-1,-1,-1,-1],"split_conditions":[1.66E1,9.8E0,2.7E1,1.4E0,2.4E0,2.2E1,7.6E0,-5.7374448E-2,-2.1058775E-2,-9.236455E-3,1.612979E-2,3.7419062E-2,-9.587437E-2,6.1484303E-2,1.24146044E-1],"split_indices":[0,0,0,3,4,5,3,0,0,0,0,0,0,0,0],"split_type":[0,0,0,0,0,0,0,0,0,0,0,0,0,0,0],"sum_hessian":[3.1808E4,2.3707E4,8.101E3,1.411E4,9.597E3,6.819E3,1.282E3,2.31E3,1.18E4,4.793E3,4.804E3,6.724E3,9.5E1,8.57E2,4.25E2],"tree_param":{"num_deleted":"0","num_feature":"8","num_nodes":"15","size_leaf_vector":"1"}},{"base_weights":[1.19035525E-4,-4.1633368E-1,5.5246556E-1,-2.9708347E-1,-1.0636289E0,3.351031E-1,1.1286622E0,-1.9400703E-2,1.3642015E-2,-7.555691E-2,-4.1248146E-2,-2.3120437E-2,2.0961467E-2,5.3310942E-2,1.7982411E-1],"categories":[],"categories_nodes":[],"categories_segments":[],"categories_sizes":[],"default_left":[0,0,0,0,0,0,0,0,0,0,0,0,0,0,0],"id":50,"left_children":[1,3,5,7,9,11,13,-1,-1,-1,-1,-1,-1,-1,-1],"loss_changes":[7.3171333E3,1.3996035E3,1.7122017E3,7.9383484E2,3.0005078E2,6.664142E2,5.732666E2,0E0,0E0,0E0,0E0,0E0,0E0,0E0,0E0],"parents":[2147483647,0,0,1,1,2,2,3,3,4,4,5,5,6,6],"right_children":[2,4,6,8,10,12,14,-1,-1,-1,-1,-1,-1,-1,-1],"split_conditions":[1.1641026E1,3E0,2.2E1,3.4E0,1.8E0,9.9E0,3.52E1,-1.9400703E-2,1.3642015E-2,-7.555691E-2,-4.1248146E-2,-2.3120437E-2,2.0961467E-2,5.3310942E-2,1.7982411E-1],"split_indices":[2,5,0,4,3,7,0,0,0,0,0,0,0,0,0],"split_type":[0,0,0,0,0,0,0,0,0,0,0,0,0,0,0],"sum_hessian":[3.1808E4,1.8135E4,1.3673E4,1.5315E4,2.82E3,9.929E3,3.744E3,1.3208E4,2.107E3,9.79E2,1.841E3,9.47E2,8.982E3,3.653E3,9.1E1],"tree_param":{"num_deleted":"0","num_feature":"8","num_nodes":"15","size_leaf_vector":"1"}},{"base_weights":[1.1643169E-4,-2.8097725E-1,7.463194E-1,-6.841538E-1,-9.3830556E-2,4.8042133E-1,1.2501806E0,-6.7825556E-2,-2.8918797E-2,-2.1882176E-3,-5.4032125E-2,-1.6163665E-1,2.5229845E-2,5.039054E-2,1.1071855E-1],"categories":[],"categories_nodes":[],"categories_segments":[],"categories_sizes":[],"default_left":[0,0,0,0,0,0,0,0,0,0,0,0,0,0,0],"id":51,"left_children":[1,3,5,7,9,11,13,-1,-1,-1,-1,-1,-1,-1,-1],"loss_changes":[6.672241E3,1.7433566E3,1.1655239E3,5.201731E2,7.7967706E2,5.132169E2,7.002422E2,0E0,0E0,0E0,0E0,0E0,0E0,0E0,0E0],"parents":[2147483647,0,0,1,1,2,2,3,3,4,4,5,5,6,6],"right_children":[2,4,6,8,10,12,14,-1,-1,-1,-1,-1,-1,-1,-1],"split_conditions":[1.5222222E1,6.2105265E0,5.6E0,2.5517242E0,5E0,1.6E0,2.75E1,-6.7825556E-2,-2.8918797E-2,-2.1882176E-3,-5.4032125E-2,-1.6163665E-1,2.5229845E-2,5.039054E-2,1.1071855E-1],"split_indices":[2,2,4,2,5,3,1,0,0,0,0,0,0,0,0],"split_type":[0,0,0,0,0,0,0,0,0,0,0,0,0,0,0],"sum_hessian":[3.1808E4,2.3105E4,8.703E3,7.324E3,1.5781E4,5.698E3,3.005E3,9.94E2,6.33E3,1.502E4,7.61E2,3.6E1,5.662E3,2.403E3,6.02E2],"tree_param":{"num_deleted":"0","num_feature":"8","num_nodes":"15","size_leaf_vector":"1"}},{"base_weights":[1.0671912E-4,-3.5464668E-1,5.4068065E-1,-7.067658E-1,-1.679698E-1,3.1382728E-1,9.9420476E-1,-2.4480892E-2,-5.5147834E-2,-3.1485345E-2,-4.001865E-3,1.8560655E-2,-5.137911E-2,4.2076E-2,9.990453E-2],"categories":[],"categories_nodes":[],"categories_segments":[],"categories_sizes":[],"default_left":[0,0,0,0,0,0,0,0,0,0,0,0,0,0,0],"id":52,"left_children":[1,3,5,7,9,11,13,-1,-1,-1,-1,-1,-1,-1,-1],"loss_changes":[6.1002183E3,1.2623396E3,1.2964316E3,5.71917E2,5.0962277E2,6.472267E2,6.4239307E2,0E0,0E0,0E0,0E0,0E0,0E0,0E0,0E0],"parents":[2147483647,0,0,1,1,2,2,3,3,4,4,5,5,6,6],"right_children":[2,4,6,8,10,12,14,-1,-1,-1,-1,-1,-1,-1,-1],"split_conditions":[1.28E1,2.6E0,2.07E1,2E0,5.2E0,5E0,1E1,-2.4480892E-2,-5.5147834E-2,-3.1485345E-2,-4.001865E-3,1.8560655E-2,-5.137911E-2,4.2076E-2,9.990453E-2],"split_indices":[0,3,2,5,0,5,3,0,0,0,0,0,0,0,0],"split_type":[0,0,0,0,0,0,0,0,0,0,0,0,0,0,0],"sum_hessian":[3.1808E4,1.9205E4,1.2603E4,6.653E3,1.2552E4,8.402E3,4.201E3,4.299E3,2.354E3,2.007E3,1.0545E4,8.058E3,3.44E2,3.648E3,5.53E2],"tree_param":{"num_deleted":"0","num_feature":"8","num_nodes":"15","size_leaf_vector":"1"}},{"base_weights":[1.0119032E-4,-2.4439467E-1,7.155428E-1,-6.1912334E-1,-7.334743E-2,7.6108444E-1,-1.3517128E0,-3.1498805E-2,4.7641537E-1,-9.72753E-3,1.2746969E-2,3.0501876E-2,7.177395E-2,-2.622906E-1,-5.034209E-2],"categories":[],"categories_nodes":[],"categories_segments":[],"categories_sizes":[],"default_left":[0,0,0,0,0,0,0,0,0,0,0,0,0,0,0],"id":53,"left_children":[1,3,5,7,9,11,13,-1,-1,-1,-1,-1,-1,-1,-1],"loss_changes":[5.5642847E3,1.5195499E3,7.6380225E2,8.2425366E2,6.4778125E2,8.067114E2,2.2973657E2,0E0,0E0,0E0,0E0,0E0,0E0,0E0,0E0],"parents":[2147483647,0,0,1,1,2,2,3,3,4,4,5,5,6,6],"right_children":[2,4,6,8,10,12,14,-1,-1,-1,-1,-1,-1,-1,-1],"split_conditions":[1.66E1,6.2E0,1E1,7.2E0,3.2E0,2.5597702E1,1.3870689E1,-3.1498805E-2,4.7641537E-1,-9.72753E-3,1.2746969E-2,3.0501876E-2,7.177395E-2,-2.622906E-1,-5.034209E-2],"split_indices":[0,0,5,4,4,2,2,0,0,0,0,0,0,0,0],"split_type":[0,0,0,0,0,0,0,0,0,0,0,0,0,0,0],"sum_hessian":[3.1808E4,2.3707E4,8.101E3,7.429E3,1.6278E4,7.927E3,1.74E2,7.422E3,7E0,1.1889E4,4.389E3,6.478E3,1.449E3,1.3E1,1.61E2],"tree_param":{"num_deleted":"0","num_feature":"8","num_nodes":"15","size_leaf_vector":"1"}},{"base_weights":[1.03558705E-4,-3.476101E-1,4.6128058E-1,-2.4122356E-1,-9.250891E-1,3.362626E-1,1.1560034E0,-2.3657372E-2,-3.467447E-3,-5.0113123E-2,7.140407E-3,-2.0496396E-2,2.0711714E-2,5.305413E-2,1.6003707E-1],"categories":[],"categories_nodes":[],"categories_segments":[],"categories_sizes":[],"default_left":[0,0,0,0,0,0,0,0,0,0,0,0,0,0,0],"id":54,"left_children":[1,3,5,7,9,11,13,-1,-1,-1,-1,-1,-1,-1,-1],"loss_changes":[5.100973E3,1.1139797E3,1.1872373E3,6.104909E2,2.326311E2,6.7449585E2,4.012771E2,0E0,0E0,0E0,0E0,0E0,0E0,0E0,0E0],"parents":[2147483647,0,0,1,1,2,2,3,3,4,4,5,5,6,6],"right_children":[2,4,6,8,10,12,14,-1,-1,-1,-1,-1,-1,-1,-1],"split_conditions":[1.1641026E1,3E0,2.5E1,1.4E0,1.17E1,9.9E0,3.52E1,-2.3657372E-2,-3.467447E-3,-5.0113123E-2,7.140407E-3,-2.0496396E-2,2.0711714E-2,5.305413E-2,1.6003707E-1],"split_indices":[2,5,0,4,1,7,0,0,0,0,0,0,0,0,0],"split_type":[0,0,0,0,0,0,0,0,0,0,0,0,0,0,0],"sum_hessian":[3.1808E4,1.8135E4,1.3673E4,1.5315E4,2.82E3,1.1589E4,2.084E3,6.518E3,8.797E3,2.63E3,1.9E2,1.096E3,1.0493E4,1.993E3,9.1E1],"tree_param":{"num_deleted":"0","num_feature":"8","num_nodes":"15","size_leaf_vector":"1"}},{"base_weights":[1.02826474E-4,-2.177265E-1,6.745154E-1,-6.1275464E-1,-7.616728E-2,4.3748435E-1,1.0859501E0,-5.9398115E-2,-2.5282113E-2,-9.324997E-3,1.227747E-2,2.4476087E-2,-6.293271E-2,4.792574E-2,1.31037E-1],"categories":[],"categories_nodes":[],"categories_segments":[],"categories_sizes":[],"default_left":[0,0,0,0,0,0,0,0,0,0,0,0,0,0,0],"id":55,"left_children":[1,3,5,7,9,11,13,-1,-1,-1,-1,-1,-1,-1,-1],"loss_changes":[4.6731064E3,1.3444907E3,7.568867E2,3.902036E2,6.283934E2,4.356626E2,5.5256226E2,0E0,0E0,0E0,0E0,0E0,0E0,0E0,0E0],"parents":[2147483647,0,0,1,1,2,2,3,3,4,4,5,5,6,6],"right_children":[2,4,6,8,10,12,14,-1,-1,-1,-1,-1,-1,-1,-1],"split_conditions":[1.67E1,5.75E0,5.6E0,2.5517242E0,3.2E0,8E0,3.2E1,-5.9398115E-2,-2.5282113E-2,-9.324997E-3,1.227747E-2,2.4476087E-2,-6.293271E-2,4.792574E-2,1.31037E-1],"split_indices":[1,2,4,2,4,5,0,0,0,0,0,0,0,0,0],"split_type":[0,0,0,0,0,0,0,0,0,0,0,0,0,0,0],"sum_hessian":[3.1808E4,2.4043E4,7.765E3,6.342E3,1.7701E4,4.928E3,2.837E3,9.94E2,5.348E3,1.3181E4,4.52E3,4.782E3,1.46E2,2.621E3,2.16E2],"tree_param":{"num_deleted":"0","num_feature":"8","num_nodes":"15","size_leaf_vector":"1"}},{"base_weights":[9.9357654E-5,-3.1646073E-1,4.19957E-1,-2.165267E-1,-8.5891837E-1,1.923858E-1,7.4862754E-1,-1.4571666E-2,1.2647526E-2,-6.148506E-2,-3.305922E-2,-4.1645183E-3,2.3455396E-2,2.4465505E-2,5.4815706E-2],"categories":[],"categories_nodes":[],"categories_segments":[],"categories_sizes":[],"default_left":[0,0,0,0,0,0,0,0,0,0,0,0,0,0,0],"id":56,"left_children":[1,3,5,7,9,11,13,-1,-1,-1,-1,-1,-1,-1,-1],"loss_changes":[4.2278726E3,9.829662E2,1.02261597E3,5.386907E2,2.060122E2,6.165038E2,5.038252E2,0E0,0E0,0E0,0E0,0E0,0E0,0E0,0E0],"parents":[2147483647,0,0,1,1,2,2,3,3,4,4,5,5,6,6],"right_children":[2,4,6,8,10,12,14,-1,-1,-1,-1,-1,-1,-1,-1],"split_conditions":[1.1641026E1,3E0,1.8820513E1,3.4E0,1.8E0,1E0,5.6E0,-1.4571666E-2,1.2647526E-2,-6.148506E-2,-3.305922E-2,-4.1645183E-3,2.3455396E-2,2.4465505E-2,5.4815706E-2],"split_indices":[2,5,2,4,3,6,4,0,0,0,0,0,0,0,0],"split_type":[0,0,0,0,0,0,0,0,0,0,0,0,0,0,0],"sum_hessian":[3.1808E4,1.8135E4,1.3673E4,1.5315E4,2.82E3,8.08E3,5.593E3,1.3208E4,2.107E3,9.79E2,1.841E3,4.048E3,4.032E3,3.205E3,2.388E3],"tree_param":{"num_deleted":"0","num_feature":"8","num_nodes":"15","size_leaf_vector":"1"}},{"base_weights":[9.437751E-5,-2.8231737E-1,4.3043393E-1,-5.8869255E-1,-1.19893804E-1,-1.1132306E-1,5.6873035E-1,-2.805139E-2,-1.4878856E-1,-7.131699E-3,6.1193634E-2,7.048122E-2,-1.0995783E-2,2.2188826E-2,5.314189E-2],"categories":[],"categories_nodes":[],"categories_segments":[],"categories_sizes":[],"default_left":[0,0,0,0,0,0,0,0,0,0,0,0,0,0,0],"id":57,"left_children":[1,3,5,7,9,11,13,-1,-1,-1,-1,-1,-1,-1,-1],"loss_changes":[3.8659631E3,9.556688E2,9.4439355E2,4.3774756E2,3.837624E2,4.2378952E2,6.1946606E2,0E0,0E0,0E0,0E0,0E0,0E0,0E0,0E0],"parents":[2147483647,0,0,1,1,2,2,3,3,4,4,5,5,6,6],"right_children":[2,4,6,8,10,12,14,-1,-1,-1,-1,-1,-1,-1,-1],"split_conditions":[1.28E1,2.6E0,2.2E0,1.24E1,7E0,1.1E1,2.5E1,-2.805139E-2,-1.4878856E-1,-7.131699E-3,6.1193634E-2,7.048122E-2,-1.0995783E-2,2.2188826E-2,5.314189E-2],"split_indices":[0,3,4,0,4,1,0,0,0,0,0,0,0,0,0],"split_type":[0,0,0,0,0,0,0,0,0,0,0,0,0,0,0],"sum_hessian":[3.1808E4,1.9205E4,1.2603E4,6.653E3,1.2552E4,2.563E3,1.004E4,6.578E3,7.5E1,1.2344E4,2.08E2,1.7E2,2.393E3,8.015E3,2.025E3],"tree_param":{"num_deleted":"0","num_feature":"8","num_nodes":"15","size_leaf_vector":"1"}},{"base_weights":[9.002985E-5,-3.4999272E-1,3.1912535E-1,-2.5534505E-1,-8.2421774E-1,-8.8505745E-2,5.044232E-1,-4.9986657E-2,-1.0720006E-2,-4.0354986E-2,-2.758095E-1,-1.8538691E-2,1.0125035E-2,2.6861832E-2,-5.9771407E-2],"categories":[],"categories_nodes":[],"categories_segments":[],"categories_sizes":[],"default_left":[0,0,0,0,0,0,0,0,0,0,0,0,0,0,0],"id":58,"left_children":[1,3,5,7,9,11,13,-1,-1,-1,-1,-1,-1,-1,-1],"loss_changes":[3.5528196E3,6.805497E2,1.2571433E3,3.851917E2,1.9818909E2,4.273769E2,6.38853E2,0E0,0E0,0E0,0E0,0E0,0E0,0E0,0E0],"parents":[2147483647,0,0,1,1,2,2,3,3,4,4,5,5,6,6],"right_children":[2,4,6,8,10,12,14,-1,-1,-1,-1,-1,-1,-1,-1],"split_conditions":[1.04E1,3E0,2.4E0,1.8E0,1.5928572E1,1E0,1.2E1,-4.9986657E-2,-1.0720006E-2,-4.0354986E-2,-2.758095E-1,-1.8538691E-2,1.0125035E-2,2.6861832E-2,-5.9771407E-2],"split_indices":[0,5,4,0,2,6,5,0,0,0,0,0,0,0,0],"split_type":[0,0,0,0,0,0,0,0,0,0,0,0,0,0,0],"sum_hessian":[3.1808E4,1.5166E4,1.6642E4,1.2644E4,2.522E3,5.201E3,1.1441E4,6.58E2,1.1986E4,2.514E3,8E0,2.64E3,2.561E3,1.1225E4,2.16E2],"tree_param":{"num_deleted":"0","num_feature":"8","num_nodes":"15","size_leaf_vector":"1"}},{"base_weights":[7.247242E-5,-1.8718655E-1,5.480282E-1,-4.522681E-1,-2.3316048E-2,5.889275E-1,-1.3079606E0,-1.3163413E-2,-4.144346E-2,-9.713911E-3,7.353347E-3,2.772825E-2,1.3824514E-1,-7.9872526E-2,1.378699E-1],"categories":[],"categories_nodes":[],"categories_segments":[],"categories_sizes":[],"default_left":[0,0,0,0,0,0,0,0,0,0,0,0,0,0,0],"id":59,"left_children":[1,3,5,7,9,11,13,-1,-1,-1,-1,-1,-1,-1,-1],"loss_changes":[3.2640127E3,1.0298423E3,6.157827E2,6.4443665E2,4.2682733E2,5.9125903E2,2.1035883E2,0E0,0E0,0E0,0E0,0E0,0E0,0E0,0E0],"parents":[2147483647,0,0,1,1,2,2,3,3,4,4,5,5,6,6],"right_children":[2,4,6,8,10,12,14,-1,-1,-1,-1,-1,-1,-1,-1],"split_conditions":[1.66E1,3E0,1E1,2E0,1E0,3.32E1,1.16E1,-1.3163413E-2,-4.144346E-2,-9.713911E-3,7.353347E-3,2.772825E-2,1.3824514E-1,-7.9872526E-2,1.378699E-1],"split_indices":[0,3,5,5,6,1,3,0,0,0,0,0,0,0,0],"split_type":[0,0,0,0,0,0,0,0,0,0,0,0,0,0,0],"sum_hessian":[3.1808E4,2.3707E4,8.101E3,9.056E3,1.4651E4,7.927E3,1.74E2,6.031E3,3.025E3,7.313E3,7.338E3,7.805E3,1.22E2,1.63E2,1.1E1],"tree_param":{"num_deleted":"0","num_feature":"8","num_nodes":"15","size_leaf_vector":"1"}},{"base_weights":[7.39436E-5,-2.6680687E-1,3.5404134E-1,-1.7931531E-1,-7.4172837E-1,2.3661159E-1,8.486962E-1,-2.626023E-2,-4.6843817E-3,-4.0425796E-2,9.10722E-3,8.314267E-3,3.9954305E-2,3.174925E-2,8.7297805E-2],"categories":[],"categories_nodes":[],"categories_segments":[],"categories_sizes":[],"default_left":[0,0,0,0,0,0,0,0,0,0,0,0,0,0,0],"id":60,"left_children":[1,3,5,7,9,11,13,-1,-1,-1,-1,-1,-1,-1,-1],"loss_changes":[3.0049983E3,7.53447E2,7.940835E2,4.535754E2,1.7421191E2,4.3704797E2,5.0186316E2,0E0,0E0,0E0,0E0,0E0,0E0,0E0,0E0],"parents":[2147483647,0,0,1,1,2,2,3,3,4,4,5,5,6,6],"right_children":[2,4,6,8,10,12,14,-1,-1,-1,-1,-1,-1,-1,-1],"split_conditions":[1.1641026E1,3E0,6.2E0,4.769231E0,1.17E1,2.48E1,2.75E1,-2.626023E-2,-4.6843817E-3,-4.0425796E-2,9.10722E-3,8.314267E-3,3.9954305E-2,3.174925E-2,8.7297805E-2],"split_indices":[2,5,4,2,1,0,1,0,0,0,0,0,0,0,0],"split_type":[0,0,0,0,0,0,0,0,0,0,0,0,0,0,0],"sum_hessian":[3.1808E4,1.8135E4,1.3673E4,1.5315E4,2.82E3,1.1051E4,2.622E3,3.038E3,1.2277E4,2.63E3,1.9E2,9.824E3,1.227E3,2.119E3,5.03E2],"tree_param":{"num_deleted":"0","num_feature":"8","num_nodes":"15","size_leaf_vector":"1"}},{"base_weights":[7.357725E-5,-1.6269782E-1,5.310926E-1,-4.2323676E-1,-6.0210517E-3,3.1707525E-1,8.7837386E-1,-5.3446632E-2,-1.7811952E-2,1.0705794E-3,-7.477209E-2,2.4029081E-4,2.9748632E-2,4.0859845E-2,1.7209558E-1],"categories":[],"categories_nodes":[],"categories_segments":[],"categories_sizes":[],"default_left":[0,0,0,0,0,0,0,0,0,0,0,0,0,0,0],"id":61,"left_children":[1,3,5,7,9,11,13,-1,-1,-1,-1,-1,-1,-1,-1],"loss_changes":[2.749488E3,9.9385175E2,5.544031E2,3.951466E2,6.2128925E2,4.008286E2,4.4336694E2,0E0,0E0,0E0,0E0,0E0,0E0,0E0,0E0],"parents":[2147483647,0,0,1,1,2,2,3,3,4,4,5,5,6,6],"right_children":[2,4,6,8,10,12,14,-1,-1,-1,-1,-1,-1,-1,-1],"split_conditions":[1.6544117E1,1.4E0,5.6E0,2E0,1.7E1,5.4E0,3.52E1,-5.3446632E-2,-1.7811952E-2,1.0705794E-3,-7.477209E-2,2.4029081E-4,2.9748632E-2,4.0859845E-2,1.7209558E-1],"split_indices":[2,4,4,1,5,3,0,0,0,0,0,0,0,0,0],"split_type":[0,0,0,0,0,0,0,0,0,0,0,0,0,0,0],"sum_hessian":[3.1808E4,2.4346E4,7.462E3,9.142E3,1.5204E4,4.618E3,2.844E3,8.58E2,8.284E3,1.493E4,2.74E2,2.175E3,2.443E3,2.779E3,6.5E1],"tree_param":{"num_deleted":"0","num_feature":"8","num_nodes":"15","size_leaf_vector":"1"}},{"base_weights":[7.285691E-5,-2.96042E-1,2.699265E-1,-7.2909963E-1,-2.1758161E-1,-8.4717266E-2,4.311384E-1,-2.196508E-4,-4.2047523E-2,7.932036E-3,-1.4364253E-2,-1.73652E-2,9.299975E-3,2.30282E-2,-5.465569E-2],"categories":[],"categories_nodes":[],"categories_segments":[],"categories_sizes":[],"default_left":[0,0,0,0,0,0,0,0,0,0,0,0,0,0,0],"id":62,"left_children":[1,3,5,7,9,11,13,-1,-1,-1,-1,-1,-1,-1,-1],"loss_changes":[2.5418625E3,5.151837E2,9.515635E2,1.8853943E2,3.3681415E2,3.6985727E2,5.1369995E2,0E0,0E0,0E0,0E0,0E0,0E0,0E0,0E0],"parents":[2147483647,0,0,1,1,2,2,3,3,4,4,5,5,6,6],"right_children":[2,4,6,8,10,12,14,-1,-1,-1,-1,-1,-1,-1,-1],"split_conditions":[1.04E1,1.4E0,2.4E0,1E0,1E0,1E0,1.2E1,-2.196508E-4,-4.2047523E-2,7.932036E-3,-1.4364253E-2,-1.73652E-2,9.299975E-3,2.30282E-2,-5.465569E-2],"split_indices":[0,3,4,5,5,6,5,0,0,0,0,0,0,0,0],"split_type":[0,0,0,0,0,0,0,0,0,0,0,0,0,0,0],"sum_hessian":[3.1808E4,1.5166E4,1.6642E4,2.325E3,1.2841E4,5.201E3,1.1441E4,3.11E2,2.014E3,2.007E3,1.0834E4,2.64E3,2.561E3,1.1225E4,2.16E2],"tree_param":{"num_deleted":"0","num_feature":"8","num_nodes":"15","size_leaf_vector":"1"}},{"base_weights":[6.657083E-5,-2.882663E-1,2.5460842E-1,-4.2080548E-1,6.8913945E-3,1.0594645E-1,5.5491644E-1,-1.6343888E-2,-4.1137915E-2,2.4207623E-3,-6.333718E-2,-5.438279E-3,1.5973262E-2,2.4212843E-2,7.6571666E-2],"categories":[],"categories_nodes":[],"categories_segments":[],"categories_sizes":[],"default_left":[0,0,0,0,0,0,0,0,0,0,0,0,0,0,0],"id":63,"left_children":[1,3,5,7,9,11,13,-1,-1,-1,-1,-1,-1,-1,-1],"loss_changes":[2.3346243E3,5.8347705E2,7.542079E2,3.8833813E2,2.4455435E2,5.1817554E2,3.8524597E2,0E0,0E0,0E0,0E0,0E0,0E0,0E0,0E0],"parents":[2147483647,0,0,1,1,2,2,3,3,4,4,5,5,6,6],"right_children":[2,4,6,8,10,12,14,-1,-1,-1,-1,-1,-1,-1,-1],"split_conditions":[9.8E0,2E0,1.8820513E1,3E0,8E0,1E0,2.975E1,-1.6343888E-2,-4.1137915E-2,2.4207623E-3,-6.333718E-2,-5.438279E-3,1.5973262E-2,2.4212843E-2,7.6571666E-2],"split_indices":[2,4,2,5,5,6,2,0,0,0,0,0,0,0,0],"split_type":[0,0,0,0,0,0,0,0,0,0,0,0,0,0,0],"sum_hessian":[3.1808E4,1.4914E4,1.6894E4,1.0292E4,4.622E3,1.1301E4,5.593E3,8.344E3,1.948E3,4.477E3,1.45E2,5.635E3,5.666E3,5.217E3,3.76E2],"tree_param":{"num_deleted":"0","num_feature":"8","num_nodes":"15","size_leaf_vector":"1"}},{"base_weights":[6.2830135E-5,-1.4104186E-1,4.7097617E-1,-3.7364846E-1,-2.145612E-3,5.1395106E-1,-1.4347631E0,-1.0264803E-2,-3.550878E-2,-1.3822722E-3,4.6632238E-2,2.3578996E-2,1.0059843E-1,-1.833605E-1,-3.839082E-2],"categories":[],"categories_nodes":[],"categories_segments":[],"categories_sizes":[],"default_left":[0,0,0,0,0,0,0,0,0,0,0,0,0,0,0],"id":64,"left_children":[1,3,5,7,9,11,13,-1,-1,-1,-1,-1,-1,-1,-1],"loss_changes":[2.1137134E3,7.907743E2,6.0138416E2,5.1830554E2,3.653516E2,4.5434082E2,2.3838983E2,0E0,0E0,0E0,0E0,0E0,0E0,0E0,0E0],"parents":[2147483647,0,0,1,1,2,2,3,3,4,4,5,5,6,6],"right_children":[2,4,6,8,10,12,14,-1,-1,-1,-1,-1,-1,-1,-1],"split_conditions":[1.74E1,3E0,1E1,2E0,7E0,1.45E1,1.85E1,-1.0264803E-2,-3.550878E-2,-1.3822722E-3,4.6632238E-2,2.3578996E-2,1.0059843E-1,-1.833605E-1,-3.839082E-2],"split_indices":[0,3,5,5,4,7,1,0,0,0,0,0,0,0,0],"split_type":[0,0,0,0,0,0,0,0,0,0,0,0,0,0,0],"sum_hessian":[3.1808E4,2.4475E4,7.333E3,9.15E3,1.5325E4,7.172E3,1.61E2,6.1E3,3.05E3,1.4919E4,4.06E2,6.976E3,1.96E2,3.6E1,1.25E2],"tree_param":{"num_deleted":"0","num_feature":"8","num_nodes":"15","size_leaf_vector":"1"}},{"base_weights":[5.6564484E-5,-2.6443902E-1,2.3355474E-1,-3.884526E-1,1.1731413E-2,1.4621124E-1,6.837421E-1,-1.5112487E-2,-3.786733E-2,2.5388903E-3,-5.92975E-2,-1.5648507E-2,1.0596197E-2,2.4893766E-2,7.5459875E-2],"categories":[],"categories_nodes":[],"categories_segments":[],"categories_sizes":[],"default_left":[0,0,0,0,0,0,0,0,0,0,0,0,0,0,0],"id":65,"left_children":[1,3,5,7,9,11,13,-1,-1,-1,-1,-1,-1,-1,-1],"loss_changes":[1.9645614E3,5.1082654E2,6.6422736E2,3.2708557E2,2.1625542E2,4.2705923E2,4.2039954E2,0E0,0E0,0E0,0E0,0E0,0E0,0E0,0E0],"parents":[2147483647,0,0,1,1,2,2,3,3,4,4,5,5,6,6],"right_children":[2,4,6,8,10,12,14,-1,-1,-1,-1,-1,-1,-1,-1],"split_conditions":[9.8E0,2E0,6.2E0,3E0,8E0,1.0133333E1,2.75E1,-1.5112487E-2,-3.786733E-2,2.5388903E-3,-5.92975E-2,-1.5648507E-2,1.0596197E-2,2.4893766E-2,7.5459875E-2],"split_indices":[2,4,4,5,5,7,1,0,0,0,0,0,0,0,0],"split_type":[0,0,0,0,0,0,0,0,0,0,0,0,0,0,0],"sum_hessian":[3.1808E4,1.4914E4,1.6894E4,1.0292E4,4.622E3,1.415E4,2.744E3,8.344E3,1.948E3,4.477E3,1.45E2,1.771E3,1.2379E4,2.241E3,5.03E2],"tree_param":{"num_deleted":"0","num_feature":"8","num_nodes":"15","size_leaf_vector":"1"}},{"base_weights":[5.338656E-5,-2.3926218E-1,2.362596E-1,-7.5601566E-1,-1.8244132E-1,-1.13472044E-1,3.8621268E-1,-4.685457E-3,-4.644275E-2,-8.237554E-3,-6.544014E-2,-3.2680784E-3,-1.5733841E-1,1.7572377E-2,6.918937E-2],"categories":[],"categories_nodes":[],"categories_segments":[],"categories_sizes":[],"default_left":[0,0,0,0,0,0,0,0,0,0,0,0,0,0,0],"id":66,"left_children":[1,3,5,7,9,11,13,-1,-1,-1,-1,-1,-1,-1,-1],"loss_changes":[1.79815E3,4.638169E2,8.396092E2,1.7906268E2,2.8346548E2,7.0100397E2,3.8811255E2,0E0,0E0,0E0,0E0,0E0,0E0,0E0,0E0],"parents":[2147483647,0,0,1,1,2,2,3,3,4,4,5,5,6,6],"right_children":[2,4,6,8,10,12,14,-1,-1,-1,-1,-1,-1,-1,-1],"split_conditions":[2.2E0,3.1014493E0,1.13E1,1.0633333E1,2.1E1,1.4342465E1,2.975E1,-4.685457E-3,-4.644275E-2,-8.237554E-3,-6.544014E-2,-3.2680784E-3,-1.5733841E-1,1.7572377E-2,6.918937E-2],"split_indices":[4,2,1,7,5,2,2,0,0,0,0,0,0,0,0],"split_type":[0,0,0,0,0,0,0,0,0,0,0,0,0,0,0],"sum_hessian":[3.1808E4,1.58E4,1.6008E4,1.564E3,1.4236E4,4.804E3,1.1204E4,3.24E2,1.24E3,1.4017E4,2.19E2,4.73E3,7.4E1,1.0828E4,3.76E2],"tree_param":{"num_deleted":"0","num_feature":"8","num_nodes":"15","size_leaf_vector":"1"}},{"base_weights":[4.4526187E-5,-1.2597418E-1,4.1116303E-1,-3.319766E-1,-2.0934886E-3,3.7650603E-1,2.0982983E0,-4.411797E-2,-1.37436045E-2,1.0873268E-3,-6.4823456E-2,2.0974731E-2,-5.3279486E-2,8.931612E-2,4.643998E-1],"categories":[],"categories_nodes":[],"categories_segments":[],"categories_sizes":[],"default_left":[0,0,0,0,0,0,0,0,0,0,0,0,0,0,0],"id":67,"left_children":[1,3,5,7,9,11,13,-1,-1,-1,-1,-1,-1,-1,-1],"loss_changes":[1.6480323E3,6.21328E2,4.355796E2,2.871159E2,4.692232E2,4.5386853E2,3.1986035E2,0E0,0E0,0E0,0E0,0E0,0E0,0E0,0E0],"parents":[2147483647,0,0,1,1,2,2,3,3,4,4,5,5,6,6],"right_children":[2,4,6,8,10,12,14,-1,-1,-1,-1,-1,-1,-1,-1],"split_conditions":[1.6544117E1,1.4E0,1.46E1,2E0,1.7E1,8E0,1.08E1,-4.411797E-2,-1.37436045E-2,1.0873268E-3,-6.4823456E-2,2.0974731E-2,-5.3279486E-2,8.931612E-2,4.643998E-1],"split_indices":[2,4,7,1,5,5,4,0,0,0,0,0,0,0,0],"split_type":[0,0,0,0,0,0,0,0,0,0,0,0,0,0,0],"sum_hessian":[3.1808E4,2.4346E4,7.462E3,9.142E3,1.5204E4,7.313E3,1.49E2,8.58E2,8.284E3,1.493E4,2.74E2,7.102E3,2.11E2,1.44E2,5E0],"tree_param":{"num_deleted":"0","num_feature":"8","num_nodes":"15","size_leaf_vector":"1"}},{"base_weights":[5.480567E-5,-2.2964531E-1,2.0938376E-1,1.6704535E-1,-3.0122256E-1,-7.660973E-2,3.3938977E-1,3.5360612E-3,8.5034214E-2,-3.4721013E-2,-1.1403562E-2,-1.596105E-2,8.675619E-3,1.8240167E-2,-4.8844304E-2],"categories":[],"categories_nodes":[],"categories_segments":[],"categories_sizes":[],"default_left":[0,0,0,0,0,0,0,0,0,0,0,0,0,0,0],"id":68,"left_children":[1,3,5,7,9,11,13,-1,-1,-1,-1,-1,-1,-1,-1],"loss_changes":[1.5295166E3,4.307025E2,6.188273E2,3.4245737E2,3.694165E2,3.1572543E2,3.8310535E2,0E0,0E0,0E0,0E0,0E0,0E0,0E0,0E0],"parents":[2147483647,0,0,1,1,2,2,3,3,4,4,5,5,6,6],"right_children":[2,4,6,8,10,12,14,-1,-1,-1,-1,-1,-1,-1,-1],"split_conditions":[1.04E1,1E0,2.4E0,1.2032258E1,1.4E0,1E0,1.2E1,3.5360612E-3,8.5034214E-2,-3.4721013E-2,-1.1403562E-2,-1.596105E-2,8.675619E-3,1.8240167E-2,-4.8844304E-2],"split_indices":[0,5,4,2,3,6,5,0,0,0,0,0,0,0,0],"split_type":[0,0,0,0,0,0,0,0,0,0,0,0,0,0,0],"sum_hessian":[3.1808E4,1.5166E4,1.6642E4,2.318E3,1.2848E4,5.201E3,1.1441E4,2.182E3,1.36E2,2.014E3,1.0834E4,2.64E3,2.561E3,1.1225E4,2.16E2],"tree_param":{"num_deleted":"0","num_feature":"8","num_nodes":"15","size_leaf_vector":"1"}},{"base_weights":[5.2282783E-5,-1.1463138E-1,3.8278985E-1,-3.1368133E-1,4.226815E-3,4.209304E-1,-1.3083515E0,-8.2489615E-3,-3.0546699E-2,-6.9414787E-3,7.346421E-3,1.9488145E-2,1.1020961E-1,-1.7066735E-1,-3.3991713E-2],"categories":[],"categories_nodes":[],"categories_segments":[],"categories_sizes":[],"default_left":[0,0,0,0,0,0,0,0,0,0,0,0,0,0,0],"id":69,"left_children":[1,3,5,7,9,11,13,-1,-1,-1,-1,-1,-1,-1,-1],"loss_changes":[1.39626E3,5.79072E2,4.7360144E2,4.0439258E2,3.128911E2,3.9781506E2,2.120097E2,0E0,0E0,0E0,0E0,0E0,0E0,0E0,0E0],"parents":[2147483647,0,0,1,1,2,2,3,3,4,4,5,5,6,6],"right_children":[2,4,6,8,10,12,14,-1,-1,-1,-1,-1,-1,-1,-1],"split_conditions":[1.74E1,3E0,1E1,2E0,1E0,3.32E1,1.85E1,-8.2489615E-3,-3.0546699E-2,-6.9414787E-3,7.346421E-3,1.9488145E-2,1.1020961E-1,-1.7066735E-1,-3.3991713E-2],"split_indices":[0,3,5,5,6,1,1,0,0,0,0,0,0,0,0],"split_type":[0,0,0,0,0,0,0,0,0,0,0,0,0,0,0],"sum_hessian":[3.1808E4,2.4475E4,7.333E3,9.15E3,1.5325E4,7.172E3,1.61E2,6.1E3,3.05E3,7.653E3,7.672E3,7.05E3,1.22E2,3.6E1,1.25E2],"tree_param":{"num_deleted":"0","num_feature":"8","num_nodes":"15","size_leaf_vector":"1"}},{"base_weights":[4.632184E-5,-2.1508111E-1,1.8996201E-1,-3.2158238E-1,2.2087973E-2,1.1441314E-1,5.793617E-1,2.251594E-3,-1.9373653E-2,2.8485348E-3,-5.2397974E-2,-1.6094482E-2,8.842685E-3,2.0606823E-2,6.610495E-2],"categories":[],"categories_nodes":[],"categories_segments":[],"categories_sizes":[],"default_left":[0,0,0,0,0,0,0,0,0,0,0,0,0,0,0],"id":70,"left_children":[1,3,5,7,9,11,13,-1,-1,-1,-1,-1,-1,-1,-1],"loss_changes":[1.2996317E3,3.767422E2,4.9696277E2,2.4866016E2,1.7261859E2,3.8557254E2,3.4039624E2,0E0,0E0,0E0,0E0,0E0,0E0,0E0,0E0],"parents":[2147483647,0,0,1,1,2,2,3,3,4,4,5,5,6,6],"right_children":[2,4,6,8,10,12,14,-1,-1,-1,-1,-1,-1,-1,-1],"split_conditions":[9.8E0,2E0,6.2E0,1E0,8E0,1.0133333E1,2.75E1,2.251594E-3,-1.9373653E-2,2.8485348E-3,-5.2397974E-2,-1.6094482E-2,8.842685E-3,2.0606823E-2,6.610495E-2],"split_indices":[2,4,4,5,5,7,1,0,0,0,0,0,0,0,0],"split_type":[0,0,0,0,0,0,0,0,0,0,0,0,0,0,0],"sum_hessian":[3.1808E4,1.4914E4,1.6894E4,1.0292E4,4.622E3,1.415E4,2.744E3,1.568E3,8.724E3,4.477E3,1.45E2,1.771E3,1.2379E4,2.241E3,5.03E2],"tree_param":{"num_deleted":"0","num_feature":"8","num_nodes":"15","size_leaf_vector":"1"}},{"base_weights":[4.4431003E-5,-2.0171791E-1,1.8391329E-1,1.5966095E-1,-2.6692423E-1,-7.514056E-2,3.0167368E-1,3.418353E-3,8.066002E-2,-3.1154359E-2,-1.0033174E-2,-1.5037554E-2,7.872804E-3,8.401695E-3,2.5709126E-2],"categories":[],"categories_nodes":[],"categories_segments":[],"categories_sizes":[],"default_left":[0,0,0,0,0,0,0,0,0,0,0,0,0,0,0],"id":71,"left_children":[1,3,5,7,9,11,13,-1,-1,-1,-1,-1,-1,-1,-1],"loss_changes":[1.1800814E3,3.574406E2,5.077386E2,3.0761935E2,3.031065E2,2.7302884E2,3.248623E2,0E0,0E0,0E0,0E0,0E0,0E0,0E0,0E0],"parents":[2147483647,0,0,1,1,2,2,3,3,4,4,5,5,6,6],"right_children":[2,4,6,8,10,12,14,-1,-1,-1,-1,-1,-1,-1,-1],"split_conditions":[1.04E1,1E0,2.4E0,1.2032258E1,1.4E0,1E0,5.8E0,3.418353E-3,8.066002E-2,-3.1154359E-2,-1.0033174E-2,-1.5037554E-2,7.872804E-3,8.401695E-3,2.5709126E-2],"split_indices":[0,5,4,2,3,6,3,0,0,0,0,0,0,0,0],"split_type":[0,0,0,0,0,0,0,0,0,0,0,0,0,0,0],"sum_hessian":[3.1808E4,1.5166E4,1.6642E4,2.318E3,1.2848E4,5.201E3,1.1441E4,2.182E3,1.36E2,2.014E3,1.0834E4,2.64E3,2.561E3,7.025E3,4.416E3],"tree_param":{"num_deleted":"0","num_feature":"8","num_nodes":"15","size_leaf_vector":"1"}},{"base_weights":[4.4418866E-5,-1.2500027E-1,2.7248862E-1,-3.0583042E-1,1.4200927E-3,2.011511E-1,8.121729E-1,-1.5064949E-2,-4.1856915E-1,3.4497396E-4,-2.7013144E-1,9.008086E-3,1.04557574E-1,-8.387963E-2,4.6953272E-2],"categories":[],"categories_nodes":[],"categories_segments":[],"categories_sizes":[],"default_left":[0,0,0,0,0,0,0,0,0,0,0,0,0,0,0],"id":72,"left_children":[1,3,5,7,9,11,13,-1,-1,-1,-1,-1,-1,-1,-1],"loss_changes":[1.0836935E3,4.984304E2,3.851034E2,3.2535626E2,3.8003366E2,3.5030557E2,3.7058466E2,0E0,0E0,0E0,0E0,0E0,0E0,0E0,0E0],"parents":[2147483647,0,0,1,1,2,2,3,3,4,4,5,5,6,6],"right_children":[2,4,6,8,10,12,14,-1,-1,-1,-1,-1,-1,-1,-1],"split_conditions":[3.4E0,3.2E0,2.7E1,2.54E1,2.54E2,1.5E1,3E0,-1.5064949E-2,-4.1856915E-1,3.4497396E-4,-2.7013144E-1,9.008086E-3,1.04557574E-1,-8.387963E-2,4.6953272E-2],"split_indices":[4,3,0,1,5,7,3,0,0,0,0,0,0,0,0],"split_type":[0,0,0,0,0,0,0,0,0,0,0,0,0,0,0],"sum_hessian":[3.1808E4,2.1802E4,1.0006E4,8.97E3,1.2832E4,8.839E3,1.167E3,8.966E3,4E0,1.282E4,1.2E1,8.743E3,9.6E1,5.6E1,1.111E3],"tree_param":{"num_deleted":"0","num_feature":"8","num_nodes":"15","size_leaf_vector":"1"}},{"base_weights":[2.2343635E-5,-9.857124E-2,3.216702E-1,-4.2399982E-1,-4.422444E-2,2.893255E-1,1.896653E0,-5.2786738E-2,-1.7955666E-2,-1.4707496E-3,-5.279216E-2,1.6382031E-2,-4.97888E-2,1.0978565E-1,-2.2631939E-1],"categories":[],"categories_nodes":[],"categories_segments":[],"categories_sizes":[],"default_left":[0,0,0,0,0,0,0,0,0,0,0,0,0,0,0],"id":73,"left_children":[1,3,5,7,9,11,13,-1,-1,-1,-1,-1,-1,-1,-1],"loss_changes":[1.008772E3,4.305824E2,3.796339E2,1.4243365E2,3.1254327E2,3.6045886E2,2.9806976E2,0E0,0E0,0E0,0E0,0E0,0E0,0E0,0E0],"parents":[2147483647,0,0,1,1,2,2,3,3,4,4,5,5,6,6],"right_children":[2,4,6,8,10,12,14,-1,-1,-1,-1,-1,-1,-1,-1],"split_conditions":[1.6544117E1,4.4366198E0,1.46E1,1.2E0,2.1E1,8E0,3.16E1,-5.2786738E-2,-1.7955666E-2,-1.4707496E-3,-5.279216E-2,1.6382031E-2,-4.97888E-2,1.0978565E-1,-2.2631939E-1],"split_indices":[2,2,7,1,5,5,1,0,0,0,0,0,0,0,0],"split_type":[0,0,0,0,0,0,0,0,0,0,0,0,0,0,0],"sum_hessian":[3.1808E4,2.4346E4,7.462E3,3.483E3,2.0863E4,7.313E3,1.49E2,3.23E2,3.16E3,2.0563E4,3E2,7.102E3,2.11E2,1.43E2,6E0],"tree_param":{"num_deleted":"0","num_feature":"8","num_nodes":"15","size_leaf_vector":"1"}},{"base_weights":[1.2443795E-5,-1.8235831E-1,1.6101035E-1,-2.775024E-1,2.9517211E-2,9.387576E-2,5.070434E-1,-1.0341101E-2,-2.899955E-2,9.171541E-4,1.4436065E-1,-2.088925E-2,7.115581E-3,2.7492223E-2,-9.808086E-2],"categories":[],"categories_nodes":[],"categories_segments":[],"categories_sizes":[],"default_left":[0,0,0,0,0,0,0,0,0,0,0,0,0,0,0],"id":74,"left_children":[1,3,5,7,9,11,13,-1,-1,-1,-1,-1,-1,-1,-1],"loss_changes":[9.339833E2,3.0067523E2,3.9243658E2,2.1994452E2,1.475699E2,3.5075992E2,2.9111865E2,0E0,0E0,0E0,0E0,0E0,0E0,0E0,0E0],"parents":[2147483647,0,0,1,1,2,2,3,3,4,4,5,5,6,6],"right_children":[2,4,6,8,10,12,14,-1,-1,-1,-1,-1,-1,-1,-1],"split_conditions":[9.8E0,2E0,6.2E0,3E0,1.88E1,9.833333E0,1.7E1,-1.0341101E-2,-2.899955E-2,9.171541E-4,1.4436065E-1,-2.088925E-2,7.115581E-3,2.7492223E-2,-9.808086E-2],"split_indices":[2,4,4,5,0,7,5,0,0,0,0,0,0,0,0],"split_type":[0,0,0,0,0,0,0,0,0,0,0,0,0,0,0],"sum_hessian":[3.1808E4,1.4914E4,1.6894E4,1.0292E4,4.622E3,1.415E4,2.744E3,8.344E3,1.948E3,4.605E3,1.7E1,1.223E3,1.2927E4,2.698E3,4.6E1],"tree_param":{"num_deleted":"0","num_feature":"8","num_nodes":"15","size_leaf_vector":"1"}},{"base_weights":[1.2369322E-5,-9.026406E-2,3.0129486E-1,-2.525329E-1,6.6309273E-3,3.3557317E-1,-1.2183325E0,-6.0639232E-3,-2.57458E-2,-6.3471883E-3,6.9937E-3,1.4930035E-2,8.216482E-2,-1.6088268E-1,-3.107805E-2],"categories":[],"categories_nodes":[],"categories_segments":[],"categories_sizes":[],"default_left":[0,0,0,0,0,0,0,0,0,0,0,0,0,0,0],"id":75,"left_children":[1,3,5,7,9,11,13,-1,-1,-1,-1,-1,-1,-1,-1],"loss_changes":[8.651909E2,3.848388E2,3.8243872E2,3.1508832E2,2.7278845E2,3.463222E2,1.9128838E2,0E0,0E0,0E0,0E0,0E0,0E0,0E0,0E0],"parents":[2147483647,0,0,1,1,2,2,3,3,4,4,5,5,6,6],"right_children":[2,4,6,8,10,12,14,-1,-1,-1,-1,-1,-1,-1,-1],"split_conditions":[1.74E1,3E0,1E1,2E0,1E0,1.45E1,1.85E1,-6.0639232E-3,-2.57458E-2,-6.3471883E-3,6.9937E-3,1.4930035E-2,8.216482E-2,-1.6088268E-1,-3.107805E-2],"split_indices":[0,3,5,5,6,7,1,0,0,0,0,0,0,0,0],"split_type":[0,0,0,0,0,0,0,0,0,0,0,0,0,0,0],"sum_hessian":[3.1808E4,2.4475E4,7.333E3,9.15E3,1.5325E4,7.172E3,1.61E2,6.1E3,3.05E3,7.653E3,7.672E3,6.976E3,1.96E2,3.6E1,1.25E2],"tree_param":{"num_deleted":"0","num_feature":"8","num_nodes":"15","size_leaf_vector":"1"}},{"base_weights":[7.750827E-6,-1.6013663E-1,1.5807141E-1,-5.6014335E-1,-1.1615469E-1,-9.650955E-2,2.6722834E-1,2.8090242E-3,-3.6370628E-2,-5.562676E-3,-1.7143582E-1,-2.5149437E-3,-1.5050963E-1,1.2628856E-2,1.017128E-1],"categories":[],"categories_nodes":[],"categories_segments":[],"categories_sizes":[],"default_left":[0,0,0,0,0,0,0,0,0,0,0,0,0,0,0],"id":76,"left_children":[1,3,5,7,9,11,13,-1,-1,-1,-1,-1,-1,-1,-1],"loss_changes":[8.052067E2,2.77923E2,4.449044E2,1.6137982E2,2.3076239E2,6.4680945E2,2.895738E2,0E0,0E0,0E0,0E0,0E0,0E0,0E0,0E0],"parents":[2147483647,0,0,1,1,2,2,3,3,4,4,5,5,6,6],"right_children":[2,4,6,8,10,12,14,-1,-1,-1,-1,-1,-1,-1,-1],"split_conditions":[2.2E0,3.1014493E0,1.13E1,1.0666667E1,2.16E2,1.4342465E1,3.52E1,2.8090242E-3,-3.6370628E-2,-5.562676E-3,-1.7143582E-1,-2.5149437E-3,-1.5050963E-1,1.2628856E-2,1.017128E-1],"split_indices":[4,2,1,7,5,2,0,0,0,0,0,0,0,0,0],"split_type":[0,0,0,0,0,0,0,0,0,0,0,0,0,0,0],"sum_hessian":[3.1808E4,1.58E4,1.6008E4,1.564E3,1.4236E4,4.804E3,1.1204E4,3.34E2,1.23E3,1.4216E4,2E1,4.73E3,7.4E1,1.1113E4,9.1E1],"tree_param":{"num_deleted":"0","num_feature":"8","num_nodes":"15","size_leaf_vector":"1"}},{"base_weights":[-3.6024E-7,-1.0268896E-1,2.2373497E-1,-4.7735813E-1,-5.7704907E-2,1.6001876E-1,7.057792E-1,-2.2854386E-2,-4.1381192E-1,-9.42492E-3,3.5892136E-3,7.041063E-3,9.444571E-2,-8.324391E-2,4.13331E-2],"categories":[],"categories_nodes":[],"categories_segments":[],"categories_sizes":[],"default_left":[0,0,0,0,0,0,0,0,0,0,0,0,0,0,0],"id":77,"left_children":[1,3,5,7,9,11,13,-1,-1,-1,-1,-1,-1,-1,-1],"loss_changes":[7.308369E2,3.6744318E2,3.072424E2,3.6566547E2,3.2971332E2,2.931377E2,3.3609198E2,0E0,0E0,0E0,0E0,0E0,0E0,0E0,0E0],"parents":[2147483647,0,0,1,1,2,2,3,3,4,4,5,5,6,6],"right_children":[2,4,6,8,10,12,14,-1,-1,-1,-1,-1,-1,-1,-1],"split_conditions":[3.4E0,1.4E0,2.7E1,2.1170454E1,1E0,1.5E1,3E0,-2.2854386E-2,-4.1381192E-1,-9.42492E-3,3.5892136E-3,7.041063E-3,9.444571E-2,-8.324391E-2,4.13331E-2],"split_indices":[4,3,0,2,6,7,3,0,0,0,0,0,0,0,0],"split_type":[0,0,0,0,0,0,0,0,0,0,0,0,0,0,0],"sum_hessian":[3.1808E4,2.1802E4,1.0006E4,2.336E3,1.9466E4,8.839E3,1.167E3,2.331E3,5E0,9.684E3,9.782E3,8.743E3,9.6E1,5.6E1,1.111E3],"tree_param":{"num_deleted":"0","num_feature":"8","num_nodes":"15","size_leaf_vector":"1"}},{"base_weights":[-1.2554696E-5,-1.5575881E-1,1.3748111E-1,-2.5200534E-1,1.2019807E-2,1.5507548E-1,-1.0490209E0,-1.1947334E-2,-8.376762E-2,1.1153462E-2,-7.946537E-3,-1.2270175E-2,1.0493105E-2,-4.634053E-2,-3.3893177E-1],"categories":[],"categories_nodes":[],"categories_segments":[],"categories_sizes":[],"default_left":[0,0,0,0,0,0,0,0,0,0,0,0,0,0,0],"id":78,"left_children":[1,3,5,7,9,11,13,-1,-1,-1,-1,-1,-1,-1,-1],"loss_changes":[6.8118335E2,2.4085199E2,3.5285837E2,1.7576715E2,1.9623314E2,3.653453E2,1.6667123E2,0E0,0E0,0E0,0E0,0E0,0E0,0E0,0E0],"parents":[2147483647,0,0,1,1,2,2,3,3,4,4,5,5,6,6],"right_children":[2,4,6,8,10,12,14,-1,-1,-1,-1,-1,-1,-1,-1],"split_conditions":[9.8E0,1.8E0,1.8E1,1.5266666E1,1.16E1,1.01E1,3.32E1,-1.1947334E-2,-8.376762E-2,1.1153462E-2,-7.946537E-3,-1.2270175E-2,1.0493105E-2,-4.634053E-2,-3.3893177E-1],"split_indices":[2,4,5,7,7,7,1,0,0,0,0,0,0,0,0],"split_type":[0,0,0,0,0,0,0,0,0,0,0,0,0,0,0],"sum_hessian":[3.1808E4,1.4914E4,1.6894E4,9.477E3,5.437E3,1.6648E4,2.46E2,9.392E3,8.5E1,2.433E3,3.004E3,2.003E3,1.4645E4,2.42E2,4E0],"tree_param":{"num_deleted":"0","num_feature":"8","num_nodes":"15","size_leaf_vector":"1"}},{"base_weights":[-2.6866031E-5,-7.149399E-2,2.8118506E-1,-1.7231368E-1,5.490647E-2,3.1497973E-1,-1.2544839E0,-8.375992E-3,-2.0682739E-1,-6.348447E-3,1.18677365E-2,1.4240612E-2,9.148118E-2,-2.0897138E-1,-3.492621E-2],"categories":[],"categories_nodes":[],"categories_segments":[],"categories_sizes":[],"default_left":[0,0,0,0,0,0,0,0,0,0,0,0,0,0,0],"id":79,"left_children":[1,3,5,7,9,11,13,-1,-1,-1,-1,-1,-1,-1,-1],"loss_changes":[6.392986E2,3.2323944E2,3.3492596E2,2.6745178E2,3.735031E2,2.877105E2,2.2311551E2,0E0,0E0,0E0,0E0,0E0,0E0,0E0,0E0],"parents":[2147483647,0,0,1,1,2,2,3,3,4,4,5,5,6,6],"right_children":[2,4,6,8,10,12,14,-1,-1,-1,-1,-1,-1,-1,-1],"split_conditions":[1.84E1,4E0,1E1,1.1E1,1E0,3.32E1,1.85E1,-8.375992E-3,-2.0682739E-1,-6.348447E-3,1.18677365E-2,1.4240612E-2,9.148118E-2,-2.0897138E-1,-3.492621E-2],"split_indices":[0,3,5,4,6,1,1,0,0,0,0,0,0,0,0],"split_type":[0,0,0,0,0,0,0,0,0,0,0,0,0,0,0],"sum_hessian":[3.1808E4,2.5363E4,6.445E3,1.4109E4,1.1254E4,6.307E3,1.38E2,1.4093E4,1.6E1,5.636E3,5.618E3,6.185E3,1.22E2,2.1E1,1.17E2],"tree_param":{"num_deleted":"0","num_feature":"8","num_nodes":"15","size_leaf_vector":"1"}},{"base_weights":[-3.6320336E-5,-1.3748014E-1,1.3562174E-1,-5.0032735E-1,-9.758456E-2,5.5651113E-2,4.167778E-1,4.8278966E-3,-3.2811992E-2,-4.647368E-3,-1.6161612E-1,3.0700294E-3,-1.961761E-1,1.3260479E-2,5.246078E-2],"categories":[],"categories_nodes":[],"categories_segments":[],"categories_sizes":[],"default_left":[0,0,0,0,0,0,0,0,0,0,0,0,0,0,0],"id":80,"left_children":[1,3,5,7,9,11,13,-1,-1,-1,-1,-1,-1,-1,-1],"loss_changes":[5.9310895E2,2.2868637E2,3.5992682E2,1.457052E2,2.0665439E2,2.8541708E2,3.3953638E2,0E0,0E0,0E0,0E0,0E0,0E0,0E0,0E0],"parents":[2147483647,0,0,1,1,2,2,3,3,4,4,5,5,6,6],"right_children":[2,4,6,8,10,12,14,-1,-1,-1,-1,-1,-1,-1,-1],"split_conditions":[2.2E0,3.1014493E0,7E0,1.0633333E1,2.16E2,1.3E1,2.52E1,4.8278966E-3,-3.2811992E-2,-4.647368E-3,-1.6161612E-1,3.0700294E-3,-1.961761E-1,1.3260479E-2,5.246078E-2],"split_indices":[4,2,3,7,5,4,0,0,0,0,0,0,0,0,0],"split_type":[0,0,0,0,0,0,0,0,0,0,0,0,0,0,0],"sum_hessian":[3.1808E4,1.58E4,1.6008E4,1.564E3,1.4236E4,1.2464E4,3.544E3,3.24E2,1.24E3,1.4216E4,2E1,1.2447E4,1.7E1,2.86E3,6.84E2],"tree_param":{"num_deleted":"0","num_feature":"8","num_nodes":"15","size_leaf_vector":"1"}},{"base_weights":[-4.475156E-5,-8.8972405E-2,1.9370858E-1,-4.2440453E-1,-4.8699435E-2,1.1205148E-1,5.024149E-1,-2.0245818E-2,-3.9640322E-1,-8.440042E-3,3.5101918E-3,7.1402597E-3,-5.5632543E-2,1.5612152E-2,7.550935E-2],"categories":[],"categories_nodes":[],"categories_segments":[],"categories_sizes":[],"default_left":[0,0,0,0,0,0,0,0,0,0,0,0,0,0,0],"id":81,"left_children":[1,3,5,7,9,11,13,-1,-1,-1,-1,-1,-1,-1,-1],"loss_changes":[5.480872E2,2.945127E2,2.522008E2,3.3853506E2,2.7800934E2,2.982706E2,4.006516E2,0E0,0E0,0E0,0E0,0E0,0E0,0E0,0E0],"parents":[2147483647,0,0,1,1,2,2,3,3,4,4,5,5,6,6],"right_children":[2,4,6,8,10,12,14,-1,-1,-1,-1,-1,-1,-1,-1],"split_conditions":[3.4E0,1.4E0,2.3545454E1,2.1170454E1,1E0,1.24E1,1E1,-2.0245818E-2,-3.9640322E-1,-8.440042E-3,3.5101918E-3,7.1402597E-3,-5.5632543E-2,1.5612152E-2,7.550935E-2],"split_indices":[4,3,2,2,6,3,3,0,0,0,0,0,0,0,0],"split_type":[0,0,0,0,0,0,0,0,0,0,0,0,0,0,0],"sum_hessian":[3.1808E4,2.1802E4,1.0006E4,2.336E3,1.9466E4,7.914E3,2.092E3,2.331E3,5E0,9.684E3,9.782E3,7.721E3,1.93E2,1.761E3,3.31E2],"tree_param":{"num_deleted":"0","num_feature":"8","num_nodes":"15","size_leaf_vector":"1"}},{"base_weights":[-5.450727E-5,-1.0800807E-1,1.5287492E-1,-1.1160699E-1,5.059224E0,6.1304484E-2,5.236291E-1,-2.7243946E-2,-4.214549E-3,4.735756E-1,-1.9473688E-1,4.2036357E-3,-1.1366313E-1,2.7818872E-2,-1.6747925E-1],"categories":[],"categories_nodes":[],"categories_segments":[],"categories_sizes":[],"default_left":[0,0,0,0,0,0,0,0,0,0,0,0,0,0,0],"id":82,"left_children":[1,3,5,7,9,11,13,-1,-1,-1,-1,-1,-1,-1,-1],"loss_changes":[5.2516003E2,3.4733347E2,4.4685342E2,2.205042E2,5.504859E2,5.613372E2,3.3253845E2,0E0,0E0,0E0,0E0,0E0,0E0,0E0,0E0],"parents":[2147483647,0,0,1,1,2,2,3,3,4,4,5,5,6,6],"right_children":[2,4,6,8,10,12,14,-1,-1,-1,-1,-1,-1,-1,-1],"split_conditions":[4.6E0,3.54E1,2.2E1,1.8E0,3.86E1,2.4E1,1.92E2,-2.7243946E-2,-4.214549E-3,4.735756E-1,-1.9473688E-1,4.2036357E-3,-1.1366313E-1,2.7818872E-2,-1.6747925E-1],"split_indices":[3,0,0,0,0,1,5,0,0,0,0,0,0,0,0],"split_type":[0,0,0,0,0,0,0,0,0,0,0,0,0,0,0],"sum_hessian":[3.1808E4,1.8646E4,1.3162E4,1.8634E4,1.2E1,1.0556E4,2.606E3,1.104E3,1.753E4,8E0,4E0,1.0455E4,1.01E2,2.585E3,2.1E1],"tree_param":{"num_deleted":"0","num_feature":"8","num_nodes":"15","size_leaf_vector":"1"}},{"base_weights":[-5.1833194E-5,-1.2938459E-1,1.1781093E-1,2.036992E-1,-1.894898E-1,1.34371E-1,-1.0097934E0,-1.889612E-1,1.165057E-2,-8.769392E-3,-8.176164E-2,-1.1775948E-2,8.969199E-3,2.450155E-1,-5.7788577E-2],"categories":[],"categories_nodes":[],"categories_segments":[],"categories_sizes":[],"default_left":[0,0,0,0,0,0,0,0,0,0,0,0,0,0,0],"id":83,"left_children":[1,3,5,7,9,11,13,-1,-1,-1,-1,-1,-1,-1,-1],"loss_changes":[4.848962E2,3.0368304E2,3.1091385E2,2.7161972E2,2.6167624E2,2.7314963E2,2.1358533E2,0E0,0E0,0E0,0E0,0E0,0E0,0E0,0E0],"parents":[2147483647,0,0,1,1,2,2,3,3,4,4,5,5,6,6],"right_children":[2,4,6,8,10,12,14,-1,-1,-1,-1,-1,-1,-1,-1],"split_conditions":[1.04E1,1E0,2.2E1,8.366667E0,1.4642858E1,1.4E0,8.366667E0,-1.889612E-1,1.165057E-2,-8.769392E-3,-8.176164E-2,-1.1775948E-2,8.969199E-3,2.450155E-1,-5.7788577E-2],"split_indices":[0,5,5,7,2,4,7,0,0,0,0,0,0,0,0],"split_type":[0,0,0,0,0,0,0,0,0,0,0,0,0,0,0],"sum_hessian":[3.1808E4,1.5166E4,1.6642E4,2.318E3,1.2848E4,1.6402E4,2.4E2,1.6E1,2.302E3,1.2725E4,1.23E2,1.779E3,1.4623E4,5E0,2.35E2],"tree_param":{"num_deleted":"0","num_feature":"8","num_nodes":"15","size_leaf_vector":"1"}},{"base_weights":[-5.172054E-5,-1.0079492E-1,1.4266334E-1,-1.06850624E-1,2.791293E0,5.7009064E-2,4.894641E-1,-5.253475E-3,-3.3565158E-1,-1.3582014E-1,2.0404945E-1,3.9357073E-3,-1.0842667E-1,2.6005283E-2,-1.5672784E-1],"categories":[],"categories_nodes":[],"categories_segments":[],"categories_sizes":[],"default_left":[0,0,0,0,0,0,0,0,0,0,0,0,0,0,0],"id":84,"left_children":[1,3,5,7,9,11,13,-1,-1,-1,-1,-1,-1,-1,-1],"loss_changes":[4.5735056E2,3.26875E2,3.9097864E2,2.1825572E2,2.8811246E2,5.1013257E2,2.9112604E2,0E0,0E0,0E0,0E0,0E0,0E0,0E0,0E0],"parents":[2147483647,0,0,1,1,2,2,3,3,4,4,5,5,6,6],"right_children":[2,4,6,8,10,12,14,-1,-1,-1,-1,-1,-1,-1,-1],"split_conditions":[4.6E0,3.3E1,2.2E1,3.32E1,2.94E1,2.4E1,1.92E2,-5.253475E-3,-3.3565158E-1,-1.3582014E-1,2.0404945E-1,3.9357073E-3,-1.0842667E-1,2.6005283E-2,-1.5672784E-1],"split_indices":[3,0,0,1,1,1,5,0,0,0,0,0,0,0,0],"split_type":[0,0,0,0,0,0,0,0,0,0,0,0,0,0,0],"sum_hessian":[3.1808E4,1.8646E4,1.3162E4,1.8608E4,3.8E1,1.0556E4,2.606E3,1.8604E4,4E0,7E0,3.1E1,1.0455E4,1.01E2,2.585E3,2.1E1],"tree_param":{"num_deleted":"0","num_feature":"8","num_nodes":"15","size_leaf_vector":"1"}},{"base_weights":[-6.503147E-5,-3.794962E-2,3.6469284E-1,-3.7044943E-3,-3.9765185E-1,6.3363233E0,3.4455845E-1,-5.222251E-3,4.869457E-3,-1.8269699E-2,-1.5233731E-1,-6.49397E-2,4.8970294E-1,-7.2133145E-3,2.4975505E-2],"categories":[],"categories_nodes":[],"categories_segments":[],"categories_sizes":[],"default_left":[0,0,0,0,0,0,0,0,0,0,0,0,0,0,0],"id":85,"left_children":[1,3,5,7,9,11,13,-1,-1,-1,-1,-1,-1,-1,-1],"loss_changes":[4.3957297E2,3.5496774E2,3.5768036E2,2.679877E2,2.1294937E2,2.7672253E2,2.2609268E2,0E0,0E0,0E0,0E0,0E0,0E0,0E0,0E0],"parents":[2147483647,0,0,1,1,2,2,3,3,4,4,5,5,6,6],"right_children":[2,4,6,8,10,12,14,-1,-1,-1,-1,-1,-1,-1,-1],"split_conditions":[6.2E0,4E0,5.6E0,1E0,2.82E1,7.2E0,1.6093334E1,-5.222251E-3,4.869457E-3,-1.8269699E-2,-1.5233731E-1,