{"learner":{"attributes":{},"feature_names":["L5_PTS","L10_PTS","SEASON_AVG_PTS","L10_PTS_STD","RECENT_TREND_PTS","IS_HOME","REST_DAYS","IS_BACK_TO_BACK","IS_RESTED","L5_MIN","L10_MIN","USAGE_RATE","FT_RATE","PPM_L5","PPM_L10","L5_FG_PCT","L5_FG3_PCT","L5_FG3M","L5_REB","L5_AST","VS_OPP_AVG_PTS","OPP_DEF_STRENGTH_PTS","OPP_PACE","TEAM_PACE","L5_WIN_PCT","L5_PLUS_MINUS"],"feature_types":["float","float","float","float","float","int","float","int","int","float","float","float","float","float","float","float","float","float","float","float","float","float","float","float","float","float"],"gradient_booster":{"model":{"cats":{"enc":[],"feature_segments":[],"sorted_idx":[]},"gbtree_model_param":{"num_parallel_tree":"1","num_trees":"1000"},"iteration_indptr":[0,1,2,3,4,5,6,7,8,9,10,11,12,13,14,15,16,17,18,19,20,21,22,23,24,25,26,27,28,29,30,31,32,33,34,35,36,37,38,39,40,41,42,43,44,45,46,47,48,49,50,51,52,53,54,55,56,57,58,59,60,61,62,63,64,65,66,67,68,69,70,71,72,73,74,75,76,77,78,79,80,81,82,83,84,85,86,87,88,89,90,91,92,93,94,95,96,97,98,99,100,101,102,103,104,105,106,107,108,109,110,111,112,113,114,115,116,117,118,119,120,121,122,123,124,125,126,127,128,129,130,131,132,133,134,135,136,137,138,139,140,141,142,143,144,145,146,147,148,149,150,151,152,153,154,155,156,157,158,159,160,161,162,163,164,165,166,167,168,169,170,171,172,173,174,175,176,177,178,179,180,181,182,183,184,185,186,187,188,189,190,191,192,193,194,195,196,197,198,199,200,201,202,203,204,205,206,207,208,209,210,211,212,213,214,215,216,217,218,219,220,221,222,223,224,225,226,227,228,229,230,231,232,233,234,235,236,237,238,239,240,241,242,243,244,245,246,247,248,249,250,251,252,253,254,255,256,257,258,259,260,261,262,263,264,265,266,267,268,269,270,271,272,273,274,275,276,277,278,279,280,281,282,283,284,285,286,287,288,289,290,291,292,293,294,295,296,297,298,299,300,301,302,303,304,305,306,307,308,309,310,311,312,313,314,315,316,317,318,319,320,321,322,323,324,325,326,327,328,329,330,331,332,333,334,335,336,337,338,339,340,341,342,343,344,345,346,347,348,349,350,351,352,353,354,355,356,357,358,359,360,361,362,363,364,365,366,367,368,369,370,371,372,373,374,375,376,377,378,379,380,381,382,383,384,385,386,387,388,389,390,391,392,393,394,395,396,397,398,399,400,401,402,403,404,405,406,407,408,409,410,411,412,413,414,415,416,417,418,419,420,421,422,423,424,425,426,427,428,429,430,431,432,433,434,435,436,437,438,439,440,441,442,443,444,445,446,447,448,449,450,451,452,453,454,455,456,457,458,459,460,461,462,463,464,465,466,467,468,469,470,471,472,473,474,475,476,477,478,479,480,481,482,483,484,485,486,487,488,489,490,491,492,493,494,495,496,497,498,499,500,501,502,503,504,505,506,507,508,509,510,511,512,513,514,515,516,517,518,519,520,521,522,523,524,525,526,527,528,529,530,531,532,533,534,535,536,537,538,539,540,541,542,543,544,545,546,547,548,549,550,551,552,553,554,555,556,557,558,559,560,561,562,563,564,565,566,567,568,569,570,571,572,573,574,575,576,577,578,579,580,581,582,583,584,585,586,587,588,589,590,591,592,593,594,595,596,597,598,599,600,601,602,603,604,605,606,607,608,609,610,611,612,613,614,615,616,617,618,619,620,621,622,623,624,625,626,627,628,629,630,631,632,633,634,635,636,637,638,639,640,641,642,643,644,645,646,647,648,649,650,651,652,653,654,655,656,657,658,659,660,661,662,663,664,665,666,667,668,669,670,671,672,673,674,675,676,677,678,679,680,681,682,683,684,685,686,687,688,689,690,691,692,693,694,695,696,697,698,699,700,701,702,703,704,705,706,707,708,709,710,711,712,713,714,715,716,717,718,719,720,721,722,723,724,725,726,727,728,729,730,731,732,733,734,735,736,737,738,739,740,741,742,743,744,745,746,747,748,749,750,751,752,753,754,755,756,757,758,759,760,761,762,763,764,765,766,767,768,769,770,771,772,773,774,775,776,777,778,779,780,781,782,783,784,785,786,787,788,789,790,791,792,793,794,795,796,797,798,799,800,801,802,803,804,805,806,807,808,809,810,811,812,813,814,815,816,817,818,819,820,821,822,823,824,825,826,827,828,829,830,831,832,833,834,835,836,837,838,839,840,841,842,843,844,845,846,847,848,849,850,851,852,853,854,855,856,857,858,859,860,861,862,863,864,865,866,867,868,869,870,871,872,873,874,875,876,877,878,879,880,881,882,883,884,885,886,887,888,889,890,891,892,893,894,895,896,897,898,899,900,901,902,903,904,905,906,907,908,909,910,911,912,913,914,915,916,917,918,919,920,921,922,923,924,925,926,927,928,929,930,931,932,933,934,935,936,937,938,939,940,941,942,943,944,945,946,947,948,949,950,951,952,953,954,955,956,957,958,959,960,961,962,963,964,965,966,967,968,969,970,971,972,973,974,975,976,977,978,979,980,981,982,983,984,985,986,987,988,989,990,991,992,993,994,995,996,997,998,999,1000],"tree_info":[0,0,0,0,0,0,0,0,0,0,0,0,0,0,0,0,0,0,0,0,0,0,0,0,0,0,0,0,0,0,0,0,0,0,0,0,0,0,0,0,0,0,0,0,0,0,0,0,0,0,0,0,0,0,0,0,0,0,0,0,0,0,0,0,0,0,0,0,0,0,0,0,0,0,0,0,0,0,0,0,0,0,0,0,0,0,0,0,0,0,0,0,0,0,0,0,0,0,0,0,0,0,0,0,0,0,0,0,0,0,0,0,0,0,0,0,0,0,0,0,0,0,0,0,0,0,0,0,0,0,0,0,0,0,0,0,0,0,0,0,0,0,0,0,0,0,0,0,0,0,0,0,0,0,0,0,0,0,0,0,0,0,0,0,0,0,0,0,0,0,0,0,0,0,0,0,0,0,0,0,0,0,0,0,0,0,0,0,0,0,0,0,0,0,0,0,0,0,0,0,0,0,0,0,0,0,0,0,0,0,0,0,0,0,0,0,0,0,0,0,0,0,0,0,0,0,0,0,0,0,0,0,0,0,0,0,0,0,0,0,0,0,0,0,0,0,0,0,0,0,0,0,0,0,0,0,0,0,0,0,0,0,0,0,0,0,0,0,0,0,0,0,0,0,0,0,0,0,0,0,0,0,0,0,0,0,0,0,0,0,0,0,0,0,0,0,0,0,0,0,0,0,0,0,0,0,0,0,0,0,0,0,0,0,0,0,0,0,0,0,0,0,0,0,0,0,0,0,0,0,0,0,0,0,0,0,0,0,0,0,0,0,0,0,0,0,0,0,0,0,0,0,0,0,0,0,0,0,0,0,0,0,0,0,0,0,0,0,0,0,0,0,0,0,0,0,0,0,0,0,0,0,0,0,0,0,0,0,0,0,0,0,0,0,0,0,0,0,0,0,0,0,0,0,0,0,0,0,0,0,0,0,0,0,0,0,0,0,0,0,0,0,0,0,0,0,0,0,0,0,0,0,0,0,0,0,0,0,0,0,0,0,0,0,0,0,0,0,0,0,0,0,0,0,0,0,0,0,0,0,0,0,0,0,0,0,0,0,0,0,0,0,0,0,0,0,0,0,0,0,0,0,0,0,0,0,0,0,0,0,0,0,0,0,0,0,0,0,0,0,0,0,0,0,0,0,0,0,0,0,0,0,0,0,0,0,0,0,0,0,0,0,0,0,0,0,0,0,0,0,0,0,0,0,0,0,0,0,0,0,0,0,0,0,0,0,0,0,0,0,0,0,0,0,0,0,0,0,0,0,0,0,0,0,0,0,0,0,0,0,0,0,0,0,0,0,0,0,0,0,0,0,0,0,0,0,0,0,0,0,0,0,0,0,0,0,0,0,0,0,0,0,0,0,0,0,0,0,0,0,0,0,0,0,0,0,0,0,0,0,0,0,0,0,0,0,0,0,0,0,0,0,0,0,0,0,0,0,0,0,0,0,0,0,0,0,0,0,0,0,0,0,0,0,0,0,0,0,0,0,0,0,0,0,0,0,0,0,0,0,0,0,0,0,0,0,0,0,0,0,0,0,0,0,0,0,0,0,0,0,0,0,0,0,0,0,0,0,0,0,0,0,0,0,0,0,0,0,0,0,0,0,0,0,0,0,0,0,0,0,0,0,0,0,0,0,0,0,0,0,0,0,0,0,0,0,0,0,0,0,0,0,0,0,0,0,0,0,0,0,0,0,0,0,0,0,0,0,0,0,0,0,0,0,0,0,0,0,0,0,0,0,0,0,0,0,0,0,0,0,0,0,0,0,0,0,0,0,0,0,0,0,0,0,0,0,0,0,0,0,0,0,0,0,0,0,0,0,0,0,0,0,0,0,0,0,0,0,0,0,0,0,0,0,0,0,0,0,0,0,0,0,0,0,0,0,0,0,0,0,0,0,0,0,0,0,0,0,0,0,0,0,0,0,0,0,0,0,0,0,0,0,0,0,0,0,0,0,0,0,0,0,0,0,0,0,0,0,0,0,0,0,0,0,0,0,0,0,0,0,0,0,0,0,0,0,0,0,0,0,0,0,0,0,0,0,0,0,0,0,0,0,0,0,0,0,0,0,0,0,0,0,0,0,0,0,0,0,0,0,0,0,0,0,0,0,0,0,0,0,0,0,0,0,0,0,0,0,0,0,0,0,0,0,0,0,0,0,0,0,0,0,0,0,0,0,0,0,0,0,0,0,0,0,0,0,0,0,0,0,0,0,0,0,0,0,0,0,0,0,0,0,0,0,0,0,0,0,0,0],"trees":[{"base_weights":[5.3449105E-3,-3.4836566E0,8.259176E0,-5.7110066E0,-8.1266266E-1,6.0600886E0,1.3015981E1,-6.841333E0,-4.308367E0,-1.7446647E0,1.0839666E0,4.433544E0,8.271028E0,1.2223231E1,1.8659742E1,-7.65334E0,-6.289396E0,-5.084262E0,-3.7109401E0,-2.5594058E0,-7.5639373E-1,5.305788E-1,2.6642718E0,3.5266924E0,6.15701E0,6.667343E0,9.119121E0,1.0198744E1,1.3218562E1,1.38077545E1,1.9086525E1,-4.368237E-1,-3.7370434E-1,-3.318123E-1,-2.516709E-1,-2.8280345E-1,-2.1685036E-1,-2.0325051E-1,-1.3468413E-1,-1.6485235E-1,-1.0616615E-1,-5.1563706E-2,2.5929315E-2,-3.105711E-2,4.969597E-2,-8.020999E-2,1.4937876E-1,5.222947E-2,1.949791E-1,1.1690762E-1,3.240575E-1,3.1443837E-1,4.4111052E-1,3.9121863E-1,4.900716E-1,4.2234132E-1,5.5020165E-1,6.456403E-1,7.651376E-1,5.6076807E-1,9.799056E-1,9.9306625E-1,8.155001E-1],"categories":[],"categories_nodes":[],"categories_segments":[],"categories_sizes":[],"default_left":[0,0,0,0,0,0,0,0,0,0,0,0,0,0,0,0,0,0,0,0,0,0,0,0,0,0,0,0,0,0,0,0,0,0,0,0,0,0,0,0,0,0,0,0,0,0,0,0,0,0,0,0,0,0,0,0,0,0,0,0,0,0,0],"id":0,"left_children":[1,3,5,7,9,11,13,15,17,19,21,23,25,27,29,31,33,35,37,39,41,43,45,47,49,51,53,55,57,59,61,-1,-1,-1,-1,-1,-1,-1,-1,-1,-1,-1,-1,-1,-1,-1,-1,-1,-1,-1,-1,-1,-1,-1,-1,-1,-1,-1,-1,-1,-1,-1,-1],"loss_changes":[7.244049E5,1.0518316E5,7.810197E4,1.5254656E4,1.4215731E4,1.8349375E4,1.0336625E4,2.3423906E3,1.9757891E3,4.339289E3,2.3157485E3,4.584828E3,2.8835469E3,4.0420312E3,3.316172E2,3.514922E2,1.3520625E3,7.734961E2,8.6577344E2,9.43E2,8.5502454E2,1.0487217E3,9.52999E2,1.7854473E3,1.2403789E3,5.5729297E2,1.1707031E3,8.757344E2,6.834531E2,1.824126E2,2.3822656E2,0E0,0E0,0E0,0E0,0E0,0E0,0E0,0E0,0E0,0E0,0E0,0E0,0E0,0E0,0E0,0E0,0E0,0E0,0E0,0E0,0E0,0E0,0E0,0E0,0E0,0E0,0E0,0E0,0E0,0E0,0E0,0E0],"parents":[2147483647,0,0,1,1,2,2,3,3,4,4,5,5,6,6,7,7,8,8,9,9,10,10,11,11,12,12,13,13,14,14,15,15,16,16,17,17,18,18,19,19,20,20,21,21,22,22,23,23,24,24,25,25,26,26,27,27,28,28,29,29,30,30],"right_children":[2,4,6,8,10,12,14,16,18,20,22,24,26,28,30,32,34,36,38,40,42,44,46,48,50,52,54,56,58,60,62,-1,-1,-1,-1,-1,-1,-1,-1,-1,-1,-1,-1,-1,-1,-1,-1,-1,-1,-1,-1,-1,-1,-1,-1,-1,-1,-1,-1,-1,-1,-1,-1],"split_conditions":[1.4818182E1,9.2E0,2.2551401E1,6.5E0,1.3E1,1.93E1,2.9947369E1,4E0,7.4864864E0,1.0944445E1,1.58E1,1.7875E1,1.94E1,2.4357143E1,4E-1,1.4234875E-1,6.5833335E0,8E0,9.928572E0,1E1,3.12E1,1.1553572E1,1.32E1,1.33E1,1.44E1,2.2666666E1,4.6831957E-1,-1.1E0,8.208955E-1,6.117647E-1,8.621034E0,-4.368237E-1,-3.7370434E-1,-3.318123E-1,-2.516709E-1,-2.8280345E-1,-2.1685036E-1,-2.0325051E-1,-1.3468413E-1,-1.6485235E-1,-1.0616615E-1,-5.1563706E-2,2.5929315E-2,-3.105711E-2,4.969597E-2,-8.020999E-2,1.4937876E-1,5.222947E-2,1.949791E-1,1.1690762E-1,3.240575E-1,3.1443837E-1,4.4111052E-1,3.9121863E-1,4.900716E-1,4.2234132E-1,5.5020165E-1,6.456403E-1,7.651376E-1,5.6076807E-1,9.799056E-1,9.9306625E-1,8.155001E-1],"split_indices":[2,1,2,1,1,1,2,0,2,2,1,2,2,2,24,11,2,0,2,0,9,2,0,1,1,1,11,4,14,11,3,0,0,0,0,0,0,0,0,0,0,0,0,0,0,0,0,0,0,0,0,0,0,0,0,0,0,0,0,0,0,0,0],"split_type":[0,0,0,0,0,0,0,0,0,0,0,0,0,0,0,0,0,0,0,0,0,0,0,0,0,0,0,0,0,0,0,0,0,0,0,0,0,0,0,0,0,0,0,0,0,0,0,0,0,0,0,0,0,0,0,0,0,0,0,0,0,0,0],"sum_hessian":[2.5153E4,1.768E4,7.473E3,9.64E3,8.04E3,5.112E3,2.361E3,5.336E3,4.304E3,5.391E3,2.649E3,2.947E3,2.165E3,2.073E3,2.88E2,2.154E3,3.182E3,1.869E3,2.435E3,2.954E3,2.437E3,1.963E3,6.86E2,1.933E3,1.014E3,7.52E2,1.413E3,6.87E2,1.386E3,2.6E1,2.62E2,2.99E2,1.855E3,2.49E3,6.92E2,1.055E3,8.14E2,1.804E3,6.31E2,1.095E3,1.859E3,2.005E3,4.32E2,5.63E2,1.4E3,4.8E1,6.38E2,2.53E2,1.68E3,8E1,9.34E2,6.43E2,1.09E2,4.92E2,9.21E2,2.2E2,4.67E2,1.215E3,1.71E2,2E1,6E0,2E2,6.2E1],"tree_param":{"num_deleted":"0","num_feature":"26","num_nodes":"63","size_leaf_vector":"1"}},{"base_weights":[-1.0595509E-2,-3.1411707E0,7.696016E0,-5.10332E0,-3.3297157E-1,5.4364886E0,1.1554654E1,-6.2333093E0,-3.4522235E0,-1.2942274E0,2.3680546E0,3.30637E0,6.75643E0,1.0772393E1,1.596255E1,-6.8750405E0,-5.1788597E0,-6.0491652E0,-3.032202E0,-2.0658777E0,-2.1857688E-1,3.111035E0,1.2325555E0,2.8310952E0,9.638861E0,6.3750014E0,1.0390672E1,8.874065E0,1.1551903E1,1.4448586E1,1.8098627E1,-3.6741662E-1,-2.951948E-1,-2.6611367E-1,-1.7370306E-1,-3.4244314E-1,-2.4203661E-1,-1.6759935E-1,-8.3524935E-2,-1.340159E-1,-7.225158E-2,-4.3085262E-2,2.6898874E-2,1.2062329E-1,2.2607516E-1,-3.9490383E-2,8.3354644E-2,1.00334845E-1,2.2327974E-1,3.6497155E-1,7.654721E-1,1.7620993E-1,3.2834685E-1,6.230125E-1,4.417142E-1,3.2622203E-1,4.806018E-1,5.2748317E-1,6.1228347E-1,2.7253622E-1,7.3861605E-1,4.0383515E-1,9.280079E-1],"categories":[],"categories_nodes":[],"categories_segments":[],"categories_sizes":[],"default_left":[0,0,1,0,1,0,0,0,0,1,0,0,0,0,0,0,0,0,0,0,0,0,0,0,0,0,0,0,0,0,0,0,0,0,0,0,0,0,0,0,0,0,0,0,0,0,0,0,0,0,0,0,0,0,0,0,0,0,0,0,0,0,0],"id":1,"left_children":[1,3,5,7,9,11,13,15,17,19,21,23,25,27,29,31,33,35,37,39,41,43,45,47,49,51,53,55,57,59,61,-1,-1,-1,-1,-1,-1,-1,-1,-1,-1,-1,-1,-1,-1,-1,-1,-1,-1,-1,-1,-1,-1,-1,-1,-1,-1,-1,-1,-1,-1,-1,-1],"loss_changes":[6.110179E5,9.9234766E4,6.37215E4,1.9757906E4,1.9239518E4,1.2955156E4,9.13875E3,4.2215E3,4.6819727E3,4.535413E3,1.6366367E3,5.2925684E3,3.881375E3,3.2944688E3,1.0449844E3,1.752E3,5.637422E2,5.44541E2,1.6102969E3,1.2095615E3,1.1118025E3,1.1461367E3,6.7895325E2,2.2083408E3,1.5176973E3,1.3880938E3,7.542617E2,1.1026289E3,9.984375E2,6.223867E2,6.06E2,0E0,0E0,0E0,0E0,0E0,0E0,0E0,0E0,0E0,0E0,0E0,0E0,0E0,0E0,0E0,0E0,0E0,0E0,0E0,0E0,0E0,0E0,0E0,0E0,0E0,0E0,0E0,0E0,0E0,0E0,0E0,0E0],"parents":[2147483647,0,0,1,1,2,2,3,3,4,4,5,5,6,6,7,7,8,8,9,9,10,10,11,11,12,12,13,13,14,14,15,15,16,16,17,17,18,18,19,19,20,20,21,21,22,22,23,23,24,24,25,25,26,26,27,27,28,28,29,29,30,30],"right_children":[2,4,6,8,10,12,14,16,18,20,22,24,26,28,30,32,34,36,38,40,42,44,46,48,50,52,54,56,58,60,62,-1,-1,-1,-1,-1,-1,-1,-1,-1,-1,-1,-1,-1,-1,-1,-1,-1,-1,-1,-1,-1,-1,-1,-1,-1,-1,-1,-1,-1,-1,-1,-1],"split_conditions":[1.58E1,9.8E0,1.66E1,6.15E0,1.09E1,1.27E1,8.208955E-1,6E0,5.2E0,8.7E0,-5E-1,2.32E1,2.52E1,2.2E1,2.506964E-1,4.5E0,7.4E0,1.85E1,9.3E0,2.54E1,1.28E1,1.38E1,1.0433333E1,1.3293052E-1,7.3458445E-1,4.8039216E-1,1.8E0,5.4151624E-1,1.825E1,3.12E1,3.2E1,-3.6741662E-1,-2.951948E-1,-2.6611367E-1,-1.7370306E-1,-3.4244314E-1,-2.4203661E-1,-1.6759935E-1,-8.3524935E-2,-1.340159E-1,-7.225158E-2,-4.3085262E-2,2.6898874E-2,1.2062329E-1,2.2607516E-1,-3.9490383E-2,8.3354644E-2,1.00334845E-1,2.2327974E-1,3.6497155E-1,7.654721E-1,1.7620993E-1,3.2834685E-1,6.230125E-1,4.417142E-1,3.2622203E-1,4.806018E-1,5.2748317E-1,6.1228347E-1,2.7253622E-1,7.3861605E-1,4.0383515E-1,9.280079E-1],"split_indices":[0,0,23,23,23,23,14,0,0,23,4,0,0,0,12,23,18,10,23,10,0,23,21,12,14,14,4,13,23,10,10,0,0,0,0,0,0,0,0,0,0,0,0,0,0,0,0,0,0,0,0,0,0,0,0,0,0,0,0,0,0,0,0],"split_type":[0,0,0,0,0,0,0,0,0,0,0,0,0,0,0,0,0,0,0,0,0,0,0,0,0,0,0,0,0,0,0,0,0,0,0,0,0,0,0,0,0,0,0,0,0,0,0,0,0,0,0,0,0,0,0,0,0,0,0,0,0,0,0],"sum_hessian":[2.5324E4,1.8009E4,7.315E3,1.0601E4,7.408E3,4.615E3,2.7E3,6.292E3,4.309E3,5.464E3,1.944E3,1.767E3,2.848E3,2.296E3,4.04E2,3.908E3,2.384E3,5.98E2,3.711E3,3.181E3,2.283E3,1.174E3,7.7E2,1.645E3,1.22E2,2.58E3,2.68E2,6.72E2,1.624E3,2.41E2,1.63E2,2.623E3,1.285E3,2.197E3,1.87E2,3.57E2,2.41E2,3.004E3,7.07E2,1.597E3,1.584E3,1.234E3,1.049E3,7.87E2,3.87E2,1.36E2,6.34E2,1.095E3,5.5E2,8.8E1,3.4E1,1.64E2,2.416E3,1.12E2,1.56E2,1.63E2,5.09E2,6.71E2,9.53E2,9E0,2.32E2,8E0,1.55E2],"tree_param":{"num_deleted":"0","num_feature":"26","num_nodes":"63","size_leaf_vector":"1"}},{"base_weights":[-3.5295576E-2,-3.2650619E0,7.0301423E0,-5.409626E0,-1.0227003E0,4.4459643E0,1.0706964E1,-6.473428E0,-4.372151E0,-2.274439E0,9.370975E-2,3.5423856E0,6.5848947E0,9.659821E0,1.4518622E1,-6.884713E0,-5.750575E0,-5.2241273E0,-3.6155066E0,-2.8658621E0,-1.6932948E0,-5.160569E-1,1.9094528E0,1.5560538E0,4.1869097E0,5.7674413E0,8.208799E0,8.045542E0,1.04864855E1,1.3325751E1,1.690304E1,-3.6795548E-1,-3.2255396E-1,-2.9004276E-1,-7.567883E-2,-3.1178647E-1,-2.432773E-1,-1.9591866E-1,-1.4281096E-1,-1.7341022E-1,-1.1768164E-1,-1.0128164E-1,-3.1080572E-2,-6.1654627E-2,3.3792686E-3,9.887233E-2,-2.0229025E-1,4.1552808E-2,1.7409094E-1,1.9676225E-1,2.991825E-1,3.1921318E-1,2.3791564E-1,-1.0648116E-1,4.1753268E-1,3.425459E-1,4.519287E-1,4.5181713E-1,5.5285335E-1,6.398925E-1,8.244797E-1,4.3147063E-1,8.619718E-1],"categories":[],"categories_nodes":[],"categories_segments":[],"categories_sizes":[],"default_left":[0,0,0,0,0,0,0,1,0,0,1,1,0,0,0,0,0,0,0,0,1,1,0,0,0,0,0,0,0,0,0,0,0,0,0,0,0,0,0,0,0,0,0,0,0,0,0,0,0,0,0,0,0,0,0,0,0,0,0,0,0,0,0],"id":2,"left_children":[1,3,5,7,9,11,13,15,17,19,21,23,25,27,29,31,33,35,37,39,41,43,45,47,49,51,53,55,57,59,61,-1,-1,-1,-1,-1,-1,-1,-1,-1,-1,-1,-1,-1,-1,-1,-1,-1,-1,-1,-1,-1,-1,-1,-1,-1,-1,-1,-1,-1,-1,-1,-1],"loss_changes":[5.750109E5,8.315392E4,7.506072E4,9.725953E3,1.1815903E4,8.951078E3,1.2877125E4,1.2559531E3,2.8669453E3,1.3646875E3,4.950218E3,4.175453E3,1.7805078E3,3.3326719E3,1.7655938E3,5.22E2,3.2878906E2,7.317578E2,5.342949E2,6.003086E2,7.154292E2,1.4008936E3,4.6292236E2,1.1164076E3,1.0905273E3,5.4116406E2,6.9155273E2,9.709414E2,1.29725E3,5.74375E2,4.8878906E2,0E0,0E0,0E0,0E0,0E0,0E0,0E0,0E0,0E0,0E0,0E0,0E0,0E0,0E0,0E0,0E0,0E0,0E0,0E0,0E0,0E0,0E0,0E0,0E0,0E0,0E0,0E0,0E0,0E0,0E0,0E0,0E0],"parents":[2147483647,0,0,1,1,2,2,3,3,4,4,5,5,6,6,7,7,8,8,9,9,10,10,11,11,12,12,13,13,14,14,15,15,16,16,17,17,18,18,19,19,20,20,21,21,22,22,23,23,24,24,25,25,26,26,27,27,28,28,29,29,30,30],"right_children":[2,4,6,8,10,12,14,16,18,20,22,24,26,28,30,32,34,36,38,40,42,44,46,48,50,52,54,56,58,60,62,-1,-1,-1,-1,-1,-1,-1,-1,-1,-1,-1,-1,-1,-1,-1,-1,-1,-1,-1,-1,-1,-1,-1,-1,-1,-1,-1,-1,-1,-1,-1,-1],"split_conditions":[1.49E1,8.7E0,2.14E1,5.8E0,1.12E1,1.91E1,2.77E1,4.55E0,5.95E0,9.5E0,1.1E1,1.12E1,1.59E1,1.66E1,3.1E1,3.7E0,6.3385944E0,6E0,2.5E1,2.44E1,9.45E0,8.8E0,1.65E1,1.299639E-1,1.57E1,7.6040926E0,2.66E1,2.2666666E1,2.14E1,5.94E-1,2.64E1,-3.6795548E-1,-3.2255396E-1,-2.9004276E-1,-7.567883E-2,-3.1178647E-1,-2.432773E-1,-1.9591866E-1,-1.4281096E-1,-1.7341022E-1,-1.1768164E-1,-1.0128164E-1,-3.1080572E-2,-6.1654627E-2,3.3792686E-3,9.887233E-2,-2.0229025E-1,4.1552808E-2,1.7409094E-1,1.9676225E-1,2.991825E-1,3.1921318E-1,2.3791564E-1,-1.0648116E-1,4.1753268E-1,3.425459E-1,4.519287E-1,4.5181713E-1,5.5285335E-1,6.398925E-1,8.244797E-1,4.3147063E-1,8.619718E-1],"split_indices":[1,1,1,1,1,1,1,23,23,20,23,23,23,23,20,1,3,0,9,9,23,23,23,12,23,3,9,1,20,15,0,0,0,0,0,0,0,0,0,0,0,0,0,0,0,0,0,0,0,0,0,0,0,0,0,0,0,0,0,0,0,0,0],"split_type":[0,0,0,0,0,0,0,0,0,0,0,0,0,0,0,0,0,0,0,0,0,0,0,0,0,0,0,0,0,0,0,0,0,0,0,0,0,0,0,0,0,0,0,0,0,0,0,0,0,0,0,0,0,0,0,0,0,0,0,0,0,0,0],"sum_hessian":[2.5196E4,1.7292E4,7.904E3,8.838E3,8.454E3,4.643E3,3.261E3,4.361E3,4.477E3,3.985E3,4.469E3,3.266E3,1.377E3,2.561E3,7E2,2.774E3,1.587E3,2.103E3,2.374E3,1.973E3,2.012E3,3.346E3,1.123E3,8.01E2,2.465E3,9.19E2,4.58E2,8.71E2,1.69E3,4.71E2,2.29E2,1.317E3,1.457E3,1.568E3,1.9E1,5.46E2,1.557E3,1.694E3,6.8E2,9.04E2,1.069E3,1.535E3,4.77E2,1.501E3,1.845E3,1.111E3,1.2E1,5.83E2,2.18E2,2.165E3,3E2,5.67E2,3.52E2,6E0,4.52E2,3.99E2,4.72E2,4.82E2,1.208E3,4.08E2,6.3E1,1E1,2.19E2],"tree_param":{"num_deleted":"0","num_feature":"26","num_nodes":"63","size_leaf_vector":"1"}},{"base_weights":[8.026029E-3,-2.9821248E0,6.9707165E0,-4.9042344E0,-6.255388E-1,4.912974E0,1.0831866E1,-5.830771E0,-3.60158E0,-1.447758E0,8.07694E-1,3.3732216E0,6.4241686E0,9.773119E0,1.3769967E1,-6.800497E0,-5.389213E0,-4.540312E0,-3.1204777E0,-2.2206175E0,-8.334328E-1,2.128472E-1,1.8607806E0,2.2315147E0,4.132257E0,5.2095275E0,7.4662476E0,8.982084E0,1.086913E1,1.2705403E1,1.6184189E1,-3.8523287E-1,-3.314235E-1,-2.8765833E-1,-2.4255429E-1,4.5264303E-3,-2.3028624E-1,-1.7212181E-1,-1.2460633E-1,-1.6652676E-1,-1.0140467E-1,-4.9527235E-2,7.605822E-2,-6.5219864E-2,2.206303E-2,-1.0806928E-2,1.2293028E-1,4.472819E-2,1.5250403E-1,1.8223335E-1,2.618651E-1,2.6942652E-1,1.2602322E-1,3.3105943E-1,4.3509436E-1,4.071551E-1,4.89166E-1,4.329846E-1,5.6060433E-1,5.26134E-1,6.953243E-1,3.2481524E-1,8.243627E-1],"categories":[],"categories_nodes":[],"categories_segments":[],"categories_sizes":[],"default_left":[0,0,0,0,1,1,0,0,0,0,0,0,0,0,0,0,0,0,0,0,0,0,0,1,0,0,0,0,0,0,0,0,0,0,0,0,0,0,0,0,0,0,0,0,0,0,0,0,0,0,0,0,0,0,0,0,0,0,0,0,0,0,0],"id":3,"left_children":[1,3,5,7,9,11,13,15,17,19,21,23,25,27,29,31,33,35,37,39,41,43,45,47,49,51,53,55,57,59,61,-1,-1,-1,-1,-1,-1,-1,-1,-1,-1,-1,-1,-1,-1,-1,-1,-1,-1,-1,-1,-1,-1,-1,-1,-1,-1,-1,-1,-1,-1,-1,-1],"loss_changes":[5.2500556E5,7.990336E4,6.0138438E4,1.1704844E4,9.34148E3,1.1481375E4,8.0535625E3,2.3925469E3,1.8100859E3,2.3893477E3,1.8097653E3,2.1141719E3,3.116625E3,1.5814531E3,1.5777031E3,2.2310938E2,7.3583594E2,4.1495508E2,5.319863E2,4.692295E2,1.040232E3,6.409301E2,1.2957805E3,1.0704658E3,7.726113E2,5.4158984E2,1.3400625E3,6.795E2,5.1316406E2,1.1279609E3,5.0422656E2,0E0,0E0,0E0,0E0,0E0,0E0,0E0,0E0,0E0,0E0,0E0,0E0,0E0,0E0,0E0,0E0,0E0,0E0,0E0,0E0,0E0,0E0,0E0,0E0,0E0,0E0,0E0,0E0,0E0,0E0,0E0,0E0],"parents":[2147483647,0,0,1,1,2,2,3,3,4,4,5,5,6,6,7,7,8,8,9,9,10,10,11,11,12,12,13,13,14,14,15,15,16,16,17,17,18,18,19,19,20,20,21,21,22,22,23,23,24,24,25,25,26,26,27,27,28,28,29,29,30,30],"right_children":[2,4,6,8,10,12,14,16,18,20,22,24,26,28,30,32,34,36,38,40,42,44,46,48,50,52,54,56,58,60,62,-1,-1,-1,-1,-1,-1,-1,-1,-1,-1,-1,-1,-1,-1,-1,-1,-1,-1,-1,-1,-1,-1,-1,-1,-1,-1,-1,-1,-1,-1,-1,-1],"split_conditions":[1.52E1,9.2E0,2.25E1,6.7E0,9.7E0,1.4E1,2.77E1,3.75E0,5.9E0,1.08E1,1.15E1,1.6666666E1,1.96E1,1.825E1,2.506964E-1,1.7094018E-1,5.8E0,7E0,2.5E1,6.2E0,1.44E1,2.39E1,1.23E1,1.09E1,1.93E1,3.8E0,1.341108E-1,8.95E0,3.8E0,5.8E0,3.26E1,-3.8523287E-1,-3.314235E-1,-2.8765833E-1,-2.4255429E-1,4.5264303E-3,-2.3028624E-1,-1.7212181E-1,-1.2460633E-1,-1.6652676E-1,-1.0140467E-1,-4.9527235E-2,7.605822E-2,-6.5219864E-2,2.206303E-2,-1.0806928E-2,1.2293028E-1,4.472819E-2,1.5250403E-1,1.8223335E-1,2.618651E-1,2.6942652E-1,1.2602322E-1,3.3105943E-1,4.3509436E-1,4.071551E-1,4.89166E-1,4.329846E-1,5.6060433E-1,5.26134E-1,6.953243E-1,3.2481524E-1,8.243627E-1],"split_indices":[1,1,1,1,23,23,1,1,23,1,23,1,1,23,12,14,0,22,9,23,1,10,1,23,1,17,12,22,19,19,10,0,0,0,0,0,0,0,0,0,0,0,0,0,0,0,0,0,0,0,0,0,0,0,0,0,0,0,0,0,0,0,0],"split_type":[0,0,0,0,0,0,0,0,0,0,0,0,0,0,0,0,0,0,0,0,0,0,0,0,0,0,0,0,0,0,0,0,0,0,0,0,0,0,0,0,0,0,0,0,0,0,0,0,0,0,0,0,0,0,0,0,0,0,0,0,0,0,0],"sum_hessian":[2.5215E4,1.764E4,7.575E3,9.715E3,7.925E3,4.943E3,2.632E3,5.675E3,4.04E3,5.036E3,2.889E3,2.45E3,2.493E3,1.938E3,6.94E2,1.771E3,3.904E3,1.366E3,2.674E3,2.229E3,2.807E3,1.847E3,1.042E3,9.8E2,1.47E3,1.154E3,1.339E3,1.131E3,8.07E2,4.86E2,2.08E2,2.76E2,1.495E3,2.323E3,1.581E3,1.9E1,1.347E3,1.765E3,9.09E2,3.27E2,1.902E3,2.632E3,1.75E2,2.41E2,1.606E3,2.33E2,8.09E2,3.73E2,6.07E2,1.023E3,4.47E2,1.081E3,7.3E1,7.99E2,5.4E2,5.58E2,5.73E2,1.12E2,6.95E2,1.76E2,3.1E2,7E0,2.01E2],"tree_param":{"num_deleted":"0","num_feature":"26","num_nodes":"63","size_leaf_vector":"1"}},{"base_weights":[9.583684E-3,-2.925968E0,6.5445356E0,-4.4729013E0,-5.570176E-1,4.961361E0,1.1404563E1,-5.6379347E0,-3.3547812E0,-1.6563373E0,3.4111863E-1,3.3072674E0,6.6036615E0,1.0687875E1,1.5216458E1,-5.9993443E0,-4.699056E0,-4.168443E0,-2.528526E0,-2.5040154E0,-1.1425879E0,-1.1329401E-1,1.2875532E0,2.3843977E0,4.379284E0,5.6039777E0,7.5253353E0,1.0394069E1,1.2878507E1,9.751771E0,1.5529223E1,-3.1165373E-1,-2.4720381E-1,-2.701306E-1,-1.8567929E-1,-2.3151846E-1,-1.8021405E-1,-1.6795178E-1,-7.8853436E-2,-2.3780571E-1,-1.17773764E-1,-8.3087176E-2,-2.0782249E-2,-7.8617156E-2,5.005181E-3,8.674079E-2,-1.4358245E-2,4.6939887E-2,1.4689653E-1,1.9678596E-1,3.1088555E-1,1.9217758E-1,3.0133936E-1,-1.8116139E-1,3.7821138E-1,4.8022923E-1,5.515699E-1,8.088083E-2,6.526387E-1,6.224119E-1,9.09028E-2,5.032911E-1,7.9092723E-1],"categories":[],"categories_nodes":[],"categories_segments":[],"categories_sizes":[],"default_left":[0,0,0,0,1,0,0,0,0,0,0,1,0,0,0,0,0,0,0,1,0,0,0,0,0,0,0,0,0,0,0,0,0,0,0,0,0,0,0,0,0,0,0,0,0,0,0,0,0,0,0,0,0,0,0,0,0,0,0,0,0,0,0],"id":4,"left_children":[1,3,5,7,9,11,13,15,17,19,21,23,25,27,29,31,33,35,37,39,41,43,45,47,49,51,53,55,57,59,61,-1,-1,-1,-1,-1,-1,-1,-1,-1,-1,-1,-1,-1,-1,-1,-1,-1,-1,-1,-1,-1,-1,-1,-1,-1,-1,-1,-1,-1,-1,-1,-1],"loss_changes":[4.8304562E5,6.3669594E4,5.9995594E4,1.3672297E4,6.7787773E3,1.597475E4,5.0719062E3,1.716875E3,3.5963086E3,1.3411436E3,1.6255046E3,2.8935586E3,2.678289E3,9.045469E2,3.604922E2,8.83625E2,9.7395703E2,6.866289E2,2.1000762E3,3.7747607E2,7.2521265E2,7.9551196E2,8.6413025E2,1.2611484E3,1.0810938E3,1.0335352E3,6.929219E2,6.12E2,3.4438672E2,3.8240845E2,2.8552344E2,0E0,0E0,0E0,0E0,0E0,0E0,0E0,0E0,0E0,0E0,0E0,0E0,0E0,0E0,0E0,0E0,0E0,0E0,0E0,0E0,0E0,0E0,0E0,0E0,0E0,0E0,0E0,0E0,0E0,0E0,0E0,0E0],"parents":[2147483647,0,0,1,1,2,2,3,3,4,4,5,5,6,6,7,7,8,8,9,9,10,10,11,11,12,12,13,13,14,14,15,15,16,16,17,17,18,18,19,19,20,20,21,21,22,22,23,23,24,24,25,25,26,26,27,27,28,28,29,29,30,30],"right_children":[2,4,6,8,10,12,14,16,18,20,22,24,26,28,30,32,34,36,38,40,42,44,46,48,50,52,54,56,58,60,62,-1,-1,-1,-1,-1,-1,-1,-1,-1,-1,-1,-1,-1,-1,-1,-1,-1,-1,-1,-1,-1,-1,-1,-1,-1,-1,-1,-1,-1,-1,-1,-1],"split_conditions":[1.44375E1,9.285714E0,2.35E1,6.214286E0,8.8E0,1.8421686E1,2.9947369E1,1.92E1,2.24E1,1.0444445E1,1.09E1,1.315E1,1.57E1,8.5427135E-1,3.2E1,4.1111112E-1,2.5531915E-1,6.3E0,3.575419E-1,4.8E0,2.74E1,2.22E1,4.166E-1,6.405694E-2,6.296296E-1,5.2112675E-1,1.6E0,2.55E1,3.02E1,2.025E1,1.6260162E-1,-3.1165373E-1,-2.4720381E-1,-2.701306E-1,-1.8567929E-1,-2.3151846E-1,-1.8021405E-1,-1.6795178E-1,-7.8853436E-2,-2.3780571E-1,-1.17773764E-1,-8.3087176E-2,-2.0782249E-2,-7.8617156E-2,5.005181E-3,8.674079E-2,-1.4358245E-2,4.6939887E-2,1.4689653E-1,1.9678596E-1,3.1088555E-1,1.9217758E-1,3.0133936E-1,-1.8116139E-1,3.7821138E-1,4.8022923E-1,5.515699E-1,8.088083E-2,6.526387E-1,6.224119E-1,9.09028E-2,5.032911E-1,7.9092723E-1],"split_indices":[2,2,2,2,23,2,2,9,9,2,23,23,23,13,10,14,11,23,14,23,9,9,16,12,14,14,18,20,10,23,12,0,0,0,0,0,0,0,0,0,0,0,0,0,0,0,0,0,0,0,0,0,0,0,0,0,0,0,0,0,0,0,0],"split_type":[0,0,0,0,0,0,0,0,0,0,0,0,0,0,0,0,0,0,0,0,0,0,0,0,0,0,0,0,0,0,0,0,0,0,0,0,0,0,0,0,0,0,0,0,0,0,0,0,0,0,0,0,0,0,0,0,0,0,0,0,0,0,0],"sum_hessian":[2.5178E4,1.7374E4,7.804E3,1.051E4,6.864E3,5.888E3,1.916E3,5.145E3,5.365E3,3.086E3,3.778E3,2.935E3,2.953E3,1.616E3,3E2,3.711E3,1.434E3,2.701E3,2.664E3,1.163E3,1.923E3,2.553E3,1.225E3,1.579E3,1.356E3,1.42E3,1.533E3,1.43E3,1.86E2,1.8E1,2.82E2,3.034E3,6.77E2,8.34E2,6E2,1.481E3,1.22E3,1.421E3,1.243E3,7E1,1.093E3,1.121E3,8.02E2,3.25E2,2.228E3,9.54E2,2.71E2,4.38E2,1.141E3,1.095E3,2.61E2,2.77E2,1.143E3,5E0,1.528E3,6.46E2,7.84E2,3E0,1.83E2,1.3E1,5E0,1.6E1,2.66E2],"tree_param":{"num_deleted":"0","num_feature":"26","num_nodes":"63","size_leaf_vector":"1"}},{"base_weights":[6.8606865E-3,-2.7703903E0,6.2882557E0,-4.435219E0,-6.7360985E-1,4.331835E0,9.765918E0,-5.3305798E0,-3.3458092E0,-1.499976E0,5.4898345E-1,3.2072246E0,5.9151573E0,8.126929E0,1.1660934E1,-6.1654453E0,-4.9475827E0,-4.1034694E0,-2.848776E0,-2.1894116E0,-9.0280145E-1,-9.214731E-3,1.7350547E0,2.1588848E0,4.065751E0,4.849229E0,6.779682E0,5.151115E0,8.3355875E0,1.0850818E1,1.4283036E1,-3.172625E-1,-2.3673247E-1,-2.6937997E-1,-2.2714351E-1,-2.3358439E-1,-1.808651E-1,-1.4342937E-1,3.204427E-1,-2.1628419E-1,-1.0118041E-1,-6.256411E-2,-1.2525222E-2,-1.00681044E-1,8.382924E-3,1.0224865E-1,-1.8056286E-2,7.1094304E-2,1.5800272E-1,1.9137292E-1,3.0690226E-1,1.9148654E-1,2.6570934E-1,2.6740086E-1,3.6795443E-1,4.0091106E-1,1.4862634E-1,3.3026037E-1,4.2885572E-1,4.5700565E-1,5.611896E-1,7.553963E-1,5.922328E-1],"categories":[],"categories_nodes":[],"categories_segments":[],"categories_sizes":[],"default_left":[0,0,0,0,0,0,0,0,0,0,0,0,0,0,0,0,0,0,0,0,0,0,0,0,1,0,0,0,0,0,0,0,0,0,0,0,0,0,0,0,0,0,0,0,0,0,0,0,0,0,0,0,0,0,0,0,0,0,0,0,0,0,0],"id":5,"left_children":[1,3,5,7,9,11,13,15,17,19,21,23,25,27,29,31,33,35,37,39,41,43,45,47,49,51,53,55,57,59,61,-1,-1,-1,-1,-1,-1,-1,-1,-1,-1,-1,-1,-1,-1,-1,-1,-1,-1,-1,-1,-1,-1,-1,-1,-1,-1,-1,-1,-1,-1,-1,-1],"loss_changes":[4.4155103E5,6.126317E4,5.275353E4,9.523781E3,7.8500156E3,8.826234E3,8.5780625E3,1.6848125E3,1.6506016E3,1.906418E3,2.0750935E3,2.6069805E3,1.8661406E3,8.8772656E2,2.5891094E3,4.0208594E2,6.307578E2,4.648789E2,5.0772266E2,7.5249805E2,5.646365E2,7.563711E2,6.525005E2,9.623833E2,7.641289E2,4.181543E2,9.0170703E2,6.0593726E2,5.273594E2,5.283125E2,4.2580078E2,0E0,0E0,0E0,0E0,0E0,0E0,0E0,0E0,0E0,0E0,0E0,0E0,0E0,0E0,0E0,0E0,0E0,0E0,0E0,0E0,0E0,0E0,0E0,0E0,0E0,0E0,0E0,0E0,0E0,0E0,0E0,0E0],"parents":[2147483647,0,0,1,1,2,2,3,3,4,4,5,5,6,6,7,7,8,8,9,9,10,10,11,11,12,12,13,13,14,14,15,15,16,16,17,17,18,18,19,19,20,20,21,21,22,22,23,23,24,24,25,25,26,26,27,27,28,28,29,29,30,30],"right_children":[2,4,6,8,10,12,14,16,18,20,22,24,26,28,30,32,34,36,38,40,42,44,46,48,50,52,54,56,58,60,62,-1,-1,-1,-1,-1,-1,-1,-1,-1,-1,-1,-1,-1,-1,-1,-1,-1,-1,-1,-1,-1,-1,-1,-1,-1,-1,-1,-1,-1,-1,-1,-1],"split_conditions":[1.4566038E1,9.2E0,2.1947369E1,6.5E0,1.24E1,1.8421686E1,2.5454546E1,3.7E0,6.05E0,1.0230769E1,1.1E1,1.65E1,5.925926E-1,1.95E1,3.05E1,3.482587E-1,4.55E0,7.4E0,3.6E1,1.8E1,1.2214286E1,2.22E1,4.572E-1,3.2E0,1.635E1,1.71E1,4.4E0,5.652174E-1,9.3023255E-2,-2.2E0,1.0044899E1,-3.172625E-1,-2.3673247E-1,-2.6937997E-1,-2.2714351E-1,-2.3358439E-1,-1.808651E-1,-1.4342937E-1,3.204427E-1,-2.1628419E-1,-1.0118041E-1,-6.256411E-2,-1.2525222E-2,-1.00681044E-1,8.382924E-3,1.0224865E-1,-1.8056286E-2,7.1094304E-2,1.5800272E-1,1.9137292E-1,3.0690226E-1,1.9148654E-1,2.6570934E-1,2.6740086E-1,3.6795443E-1,4.0091106E-1,1.4862634E-1,3.3026037E-1,4.2885572E-1,4.5700565E-1,5.611896E-1,7.553963E-1,5.922328E-1],"split_indices":[2,1,2,1,1,2,2,1,23,2,23,1,14,1,1,11,23,1,9,9,2,9,16,19,23,1,18,14,12,25,3,0,0,0,0,0,0,0,0,0,0,0,0,0,0,0,0,0,0,0,0,0,0,0,0,0,0,0,0,0,0,0,0],"split_type":[0,0,0,0,0,0,0,0,0,0,0,0,0,0,0,0,0,0,0,0,0,0,0,0,0,0,0,0,0,0,0,0,0,0,0,0,0,0,0,0,0,0,0,0,0,0,0,0,0,0,0,0,0,0,0,0,0,0,0,0,0,0,0],"sum_hessian":[2.5309E4,1.755E4,7.759E3,9.782E3,7.768E3,4.967E3,2.792E3,5.367E3,4.415E3,4.635E3,3.133E3,2.906E3,2.061E3,1.5E3,1.292E3,1.683E3,3.684E3,1.746E3,2.669E3,2.15E3,2.485E3,2.131E3,1.002E3,1.31E3,1.596E3,9.26E2,1.135E3,1E2,1.4E3,9.91E2,3.01E2,1.492E3,1.91E2,1.759E3,1.925E3,8.01E2,9.45E2,2.664E3,5E0,1.53E2,1.997E3,1.619E3,8.66E2,1.72E2,1.959E3,8.73E2,1.29E2,7.56E2,5.54E2,1.434E3,1.62E2,2.93E2,6.33E2,3.3E2,8.05E2,4.2E1,5.8E1,1.75E2,1.225E3,1.82E2,8.09E2,2.21E2,8E1],"tree_param":{"num_deleted":"0","num_feature":"26","num_nodes":"63","size_leaf_vector":"1"}},{"base_weights":[1.0386597E-2,-2.501471E0,6.182986E0,-4.038259E0,-3.8711846E-1,4.342188E0,9.250702E0,-4.9657807E0,-2.9217358E0,-1.0966445E0,9.504485E-1,3.259298E0,5.814184E0,8.180111E0,1.1522953E1,-5.8534217E0,-4.6041894E0,-3.7633595E0,-2.5378847E0,-1.784327E0,-5.454525E-1,4.2356524E-1,2.3798122E0,2.0479047E0,3.7856503E0,5.0956693E0,6.7435737E0,7.336667E0,9.300987E0,9.942783E0,1.2833537E1,-3.1883463E-1,-2.6795456E-1,-2.4533728E-1,-1.7901637E-1,-2.3849161E-1,-1.7112584E-1,-1.3529523E-1,-5.532025E-2,-1.07611075E-1,-2.2051277E-2,-6.709E-2,-1.2997739E-2,1.0765603E-2,9.985885E-2,8.245804E-2,1.8123844E-1,1.3537754E-1,2.2863338E-2,1.6326955E-1,2.3147957E-1,2.155302E-1,2.8164825E-1,2.7392232E-1,3.7601745E-1,3.4818277E-1,4.7357044E-1,4.5573473E-1,7.02419E-1,3.25386E-1,5.191962E-1,6.4662546E-1,5.0144125E-2],"categories":[],"categories_nodes":[],"categories_segments":[],"categories_sizes":[],"default_left":[0,0,0,0,0,0,0,0,0,0,0,0,0,0,0,1,0,0,0,0,0,1,0,0,0,0,0,0,0,0,0,0,0,0,0,0,0,0,0,0,0,0,0,0,0,0,0,0,0,0,0,0,0,0,0,0,0,0,0,0,0,0,0],"id":6,"left_children":[1,3,5,7,9,11,13,15,17,19,21,23,25,27,29,31,33,35,37,39,41,43,45,47,49,51,53,55,57,59,61,-1,-1,-1,-1,-1,-1,-1,-1,-1,-1,-1,-1,-1,-1,-1,-1,-1,-1,-1,-1,-1,-1,-1,-1,-1,-1,-1,-1,-1,-1,-1,-1],"loss_changes":[3.8864088E5,5.7887742E4,4.089953E4,1.0668969E4,7.1188467E3,7.205789E3,6.5157344E3,1.7803281E3,1.5030195E3,1.8564937E3,1.9567922E3,1.6584004E3,1.2465977E3,1.6800312E3,1.6677109E3,3.855078E2,1.2231641E3,4.8542383E2,7.710918E2,1.0761328E3,6.1835223E2,6.223248E2,6.3023535E2,8.315559E2,7.8363477E2,4.3323438E2,7.7708594E2,7.772617E2,5.691953E2,5.3384375E2,5.371328E2,0E0,0E0,0E0,0E0,0E0,0E0,0E0,0E0,0E0,0E0,0E0,0E0,0E0,0E0,0E0,0E0,0E0,0E0,0E0,0E0,0E0,0E0,0E0,0E0,0E0,0E0,0E0,0E0,0E0,0E0,0E0,0E0],"parents":[2147483647,0,0,1,1,2,2,3,3,4,4,5,5,6,6,7,7,8,8,9,9,10,10,11,11,12,12,13,13,14,14,15,15,16,16,17,17,18,18,19,19,20,20,21,21,22,22,23,23,24,24,25,25,26,26,27,27,28,28,29,29,30,30],"right_children":[2,4,6,8,10,12,14,16,18,20,22,24,26,28,30,32,34,36,38,40,42,44,46,48,50,52,54,56,58,60,62,-1,-1,-1,-1,-1,-1,-1,-1,-1,-1,-1,-1,-1,-1,-1,-1,-1,-1,-1,-1,-1,-1,-1,-1,-1,-1,-1,-1,-1,-1,-1,-1],"split_conditions":[1.5098765E1,9.6E0,2.1947369E1,6.7E0,1.25E1,1.91E1,2.6511906E1,3.4E0,5.9E0,1.0230769E1,1.6E1,1.48E1,4.9266863E-1,2.4357143E1,2.82E1,3.35E0,6.5833335E0,2.6E0,1.1051724E1,1.34E1,1.06E1,1.225E1,1.21212125E-1,-8E-1,1.7875E1,1.9E1,1.58E1,2.68E1,2.7431422E-1,1.04575165E-1,6.6E0,-3.1883463E-1,-2.6795456E-1,-2.4533728E-1,-1.7901637E-1,-2.3849161E-1,-1.7112584E-1,-1.3529523E-1,-5.532025E-2,-1.07611075E-1,-2.2051277E-2,-6.709E-2,-1.2997739E-2,1.0765603E-2,9.985885E-2,8.245804E-2,1.8123844E-1,1.3537754E-1,2.2863338E-2,1.6326955E-1,2.3147957E-1,2.155302E-1,2.8164825E-1,2.7392232E-1,3.7601745E-1,3.4818277E-1,4.7357044E-1,4.5573473E-1,7.02419E-1,3.25386E-1,5.191962E-1,6.4662546E-1,5.0144125E-2],"split_indices":[2,1,2,1,2,1,2,0,23,2,0,0,11,2,1,23,2,18,2,0,0,23,12,4,2,2,23,0,12,12,17,0,0,0,0,0,0,0,0,0,0,0,0,0,0,0,0,0,0,0,0,0,0,0,0,0,0,0,0,0,0,0,0],"split_type":[0,0,0,0,0,0,0,0,0,0,0,0,0,0,0,0,0,0,0,0,0,0,0,0,0,0,0,0,0,0,0,0,0,0,0,0,0,0,0,0,0,0,0,0,0,0,0,0,0,0,0,0,0,0,0,0,0,0,0,0,0,0,0],"sum_hessian":[2.5064E4,1.7815E4,7.249E3,1.0316E4,7.499E3,4.532E3,2.717E3,5.633E3,4.683E3,4.9E3,2.599E3,2.613E3,1.919E3,1.85E3,8.67E2,1.626E3,4.007E3,1.464E3,3.219E3,2.179E3,2.721E3,1.9E3,6.99E2,7.93E2,1.82E3,1.086E3,8.33E2,1.06E3,7.9E2,3.97E2,4.7E2,7.84E2,8.42E2,3.09E3,9.17E2,3.67E2,1.097E3,2.88E3,3.39E2,1.71E3,4.69E2,7.17E2,2.004E3,1.679E3,2.21E2,4.42E2,2.57E2,5.6E2,2.33E2,1.129E3,6.91E2,4.45E2,6.41E2,3.2E2,5.13E2,9.06E2,1.54E2,7.63E2,2.7E1,4.7E1,3.5E2,4.66E2,4E0],"tree_param":{"num_deleted":"0","num_feature":"26","num_nodes":"63","size_leaf_vector":"1"}},{"base_weights":[-1.9473473E-2,-2.6162512E0,5.3734584E0,-3.8461828E0,-6.1643386E-1,3.5546312E0,8.435424E0,-4.864398E0,-2.8514838E0,-1.5587764E0,1.4020504E-1,1.9258367E0,4.5759177E0,6.630482E0,9.909356E0,-5.159186E0,-3.7469523E0,-3.5572164E0,-2.2639756E0,-2.239323E0,-9.0617263E-1,-3.888309E-1,9.8076814E-1,3.6866012E-1,2.3998525E0,3.5193734E0,5.3244653E0,4.907064E0,7.1634502E0,9.207009E0,1.2375654E1,-2.9075772E-1,-2.4487534E-1,-1.9605708E-1,-7.637351E-2,-1.7923194E-1,2.573107E-1,-1.23650625E-1,-8.7467525E-3,-1.23614445E-1,-6.153203E-2,-3.5390947E-2,-1.3073863E-1,-7.206672E-2,-6.5901987E-3,2.1612516E-2,9.171924E-2,-3.035595E-2,6.372468E-2,8.241806E-2,1.6118316E-1,1.5614128E-1,2.3574816E-1,2.7675468E-1,1.6892268E-1,-1.828739E-1,2.5256377E-1,3.470745E-1,4.935505E-1,4.9204966E-1,3.8175318E-1,1.7854235E-1,6.330666E-1],"categories":[],"categories_nodes":[],"categories_segments":[],"categories_sizes":[],"default_left":[0,0,0,0,1,0,0,0,0,0,0,1,1,0,0,1,0,0,0,0,0,0,0,0,0,0,0,0,0,0,0,0,0,0,0,0,0,0,0,0,0,0,0,0,0,0,0,0,0,0,0,0,0,0,0,0,0,0,0,0,0,0,0],"id":7,"left_children":[1,3,5,7,9,11,13,15,17,19,21,23,25,27,29,31,33,35,37,39,41,43,45,47,49,51,53,55,57,59,61,-1,-1,-1,-1,-1,-1,-1,-1,-1,-1,-1,-1,-1,-1,-1,-1,-1,-1,-1,-1,-1,-1,-1,-1,-1,-1,-1,-1,-1,-1,-1,-1],"loss_changes":[3.5297678E5,4.1843008E4,4.559158E4,1.0654391E4,4.6206846E3,8.542418E3,8.052078E3,1.6940234E3,2.2017227E3,1.2794072E3,1.5990942E3,1.4625425E3,2.4787422E3,1.2266133E3,2.7905156E3,6.767969E2,4.1487012E2,5.9587305E2,1.2709346E3,3.283911E2,4.9770508E2,5.9669415E2,6.493435E2,4.1096704E2,9.3521094E2,6.069961E2,7.3746875E2,4.2372852E2,5.596211E2,1.2286484E3,8.813203E2,0E0,0E0,0E0,0E0,0E0,0E0,0E0,0E0,0E0,0E0,0E0,0E0,0E0,0E0,0E0,0E0,0E0,0E0,0E0,0E0,0E0,0E0,0E0,0E0,0E0,0E0,0E0,0E0,0E0,0E0,0E0,0E0],"parents":[2147483647,0,0,1,1,2,2,3,3,4,4,5,5,6,6,7,7,8,8,9,9,10,10,11,11,12,12,13,13,14,14,15,15,16,16,17,17,18,18,19,19,20,20,21,21,22,22,23,23,24,24,25,25,26,26,27,27,28,28,29,29,30,30],"right_children":[2,4,6,8,10,12,14,16,18,20,22,24,26,28,30,32,34,36,38,40,42,44,46,48,50,52,54,56,58,60,62,-1,-1,-1,-1,-1,-1,-1,-1,-1,-1,-1,-1,-1,-1,-1,-1,-1,-1,-1,-1,-1,-1,-1,-1,-1,-1,-1,-1,-1,-1,-1,-1],"split_conditions":[1.3925926E1,9.285714E0,2.1442308E1,6.4E0,8.65E0,1.66E1,2.4357143E1,6.5833335E0,6.3E0,1.04E1,1.36E1,1.075E1,1.4E1,2.02E1,8.4153E-1,3.05E0,2.69E1,1.5E1,1.36E1,4.5714286E-1,3E0,2.26E1,5.151515E-1,8.4848486E-2,8E-2,1.8617647E1,4E0,1.28E1,8.2E0,3.4E0,3.15E1,-2.9075772E-1,-2.4487534E-1,-1.9605708E-1,-7.637351E-2,-1.7923194E-1,2.573107E-1,-1.23650625E-1,-8.7467525E-3,-1.23614445E-1,-6.153203E-2,-3.5390947E-2,-1.3073863E-1,-7.206672E-2,-6.5901987E-3,2.1612516E-2,9.171924E-2,-3.035595E-2,6.372468E-2,8.241806E-2,1.6118316E-1,1.5614128E-1,2.3574816E-1,2.7675468E-1,1.6892268E-1,-1.828739E-1,2.5256377E-1,3.470745E-1,4.935505E-1,4.9204966E-1,3.8175318E-1,1.7854235E-1,6.330666E-1],"split_indices":[2,2,2,0,23,0,2,2,23,0,0,23,23,0,14,23,10,0,0,14,6,9,14,12,12,2,17,0,19,17,10,0,0,0,0,0,0,0,0,0,0,0,0,0,0,0,0,0,0,0,0,0,0,0,0,0,0,0,0,0,0,0,0],"split_type":[0,0,0,0,0,0,0,0,0,0,0,0,0,0,0,0,0,0,0,0,0,0,0,0,0,0,0,0,0,0,0,0,0,0,0,0,0,0,0,0,0,0,0,0,0,0,0,0,0,0,0,0,0,0,0,0,0,0,0,0,0,0,0],"sum_hessian":[2.5203E4,1.7012E4,8.191E3,1.0533E4,6.479E3,5.14E3,3.051E3,5.203E3,5.33E3,2.885E3,3.594E3,1.982E3,3.158E3,1.374E3,1.677E3,4.114E3,1.089E3,2.419E3,2.911E3,1.411E3,1.474E3,2.206E3,1.388E3,4.63E2,1.519E3,1.312E3,1.846E3,3.27E2,1.047E3,1.309E3,3.68E2,1.167E3,2.947E3,1.009E3,8E1,2.412E3,7E0,2.646E3,2.65E2,1.145E3,2.66E2,1.322E3,1.52E2,4.32E2,1.774E3,8.46E2,5.42E2,2.23E2,2.4E2,7.96E2,7.23E2,9.88E2,3.24E2,1.664E3,1.82E2,5E0,3.22E2,9.71E2,7.6E1,9.29E2,3.8E2,1.2E1,3.56E2],"tree_param":{"num_deleted":"0","num_feature":"26","num_nodes":"63","size_leaf_vector":"1"}},{"base_weights":[7.4642617E-3,-2.3112862E0,5.4193277E0,-3.5046334E0,-2.4328254E-1,4.165291E0,9.171883E0,-4.4077497E0,-2.3610907E0,-9.2749107E-1,7.0258063E-1,2.891006E0,5.478752E0,8.556918E0,1.2326937E1,-4.8301053E0,-3.6125622E0,-2.593036E0,-6.126439E-1,-1.3902277E0,-2.3254535E-1,-5.6445444E-1,1.1371965E0,1.915249E0,3.6266568E0,4.3051214E0,6.110168E0,8.179929E0,1.002133E1,7.740008E0,1.2672023E1,-2.667063E-1,-2.2775267E-1,-2.0310657E-1,-1.5588969E-1,-1.4801568E-1,-9.822738E-2,-5.0953634E-2,1.3360989E-1,-9.261042E-2,-4.2775284E-2,1.1556703E-2,-4.4089068E-2,-1.4613228E-1,-1.5965808E-2,3.951705E-2,1.1609278E-1,4.788561E-2,1.3774697E-1,1.254454E-1,2.0885158E-1,1.17880516E-1,2.3415242E-1,2.1366076E-1,3.16089E-1,3.8384935E-1,4.7421542E-1,5.189015E-1,2.2218297E-1,2.7316025E-1,5.799107E-1,5.87956E-1,7.3295146E-1],"categories":[],"categories_nodes":[],"categories_segments":[],"categories_sizes":[],"default_left":[0,0,0,0,0,0,0,0,0,0,0,0,0,0,0,0,0,0,0,0,0,0,0,0,1,0,0,0,0,0,0,0,0,0,0,0,0,0,0,0,0,0,0,0,0,0,0,0,0,0,0,0,0,0,0,0,0,0,0,0,0,0,0],"id":8,"left_children":[1,3,5,7,9,11,13,15,17,19,21,23,25,27,29,31,33,35,37,39,41,43,45,47,49,51,53,55,57,59,61,-1,-1,-1,-1,-1,-1,-1,-1,-1,-1,-1,-1,-1,-1,-1,-1,-1,-1,-1,-1,-1,-1,-1,-1,-1,-1,-1,-1,-1,-1,-1,-1],"loss_changes":[3.1582747E5,4.3479766E4,3.5484875E4,1.15268125E4,4.1736113E3,9.456602E3,3.5595E3,2.0777578E3,1.9982344E3,1.2028545E3,1.4913727E3,2.0562207E3,2.0372109E3,7.912422E2,3.842422E2,5.393594E2,4.6907422E2,9.987246E2,7.755542E2,5.5297705E2,4.5092175E2,3.98776E2,8.2623975E2,9.9238525E2,9.965215E2,7.0808203E2,6.75125E2,7.56E2,5.890547E2,1.4575537E2,3.3832812E2,0E0,0E0,0E0,0E0,0E0,0E0,0E0,0E0,0E0,0E0,0E0,0E0,0E0,0E0,0E0,0E0,0E0,0E0,0E0,0E0,0E0,0E0,0E0,0E0,0E0,0E0,0E0,0E0,0E0,0E0,0E0,0E0],"parents":[2147483647,0,0,1,1,2,2,3,3,4,4,5,5,6,6,7,7,8,8,9,9,10,10,11,11,12,12,13,13,14,14,15,15,16,16,17,17,18,18,19,19,20,20,21,21,22,22,23,23,24,24,25,25,26,26,27,27,28,28,29,29,30,30],"right_children":[2,4,6,8,10,12,14,16,18,20,22,24,26,28,30,32,34,36,38,40,42,44,46,48,50,52,54,56,58,60,62,-1,-1,-1,-1,-1,-1,-1,-1,-1,-1,-1,-1,-1,-1,-1,-1,-1,-1,-1,-1,-1,-1,-1,-1,-1,-1,-1,-1,-1,-1,-1,-1],"split_conditions":[1.4818182E1,9.782609E0,2.35E1,7.2E0,1.28E1,1.88E1,2.9947369E1,6.111111E0,1.28E1,1.1958333E1,8.95E0,1.66E1,1.96E1,9.6E0,2.2777779E1,3.0641294E0,1.84E1,2.54E1,9.8E0,1.02E1,3.2E-1,3.8647342E-2,1.195E1,7.294833E-2,1.28E1,4.9079755E-1,7.761194E-2,2.825E1,4.4E0,2E0,1.06E1,-2.667063E-1,-2.2775267E-1,-2.0310657E-1,-1.5588969E-1,-1.4801568E-1,-9.822738E-2,-5.0953634E-2,1.3360989E-1,-9.261042E-2,-4.2775284E-2,1.1556703E-2,-4.4089068E-2,-1.4613228E-1,-1.5965808E-2,3.951705E-2,1.1609278E-1,4.788561E-2,1.3774697E-1,1.254454E-1,2.0885158E-1,1.17880516E-1,2.3415242E-1,2.1366076E-1,3.16089E-1,3.8384935E-1,4.7421542E-1,5.189015E-1,2.2218297E-1,2.7316025E-1,5.799107E-1,5.87956E-1,7.3295146E-1],"split_indices":[2,2,2,0,0,2,2,2,0,2,23,0,0,25,20,3,9,9,25,0,16,12,23,12,23,14,12,20,17,4,18,0,0,0,0,0,0,0,0,0,0,0,0,0,0,0,0,0,0,0,0,0,0,0,0,0,0,0,0,0,0,0,0],"split_type":[0,0,0,0,0,0,0,0,0,0,0,0,0,0,0,0,0,0,0,0,0,0,0,0,0,0,0,0,0,0,0,0,0,0,0,0,0,0,0,0,0,0,0,0,0,0,0,0,0,0,0,0,0,0,0,0,0,0,0,0,0,0,0],"sum_hessian":[2.5166E4,1.7618E4,7.548E3,1.1171E4,6.447E3,5.659E3,1.889E3,6.24E3,4.931E3,3.741E3,2.706E3,2.874E3,2.785E3,1.584E3,3.05E2,4.072E3,2.168E3,4.353E3,5.78E2,2.245E3,1.496E3,6.91E2,2.015E3,1.237E3,1.637E3,9.77E2,1.808E3,1.265E3,3.19E2,2.3E1,2.82E2,1.431E3,2.641E3,1.132E3,1.036E3,2.745E3,1.608E3,5.15E2,6.3E1,1.203E3,1.042E3,8.73E2,6.23E2,6.4E1,6.27E2,1.56E3,4.55E2,5.79E2,6.58E2,5.42E2,1.095E3,1.6E2,8.17E2,1.89E2,1.619E3,9.18E2,3.47E2,2.99E2,2E1,1.6E1,7E0,1.98E2,8.4E1],"tree_param":{"num_deleted":"0","num_feature":"26","num_nodes":"63","size_leaf_vector":"1"}},{"base_weights":[-1.24386605E-2,-2.108441E0,5.171118E0,-3.801244E0,-6.9065726E-1,3.2545676E0,7.260429E0,-4.6392837E0,-3.1667824E0,-1.3733685E0,1.2785609E0,2.5796964E0,5.1248093E0,6.461265E0,9.350117E0,-4.8107424E0,-3.7703521E0,-3.6792834E0,-2.3132865E0,-2.6269698E0,-1.065107E0,1.9099874E0,6.425027E-1,1.3858225E0,3.2573178E0,3.8249424E0,6.8772764E0,5.8205395E0,7.584482E0,8.177328E0,1.1348007E1,-2.6972175E-1,-2.2701328E-1,-2.0613943E-1,-1.0889613E-1,-2.3827961E-1,-1.7361091E-1,-1.4734368E-1,-7.479965E-2,-1.4171581E-1,1.9500455E-3,-7.630821E-2,-2.529431E-2,8.4817335E-2,2.1975541E-1,1.6553648E-2,1.22390345E-1,1.1007334E-1,-8.697673E-3,1.6554515E-1,-2.1200691E-1,1.409296E-1,2.5203452E-1,2.736561E-1,4.7338334E-1,2.3523031E-1,3.4250593E-1,3.3598217E-1,4.286553E-1,4.6910563E-1,3.486526E-1,4.3843347E-1,6.17015E-1],"categories":[],"categories_nodes":[],"categories_segments":[],"categories_sizes":[],"default_left":[0,0,1,0,1,0,0,0,0,1,0,1,0,0,0,0,0,0,0,0,0,0,0,0,0,0,0,0,0,0,0,0,0,0,0,0,0,0,0,0,0,0,0,0,0,0,0,0,0,0,0,0,0,0,0,0,0,0,0,0,0,0,0],"id":9,"left_children":[1,3,5,7,9,11,13,15,17,19,21,23,25,27,29,31,33,35,37,39,41,43,45,47,49,51,53,55,57,59,61,-1,-1,-1,-1,-1,-1,-1,-1,-1,-1,-1,-1,-1,-1,-1,-1,-1,-1,-1,-1,-1,-1,-1,-1,-1,-1,-1,-1,-1,-1,-1,-1],"loss_changes":[2.7326984E5,4.2981438E4,2.8974234E4,4.324828E3,1.3107049E4,4.755758E3,5.7228906E3,5.046875E2,2.0244414E3,2.79425E3,1.00659375E3,2.2432168E3,2.252877E3,1.7601797E3,2.1452578E3,4.3740625E2,3.181494E2,6.356211E2,8.99791E2,7.897588E2,1.4975493E3,6.603677E2,7.0281805E2,1.2829858E3,7.2584766E2,6.9094824E2,1.4925449E3,1.8072227E3,7.171992E2,8.121836E2,7.880469E2,0E0,0E0,0E0,0E0,0E0,0E0,0E0,0E0,0E0,0E0,0E0,0E0,0E0,0E0,0E0,0E0,0E0,0E0,0E0,0E0,0E0,0E0,0E0,0E0,0E0,0E0,0E0,0E0,0E0,0E0,0E0,0E0],"parents":[2147483647,0,0,1,1,2,2,3,3,4,4,5,5,6,6,7,7,8,8,9,9,10,10,11,11,12,12,13,13,14,14,15,15,16,16,17,17,18,18,19,19,20,20,21,21,22,22,23,23,24,24,25,25,26,26,27,27,28,28,29,29,30,30],"right_children":[2,4,6,8,10,12,14,16,18,20,22,24,26,28,30,32,34,36,38,40,42,44,46,48,50,52,54,56,58,60,62,-1,-1,-1,-1,-1,-1,-1,-1,-1,-1,-1,-1,-1,-1,-1,-1,-1,-1,-1,-1,-1,-1,-1,-1,-1,-1,-1,-1,-1,-1,-1,-1],"split_conditions":[1.58E1,8.2E0,1.56E1,4.7E0,1.04E1,6.267806E-1,2.7E1,3.2E-1,2.12E1,6.3E0,-9E-1,1.17E1,3.2E1,1.805E1,2.9E1,2.95E0,3.2E0,3.6E0,8.151515E0,1.26E1,1.1E1,4.7696477E-1,3.38E1,4.342E-1,1.76E1,3.4E0,6.931217E-1,1.320132E-1,5.6E0,3.93E-1,1.8734178E-1,-2.6972175E-1,-2.2701328E-1,-2.0613943E-1,-1.0889613E-1,-2.3827961E-1,-1.7361091E-1,-1.4734368E-1,-7.479965E-2,-1.4171581E-1,1.9500455E-3,-7.630821E-2,-2.529431E-2,8.4817335E-2,2.1975541E-1,1.6553648E-2,1.22390345E-1,1.1007334E-1,-8.697673E-3,1.6554515E-1,-2.1200691E-1,1.409296E-1,2.5203452E-1,2.736561E-1,4.7338334E-1,2.3523031E-1,3.4250593E-1,3.3598217E-1,4.286553E-1,4.6910563E-1,3.486526E-1,4.3843347E-1,6.17015E-1],"split_indices":[0,0,23,23,23,14,0,11,9,23,4,23,10,23,20,23,18,0,20,0,20,11,9,16,25,19,14,12,19,16,12,0,0,0,0,0,0,0,0,0,0,0,0,0,0,0,0,0,0,0,0,0,0,0,0,0,0,0,0,0,0,0,0],"split_type":[0,0,0,0,0,0,0,0,0,0,0,0,0,0,0,0,0,0,0,0,0,0,0,0,0,0,0,0,0,0,0,0,0,0,0,0,0,0,0,0,0,0,0,0,0,0,0,0,0,0,0,0,0,0,0,0,0,0,0,0,0,0,0],"sum_hessian":[2.515E4,1.7909E4,7.241E3,8.162E3,9.747E3,3.778E3,3.463E3,3.514E3,4.648E3,7.238E3,2.509E3,2.778E3,1E3,2.508E3,9.55E2,2.931E3,5.83E2,2.902E3,1.746E3,1.427E3,5.811E3,1.258E3,1.251E3,1.007E3,1.771E3,5.76E2,4.24E2,1.601E3,9.07E2,6.05E2,3.5E2,9.22E2,2.009E3,4.76E2,1.07E2,4.61E2,2.441E3,9.82E2,7.64E2,1.324E3,1.03E2,3.184E3,2.627E3,1.16E3,9.8E1,1.068E3,1.83E2,6.61E2,3.46E2,1.759E3,1.2E1,3.17E2,2.59E2,2.77E2,1.47E2,7.71E2,8.3E2,4.88E2,4.19E2,2.99E2,3.06E2,1E2,2.5E2],"tree_param":{"num_deleted":"0","num_feature":"26","num_nodes":"63","size_leaf_vector":"1"}},{"base_weights":[3.1615317E-2,-2.1752737E0,4.7757564E0,-3.741975E0,-8.5191625E-1,3.1240048E0,7.4652634E0,-4.1068296E0,-2.6691096E0,-1.6372956E0,-8.784727E-3,1.8234924E0,3.9298959E0,5.8629622E0,8.732949E0,-4.8101654E0,-3.7892597E0,-4.650905E0,-2.4720254E0,-1.8136424E0,-2.0214365E-1,-5.429558E-1,6.4234E-1,2.5772458E-1,2.2396023E0,3.3737326E0,4.8738213E0,2.9608567E0,6.12752E0,8.161713E0,1.1297965E1,-2.9767787E-1,-2.3040862E-1,-1.9567892E-1,-1.4736243E-1,-2.5847673E-1,-1.4440206E-1,-1.332239E-1,-7.1274355E-2,-8.0309115E-2,-1.1635529E-1,1.2155657E-1,-1.887445E-2,-5.320865E-2,3.8206137E-3,4.8045136E-2,-3.1426515E-2,-8.141758E-3,1.3891579E-1,1.1616891E-1,-2.0208268E-1,1.7428233E-1,-1.7342024E-3,2.109568E-1,3.0241704E-1,-2.8968954E-1,1.750899E-1,4.4787285E-1,2.9794943E-1,4.5258933E-1,3.6537692E-1,5.4041475E-1,7.6370645E-1],"categories":[],"categories_nodes":[],"categories_segments":[],"categories_sizes":[],"default_left":[0,0,0,0,0,0,0,0,0,0,1,1,0,0,0,0,0,0,0,0,0,0,0,0,0,0,0,0,0,0,0,0,0,0,0,0,0,0,0,0,0,0,0,0,0,0,0,0,0,0,0,0,0,0,0,0,0,0,0,0,0,0,0],"id":10,"left_children":[1,3,5,7,9,11,13,15,17,19,21,23,25,27,29,31,33,35,37,39,41,43,45,47,49,51,53,55,57,59,61,-1,-1,-1,-1,-1,-1,-1,-1,-1,-1,-1,-1,-1,-1,-1,-1,-1,-1,-1,-1,-1,-1,-1,-1,-1,-1,-1,-1,-1,-1,-1,-1],"loss_changes":[2.6259306E5,3.5487195E4,3.535042E4,3.0564766E3,6.145496E3,5.1644883E3,6.0998906E3,1.2868906E3,7.658262E2,1.215502E3,1.5574932E3,1.2305679E3,1.5818125E3,1.01053516E3,2.3806172E3,3.906953E2,4.099414E2,1.4791919E2,3.611494E2,4.5168164E2,2.4404538E2,7.943304E2,8.176282E2,4.226175E2,7.9486084E2,7.328496E2,8.400488E2,5.599351E2,5.308047E2,9.8521094E2,4.2614062E2,0E0,0E0,0E0,0E0,0E0,0E0,0E0,0E0,0E0,0E0,0E0,0E0,0E0,0E0,0E0,0E0,0E0,0E0,0E0,0E0,0E0,0E0,0E0,0E0,0E0,0E0,0E0,0E0,0E0,0E0,0E0,0E0],"parents":[2147483647,0,0,1,1,2,2,3,3,4,4,5,5,6,6,7,7,8,8,9,9,10,10,11,11,12,12,13,13,14,14,15,15,16,16,17,17,18,18,19,19,20,20,21,21,22,22,23,23,24,24,25,25,26,26,27,27,28,28,29,29,30,30],"right_children":[2,4,6,8,10,12,14,16,18,20,22,24,26,28,30,32,34,36,38,40,42,44,46,48,50,52,54,56,58,60,62,-1,-1,-1,-1,-1,-1,-1,-1,-1,-1,-1,-1,-1,-1,-1,-1,-1,-1,-1,-1,-1,-1,-1,-1,-1,-1,-1,-1,-1,-1,-1,-1],"split_conditions":[1.4131313E1,8.1E0,2.1442308E1,7.141414E0,1.12E1,1.68E1,2.4357143E1,3.9E0,4E0,1.1958333E1,9.8E0,1.065E1,1.94E1,1.76E1,2.9947369E1,1.4234875E-1,8.2E0,6.6E0,9.782609E0,4E-1,-9E0,2.4E0,4.342E-1,4.8E0,1.8E1,1.0664583E1,5.0445104E-1,1.8E0,3.866E-1,2.8E0,1E1,-2.9767787E-1,-2.3040862E-1,-1.9567892E-1,-1.4736243E-1,-2.5847673E-1,-1.4440206E-1,-1.332239E-1,-7.1274355E-2,-8.0309115E-2,-1.1635529E-1,1.2155657E-1,-1.887445E-2,-5.320865E-2,3.8206137E-3,4.8045136E-2,-3.1426515E-2,-8.141758E-3,1.3891579E-1,1.1616891E-1,-2.0208268E-1,1.7428233E-1,-1.7342024E-3,2.109568E-1,3.0241704E-1,-2.8968954E-1,1.750899E-1,4.4787285E-1,2.9794943E-1,4.5258933E-1,3.6537692E-1,5.4041475E-1,7.6370645E-1],"split_indices":[2,1,2,2,1,1,2,1,0,2,23,23,2,0,2,11,0,23,2,16,25,19,16,19,25,3,11,19,15,17,19,0,0,0,0,0,0,0,0,0,0,0,0,0,0,0,0,0,0,0,0,0,0,0,0,0,0,0,0,0,0,0,0],"split_type":[0,0,0,0,0,0,0,0,0,0,0,0,0,0,0,0,0,0,0,0,0,0,0,0,0,0,0,0,0,0,0,0,0,0,0,0,0,0,0,0,0,0,0,0,0,0,0,0,0,0,0,0,0,0,0,0,0,0,0,0,0,0,0],"sum_hessian":[2.5079E4,1.7117E4,7.962E3,7.837E3,9.28E3,4.934E3,3.028E3,5.846E3,1.991E3,4.804E3,4.476E3,1.889E3,3.045E3,1.34E3,1.688E3,1.814E3,4.032E3,1.78E2,1.813E3,4.278E3,5.26E2,2.459E3,2.017E3,3.97E2,1.492E3,1.919E3,1.126E3,1.13E2,1.227E3,1.384E3,3.04E2,2.68E2,1.546E3,3.51E3,5.22E2,1.36E2,4.2E1,1.53E3,2.83E2,3.05E3,1.228E3,3.2E1,4.94E2,1.335E3,1.124E3,1.613E3,4.04E2,3.41E2,5.6E1,1.473E3,1.9E1,1.858E3,6.1E1,7.26E2,4E2,6E0,1.07E2,6.6E1,1.161E3,6.73E2,7.11E2,2.74E2,3E1],"tree_param":{"num_deleted":"0","num_feature":"26","num_nodes":"63","size_leaf_vector":"1"}},{"base_weights":[-3.3586423E-3,-2.0287697E0,4.5997877E0,-3.6504993E0,-8.433294E-1,3.546821E0,8.080712E0,-4.0318713E0,-2.8033128E0,-1.6304454E0,3.944232E-2,2.3571432E0,4.8122125E0,7.4478507E0,1.0351882E1,-4.2745185E0,-3.387662E0,-2.9571574E0,-1.4579073E0,-1.9429836E0,-9.2140895E-1,-7.456704E-1,5.18868E-1,1.573746E0,3.0021183E0,3.7265282E0,5.354181E0,8.711597E0,6.9846344E0,1.0476212E1,3.7820708E-2,-2.1876128E-1,-1.430794E-1,-2.0158565E-1,-1.5202303E-1,-2.0589454E-1,-1.4106582E-1,-9.193092E-2,1.3703518E-1,-1.00900404E-1,1.8962994E-2,-4.793955E-2,3.9209285E-1,-1.4354353E-1,-2.8685613E-2,9.877626E-3,7.796763E-2,-6.455304E-2,8.8105E-2,1.0332375E-1,1.7482126E-1,1.8215878E-1,4.7231933E-1,3.1219772E-1,2.4398907E-1,3.9378032E-1,5.81596E-1,3.000891E-1,3.8392773E-1,5.2767E-1,2.882312E-2],"categories":[],"categories_nodes":[],"categories_segments":[],"categories_sizes":[],"default_left":[0,0,0,0,0,0,0,0,0,0,1,0,0,0,0,0,0,0,0,0,0,0,0,0,1,0,0,0,0,0,0,0,0,0,0,0,0,0,0,0,0,0,0,0,0,0,0,0,0,0,0,0,0,0,0,0,0,0,0,0,0],"id":11,"left_children":[1,3,5,7,9,11,13,15,17,19,21,23,25,27,29,31,33,35,37,39,41,43,45,47,49,51,53,55,57,59,-1,-1,-1,-1,-1,-1,-1,-1,-1,-1,-1,-1,-1,-1,-1,-1,-1,-1,-1,-1,-1,-1,-1,-1,-1,-1,-1,-1,-1,-1,-1],"loss_changes":[2.3317456E5,3.338582E4,2.7980375E4,2.3575781E3,6.9729795E3,8.8231875E3,2.470961E3,7.749297E2,4.6716797E2,1.1735166E3,1.7811278E3,1.5242734E3,1.6519766E3,7.5185156E2,4.490664E2,5.086797E2,2.974121E2,3.1013477E2,3.8218488E2,6.4225195E2,5.391616E2,6.5361755E2,9.817596E2,7.410315E2,7.5949805E2,4.1720215E2,7.678906E2,8.073047E2,6.5025E2,2.8241406E2,0E0,0E0,0E0,0E0,0E0,0E0,0E0,0E0,0E0,0E0,0E0,0E0,0E0,0E0,0E0,0E0,0E0,0E0,0E0,0E0,0E0,0E0,0E0,0E0,0E0,0E0,0E0,0E0,0E0,0E0,0E0],"parents":[2147483647,0,0,1,1,2,2,3,3,4,4,5,5,6,6,7,7,8,8,9,9,10,10,11,11,12,12,13,13,14,14,15,15,16,16,17,17,18,18,19,19,20,20,21,21,22,22,23,23,24,24,25,25,26,26,27,27,28,28,29,29],"right_children":[2,4,6,8,10,12,14,16,18,20,22,24,26,28,30,32,34,36,38,40,42,44,46,48,50,52,54,56,58,60,-1,-1,-1,-1,-1,-1,-1,-1,-1,-1,-1,-1,-1,-1,-1,-1,-1,-1,-1,-1,-1,-1,-1,-1,-1,-1,-1,-1,-1,-1,-1],"split_conditions":[1.4566038E1,7.8E0,2.390909E1,6.5833335E0,1.12E1,1.88E1,8.5427135E-1,6E0,9.782609E0,1.0375E1,9.05E0,1.66E1,1.99E1,2E0,6.6E0,3.773585E-1,2.513661E-1,4E0,2.78E1,1.34E1,2.4161074E-1,2.3952097E-2,1.6E1,1.12E1,1.28E1,7.424749E-1,4.6E-1,3.1E1,1.855E1,4.18E1,3.7820708E-2,-2.1876128E-1,-1.430794E-1,-2.0158565E-1,-1.5202303E-1,-2.0589454E-1,-1.4106582E-1,-9.193092E-2,1.3703518E-1,-1.00900404E-1,1.8962994E-2,-4.793955E-2,3.9209285E-1,-1.4354353E-1,-2.8685613E-2,9.877626E-3,7.796763E-2,-6.455304E-2,8.8105E-2,1.0332375E-1,1.7482126E-1,1.8215878E-1,4.7231933E-1,3.1219772E-1,2.4398907E-1,3.9378032E-1,5.81596E-1,3.000891E-1,3.8392773E-1,5.2767E-1,2.882312E-2],"split_indices":[2,1,2,2,1,2,13,0,2,2,23,0,1,17,17,11,11,0,9,0,12,12,0,1,23,13,15,20,23,0,0,0,0,0,0,0,0,0,0,0,0,0,0,0,0,0,0,0,0,0,0,0,0,0,0,0,0,0,0,0,0],"split_type":[0,0,0,0,0,0,0,0,0,0,0,0,0,0,0,0,0,0,0,0,0,0,0,0,0,0,0,0,0,0,0,0,0,0,0,0,0,0,0,0,0,0,0,0,0,0,0,0,0,0,0,0,0,0,0,0,0,0,0,0,0],"sum_hessian":[2.5008E4,1.7367E4,7.641E3,7.333E3,1.0034E4,5.868E3,1.773E3,5.054E3,2.279E3,5.304E3,4.73E3,3.026E3,2.842E3,1.39E3,3.83E2,3.667E3,1.387E3,2.044E3,2.35E2,3.68E3,1.624E3,1.793E3,2.937E3,1.368E3,1.658E3,9.49E2,1.893E3,3.68E2,1.022E3,3.78E2,5E0,3.421E3,2.46E2,4.82E2,9.05E2,2.11E2,1.833E3,2.16E2,1.9E1,3.565E3,1.15E2,1.618E3,6E0,1.33E2,1.66E3,2.245E3,6.92E2,8.4E1,1.284E3,5.75E2,1.083E3,9.37E2,1.2E1,6.54E2,1.239E3,2.89E2,7.9E1,4.27E2,5.95E2,3.75E2,3E0],"tree_param":{"num_deleted":"0","num_feature":"26","num_nodes":"61","size_leaf_vector":"1"}},{"base_weights":[1.8451521E-2,-1.8574592E0,4.575121E0,-3.0072646E0,-1.7304067E-1,3.4024239E0,7.1758137E0,-3.6179101E0,-1.9639026E0,-8.419464E-1,5.3153044E-1,2.3732195E0,4.391224E0,6.4119062E0,8.919105E0,-4.2899055E0,-3.2825847E0,-2.0949047E0,-5.6495667E-1,-6.1468655E-1,-1.6854773E0,2.6904055E-1,1.9521228E0,1.2799693E0,2.8586595E0,3.7676618E0,5.296485E0,5.7576194E0,7.045073E0,7.3422885E0,9.932483E0,-2.398547E-1,-1.986589E-1,-1.6846263E-1,-3.9091047E-2,-1.1998623E-1,-8.541045E-2,1.6287737E-1,-3.892598E-2,-1.2176428E-1,-2.5913222E-2,-8.959718E-2,3.3833975E-1,-1.2136564E-2,3.6304068E-2,1.6894014E-1,4.617491E-2,-7.2382586E-3,1.1969097E-1,1.9709776E-1,1.1469217E-1,1.16314165E-1,1.9879575E-1,5.193102E-1,2.550212E-1,2.2757804E-1,3.2527667E-1,-3.5415396E-2,3.562006E-1,4.4774333E-1,2.6817435E-1,3.469158E-1,5.206648E-1],"categories":[],"categories_nodes":[],"categories_segments":[],"categories_sizes":[],"default_left":[0,0,0,0,0,0,0,0,1,0,0,0,0,0,0,0,0,0,0,0,0,0,0,0,0,0,0,0,0,0,0,0,0,0,0,0,0,0,0,0,0,0,0,0,0,0,0,0,0,0,0,0,0,0,0,0,0,0,0,0,0,0,0],"id":12,"left_children":[1,3,5,7,9,11,13,15,17,19,21,23,25,27,29,31,33,35,37,39,41,43,45,47,49,51,53,55,57,59,61,-1,-1,-1,-1,-1,-1,-1,-1,-1,-1,-1,-1,-1,-1,-1,-1,-1,-1,-1,-1,-1,-1,-1,-1,-1,-1,-1,-1,-1,-1,-1,-1],"loss_changes":[2.1540744E5,3.4572145E4,2.2387703E4,6.751586E3,3.414044E3,5.1454727E3,2.9815703E3,1.4928984E3,7.167666E2,7.1109375E2,1.3148125E3,1.3147344E3,1.4372109E3,6.172656E2,1.0326953E3,3.3732812E2,9.653242E2,4.1782715E2,2.7739642E2,5.126168E2,7.2073535E2,6.970144E2,8.035842E2,1.216168E3,1.0427383E3,4.5028516E2,9.942637E2,6.80084E2,4.9777344E2,8.2805566E2,5.2922266E2,0E0,0E0,0E0,0E0,0E0,0E0,0E0,0E0,0E0,0E0,0E0,0E0,0E0,0E0,0E0,0E0,0E0,0E0,0E0,0E0,0E0,0E0,0E0,0E0,0E0,0E0,0E0,0E0,0E0,0E0,0E0,0E0],"parents":[2147483647,0,0,1,1,2,2,3,3,4,4,5,5,6,6,7,7,8,8,9,9,10,10,11,11,12,12,13,13,14,14,15,15,16,16,17,17,18,18,19,19,20,20,21,21,22,22,23,23,24,24,25,25,26,26,27,27,28,28,29,29,30,30],"right_children":[2,4,6,8,10,12,14,16,18,20,22,24,26,28,30,32,34,36,38,40,42,44,46,48,50,52,54,56,58,60,62,-1,-1,-1,-1,-1,-1,-1,-1,-1,-1,-1,-1,-1,-1,-1,-1,-1,-1,-1,-1,-1,-1,-1,-1,-1,-1,-1,-1,-1,-1,-1,-1],"split_conditions":[1.5098765E1,9.8E0,2.2681818E1,7.4E0,1.24E1,1.88E1,2.709756E1,4E0,9.3E0,4.258E-1,1.215E1,2.6E0,2.0484375E1,2.4973684E1,5.8E0,2.0143884E-1,9.782609E0,8.528735E0,7.25E0,7.4E0,8.937437E0,1.25E1,3.332E-1,5.09434E-1,-3.4E0,3.9779004E-1,3.866E-1,-5E-1,-5.9E0,2.6E0,3.4E0,-2.398547E-1,-1.986589E-1,-1.6846263E-1,-3.9091047E-2,-1.1998623E-1,-8.541045E-2,1.6287737E-1,-3.892598E-2,-1.2176428E-1,-2.5913222E-2,-8.959718E-2,3.3833975E-1,-1.2136564E-2,3.6304068E-2,1.6894014E-1,4.617491E-2,-7.2382586E-3,1.1969097E-1,1.9709776E-1,1.1469217E-1,1.16314165E-1,1.9879575E-1,5.193102E-1,2.550212E-1,2.2757804E-1,3.2527667E-1,-3.5415396E-2,3.562006E-1,4.4774333E-1,2.6817435E-1,3.469158E-1,5.206648E-1],"split_indices":[2,1,2,1,1,0,2,0,23,16,23,19,2,2,19,11,2,2,22,0,3,2,16,14,25,11,15,4,4,17,18,0,0,0,0,0,0,0,0,0,0,0,0,0,0,0,0,0,0,0,0,0,0,0,0,0,0,0,0,0,0,0,0],"split_type":[0,0,0,0,0,0,0,0,0,0,0,0,0,0,0,0,0,0,0,0,0,0,0,0,0,0,0,0,0,0,0,0,0,0,0,0,0,0,0,0,0,0,0,0,0,0,0,0,0,0,0,0,0,0,0,0,0,0,0,0,0,0,0],"sum_hessian":[2.5198E4,1.785E4,7.348E3,1.0608E4,7.242E3,5.066E3,2.282E3,6.69E3,3.918E3,3.715E3,3.527E3,2.484E3,2.582E3,1.59E3,6.92E2,2.223E3,4.467E3,3.582E3,3.36E2,2.928E3,7.87E2,2.978E3,5.49E2,7.65E2,1.719E3,1.532E3,1.05E3,7.87E2,8.03E2,2.74E2,4.18E2,8.49E2,1.374E3,4.317E3,1.5E2,2E3,1.582E3,1.7E1,3.19E2,1.46E2,2.782E3,7.78E2,9E0,1.405E3,1.573E3,2.29E2,3.2E2,3.36E2,4.29E2,5.87E2,1.132E3,1.95E2,1.337E3,3.7E1,1.013E3,3.04E2,4.83E2,8E0,7.95E2,1.49E2,1.25E2,6E1,3.58E2],"tree_param":{"num_deleted":"0","num_feature":"26","num_nodes":"63","size_leaf_vector":"1"}},{"base_weights":[-7.830608E-4,-1.9334663E0,3.8791256E0,-3.2346256E0,-7.433108E-1,2.5120347E0,6.193448E0,-3.7371483E0,-2.6309044E0,-1.4244213E0,8.142562E-2,1.2388567E0,3.159376E0,5.7900534E0,9.080432E0,-4.3533535E0,-3.4975338E0,-3.087334E0,-2.125811E0,-1.8911604E0,-9.1901976E-1,-2.3513247E-1,1.1706328E0,2.7516773E-1,1.6610451E0,2.7263093E0,4.2534394E0,5.1280193E0,6.6764297E0,3.138618E0,9.47301E0,-2.579472E-1,-1.9764931E-1,-1.798787E-1,-1.1868649E-1,-1.00725405E-1,-1.6364793E-1,-1.0969944E-1,1.1323116E-1,-1.3869333E-1,-8.0276415E-2,-1.4447258E-1,-4.225622E-2,-6.710095E-2,-3.999339E-3,-3.5704333E-2,7.667922E-2,-3.6687802E-3,1.1162626E-1,3.360052E-2,1.0907681E-1,1.3105159E-1,2.6005095E-1,-2.9823858E-1,2.1558216E-1,1.9849572E-1,2.78634E-1,2.9159886E-1,3.7663075E-1,3.7738346E-2,2.8249463E-1,2.1397178E-1,4.9435887E-1],"categories":[],"categories_nodes":[],"categories_segments":[],"categories_sizes":[],"default_left":[0,0,0,0,0,1,0,0,1,0,1,0,0,1,0,1,0,0,0,0,0,0,0,0,0,0,0,0,0,0,0,0,0,0,0,0,0,0,0,0,0,0,0,0,0,0,0,0,0,0,0,0,0,0,0,0,0,0,0,0,0,0,0],"id":13,"left_children":[1,3,5,7,9,11,13,15,17,19,21,23,25,27,29,31,33,35,37,39,41,43,45,47,49,51,53,55,57,59,61,-1,-1,-1,-1,-1,-1,-1,-1,-1,-1,-1,-1,-1,-1,-1,-1,-1,-1,-1,-1,-1,-1,-1,-1,-1,-1,-1,-1,-1,-1,-1,-1],"loss_changes":[1.8867294E5,2.6005629E4,2.6452672E4,2.4235781E3,4.928366E3,4.33166E3,3.563164E3,6.301172E2,8.339238E2,1.1314355E3,1.3688696E3,7.2152295E2,1.6398555E3,1.5653984E3,8.530703E2,3.7250977E2,3.4567578E2,3.740371E2,5.242988E2,6.246758E2,3.333883E2,5.279878E2,6.127285E2,3.7014505E2,6.334917E2,6.3717773E2,6.1255664E2,7.833594E2,7.9559375E2,1.4475781E2,7.198828E2,0E0,0E0,0E0,0E0,0E0,0E0,0E0,0E0,0E0,0E0,0E0,0E0,0E0,0E0,0E0,0E0,0E0,0E0,0E0,0E0,0E0,0E0,0E0,0E0,0E0,0E0,0E0,0E0,0E0,0E0,0E0,0E0],"parents":[2147483647,0,0,1,1,2,2,3,3,4,4,5,5,6,6,7,7,8,8,9,9,10,10,11,11,12,12,13,13,14,14,15,15,16,16,17,17,18,18,19,19,20,20,21,21,22,22,23,23,24,24,25,25,26,26,27,27,28,28,29,29,30,30],"right_children":[2,4,6,8,10,12,14,16,18,20,22,24,26,28,30,32,34,36,38,40,42,44,46,48,50,52,54,56,58,60,62,-1,-1,-1,-1,-1,-1,-1,-1,-1,-1,-1,-1,-1,-1,-1,-1,-1,-1,-1,-1,-1,-1,-1,-1,-1,-1,-1,-1,-1,-1,-1,-1],"split_conditions":[1.44E1,8.2E0,2.17E1,5.8E0,1.12E1,1.215E1,8.4153E-1,1.9895288E-1,5.95E0,9.5E0,1.1E1,7.46888E-2,1.56E1,1.825E1,2.69E1,2.8E0,2.12E1,8.05E0,6.343042E-1,2.06E1,1.6E1,2.22E1,4.6856756E0,1.7666666E1,1.56E1,2.0821919E-1,2.36E1,1.1960133E-1,5.8E0,6E-1,3.8E0,-2.579472E-1,-1.9764931E-1,-1.798787E-1,-1.1868649E-1,-1.00725405E-1,-1.6364793E-1,-1.0969944E-1,1.1323116E-1,-1.3869333E-1,-8.0276415E-2,-1.4447258E-1,-4.225622E-2,-6.710095E-2,-3.999339E-3,-3.5704333E-2,7.667922E-2,-3.6687802E-3,1.1162626E-1,3.360052E-2,1.0907681E-1,1.3105159E-1,2.6005095E-1,-2.9823858E-1,2.1558216E-1,1.9849572E-1,2.78634E-1,2.9159886E-1,3.7663075E-1,3.7738346E-2,2.8249463E-1,2.1397178E-1,4.9435887E-1],"split_indices":[1,1,1,1,1,23,14,11,23,20,23,12,23,23,1,23,9,22,13,9,9,9,3,20,1,12,9,12,19,24,19,0,0,0,0,0,0,0,0,0,0,0,0,0,0,0,0,0,0,0,0,0,0,0,0,0,0,0,0,0,0,0,0],"split_type":[0,0,0,0,0,0,0,0,0,0,0,0,0,0,0,0,0,0,0,0,0,0,0,0,0,0,0,0,0,0,0,0,0,0,0,0,0,0,0,0,0,0,0,0,0,0,0,0,0,0,0,0,0,0,0,0,0,0,0,0,0,0,0],"sum_hessian":[2.5159E4,1.6794E4,8.365E3,8.022E3,8.772E3,5.26E3,3.105E3,4.375E3,3.647E3,4.804E3,3.968E3,1.774E3,3.486E3,2.727E3,3.78E2,1.22E3,3.155E3,1.913E3,1.734E3,2.496E3,2.308E3,3.075E3,8.93E2,5.41E2,1.233E3,2.5E3,9.86E2,1.565E3,1.162E3,2.4E1,3.54E2,4.01E2,8.19E2,2.895E3,2.6E2,2.84E2,1.629E3,1.708E3,2.6E1,6.08E2,1.888E3,8.2E1,2.226E3,3.77E2,2.698E3,1.44E2,7.49E2,4.6E2,8.1E1,4.26E2,8.07E2,2.4E3,1E2,5E0,9.81E2,4.37E2,1.128E3,5.89E2,5.73E2,1.3E1,1.1E1,2.7E1,3.27E2],"tree_param":{"num_deleted":"0","num_feature":"26","num_nodes":"63","size_leaf_vector":"1"}},{"base_weights":[-1.0240155E-3,-1.6933694E0,4.1634135E0,-3.0869899E0,-5.900987E-1,2.8666046E0,6.1483617E0,-3.492166E0,-2.316093E0,-1.2445894E0,3.510403E-1,1.9805815E0,3.7902575E0,5.163215E0,7.3714623E0,-3.7526286E0,-2.8275435E0,-2.508615E0,-1.3835695E0,-1.7453644E0,-7.497649E-1,-3.2455108E-1,9.028166E-1,1.2400122E0,2.5921311E0,3.0260317E0,4.223176E0,2.6430485E0,5.362294E0,6.7768745E0,9.205764E0,-1.5172105E-1,-1.9434902E-1,-1.4566855E-1,5.0955516E-4,-1.318132E-1,-6.8392925E-2,-7.654482E-2,1.5903692E-1,-1.06898144E-1,-7.336759E-2,-4.7041755E-2,1.6714003E-2,-1.2111828E-2,-1.5797016E-1,7.889364E-4,5.66518E-2,-3.9673913E-2,7.272258E-2,1.1629671E-1,2.4558043E-1,3.7113104E-2,1.6494404E-1,3.101456E-1,1.9950327E-1,6.431299E-2,2.5044274E-1,3.1415433E-1,2.4703884E-1,3.5446927E-1,2.0352279E-1,4.3543598E-1,6.563032E-1],"categories":[],"categories_nodes":[],"categories_segments":[],"categories_sizes":[],"default_left":[0,0,0,0,0,0,0,0,0,0,0,0,0,0,0,0,0,0,0,0,0,0,0,0,0,0,0,0,0,0,0,0,0,0,0,0,0,0,0,0,0,0,0,0,0,0,0,0,0,0,0,0,0,0,0,0,0,0,0,0,0,0,0],"id":14,"left_children":[1,3,5,7,9,11,13,15,17,19,21,23,25,27,29,31,33,35,37,39,41,43,45,47,49,51,53,55,57,59,61,-1,-1,-1,-1,-1,-1,-1,-1,-1,-1,-1,-1,-1,-1,-1,-1,-1,-1,-1,-1,-1,-1,-1,-1,-1,-1,-1,-1,-1,-1,-1,-1],"loss_changes":[1.77756E5,2.7572066E4,1.8741508E4,2.466375E3,6.1669697E3,3.6009648E3,3.4296875E3,8.875117E2,4.867998E2,1.4616758E3,1.531339E3,1.0167744E3,7.0046484E2,7.867656E2,1.3342344E3,3.4714453E2,3.5737402E2,3.2566895E2,3.207536E2,3.1674023E2,6.1596155E2,4.2989093E2,4.615935E2,4.4643787E2,7.491533E2,4.8567627E2,6.0878906E2,3.7490582E2,5.422656E2,7.921289E2,4.8951172E2,0E0,0E0,0E0,0E0,0E0,0E0,0E0,0E0,0E0,0E0,0E0,0E0,0E0,0E0,0E0,0E0,0E0,0E0,0E0,0E0,0E0,0E0,0E0,0E0,0E0,0E0,0E0,0E0,0E0,0E0,0E0,0E0],"parents":[2147483647,0,0,1,1,2,2,3,3,4,4,5,5,6,6,7,7,8,8,9,9,10,10,11,11,12,12,13,13,14,14,15,15,16,16,17,17,18,18,19,19,20,20,21,21,22,22,23,23,24,24,25,25,26,26,27,27,28,28,29,29,30,30],"right_children":[2,4,6,8,10,12,14,16,18,20,22,24,26,28,30,32,34,36,38,40,42,44,46,48,50,52,54,56,58,60,62,-1,-1,-1,-1,-1,-1,-1,-1,-1,-1,-1,-1,-1,-1,-1,-1,-1,-1,-1,-1,-1,-1,-1,-1,-1,-1,-1,-1,-1,-1,-1,-1],"split_conditions":[1.5098765E1,8.1E0,2.1777779E1,6.5833335E0,1.1488372E1,1.806579E1,2.5454546E1,6E0,2.5E1,1.04E1,1.28E1,1.66E1,5.704918E-1,1.95E1,2.9947369E1,1E0,6.060606E-1,9.8505745E0,1.5666667E1,2.26E1,1.48E1,2.8E0,1.6E0,1.08E1,1.625E1,1.44E1,4.527693E0,3.34E1,3E-1,4.4E0,9.6E0,-1.5172105E-1,-1.9434902E-1,-1.4566855E-1,5.0955516E-4,-1.318132E-1,-6.8392925E-2,-7.654482E-2,1.5903692E-1,-1.06898144E-1,-7.336759E-2,-4.7041755E-2,1.6714003E-2,-1.2111828E-2,-1.5797016E-1,7.889364E-4,5.66518E-2,-3.9673913E-2,7.272258E-2,1.1629671E-1,2.4558043E-1,3.7113104E-2,1.6494404E-1,3.101456E-1,1.9950327E-1,6.431299E-2,2.5044274E-1,3.1415433E-1,2.4703884E-1,3.5446927E-1,2.0352279E-1,4.3543598E-1,6.563032E-1],"split_indices":[2,1,2,2,2,2,2,0,9,0,0,0,14,1,2,6,13,2,20,9,0,17,19,0,23,1,3,9,16,17,19,0,0,0,0,0,0,0,0,0,0,0,0,0,0,0,0,0,0,0,0,0,0,0,0,0,0,0,0,0,0,0,0],"split_type":[0,0,0,0,0,0,0,0,0,0,0,0,0,0,0,0,0,0,0,0,0,0,0,0,0,0,0,0,0,0,0,0,0,0,0,0,0,0,0,0,0,0,0,0,0,0,0,0,0,0,0,0,0,0,0,0,0,0,0,0,0,0,0],"sum_hessian":[2.522E4,1.7933E4,7.287E3,7.923E3,1.001E4,4.409E3,2.878E3,5.191E3,2.732E3,5.904E3,4.106E3,2.252E3,2.157E3,1.597E3,1.281E3,3.726E3,1.465E3,2.263E3,4.69E2,2.933E3,2.971E3,1.846E3,2.26E3,1.02E3,1.232E3,7.83E2,1.374E3,1.18E2,1.479E3,9.71E2,3.1E2,5.91E2,3.135E3,1.422E3,4.3E1,2.034E3,2.29E2,4.55E2,1.4E1,1.213E3,1.72E3,2.526E3,4.45E2,1.795E3,5.1E1,4.66E2,1.794E3,9.7E1,9.23E2,1.107E3,1.25E2,8.4E1,6.99E2,1.42E2,1.232E3,7.6E1,4.2E1,4.6E2,1.019E3,8.69E2,1.02E2,2.78E2,3.2E1],"tree_param":{"num_deleted":"0","num_feature":"26","num_nodes":"63","size_leaf_vector":"1"}},{"base_weights":[-3.3879853E-3,-1.6944455E0,3.6683056E0,-2.4815807E0,-2.659094E-1,2.3289402E0,5.7193427E0,-3.3512528E0,-1.9050593E0,-7.9717344E-1,3.3163577E-1,1.7874833E0,3.5254776E0,4.5786223E0,7.017486E0,-3.978687E0,-3.1433961E0,-2.4937215E0,-1.4897195E0,-1.2831861E0,-3.7820157E-1,-7.2728693E-1,5.955772E-1,7.3332864E-1,2.2351398E0,7.85518E-1,3.7004852E0,3.0304837E0,4.9897103E0,6.3618207E0,8.582745E0,-1.4481738E-1,-2.0849104E-1,-1.6050613E-1,-9.343005E-2,-1.5695743E-1,-1.1294206E-1,-8.209565E-2,-1.0560208E-2,-2.720684E-1,-6.0588535E-2,-2.1656474E-2,1.6288696E-1,-2.7944928E-2,-2.8100917E-1,4.1248456E-2,-4.1777052E-2,-6.390997E-2,5.6792118E-2,1.0294402E-1,1.8057059E-1,2.0093292E-2,4.502243E-1,1.41235E-1,2.1238802E-1,4.3055135E-1,1.3698417E-1,2.1391438E-1,2.7605E-1,2.2185223E-1,3.333902E-1,4.0009815E-2,4.3455037E-1],"categories":[],"categories_nodes":[],"categories_segments":[],"categories_sizes":[],"default_left":[0,0,0,0,1,1,0,1,0,0,0,0,0,0,0,0,0,0,0,0,0,0,0,1,0,0,0,0,0,0,0,0,0,0,0,0,0,0,0,0,0,0,0,0,0,0,0,0,0,0,0,0,0,0,0,0,0,0,0,0,0,0,0],"id":15,"left_children":[1,3,5,7,9,11,13,15,17,19,21,23,25,27,29,31,33,35,37,39,41,43,45,47,49,51,53,55,57,59,61,-1,-1,-1,-1,-1,-1,-1,-1,-1,-1,-1,-1,-1,-1,-1,-1,-1,-1,-1,-1,-1,-1,-1,-1,-1,-1,-1,-1,-1,-1,-1,-1],"loss_changes":[1.5614488E5,1.9359867E4,2.1770281E4,5.558961E3,1.9424962E3,3.1023086E3,4.6046406E3,5.637383E2,1.628623E3,6.5889185E2,8.053613E2,1.5581631E3,7.1303906E2,1.0468984E3,1.4453594E3,2.141543E2,2.7658203E2,4.1093164E2,7.6183887E2,4.3788135E2,3.488316E2,4.6998743E2,7.5771814E2,8.0057947E2,5.5478613E2,2.8238425E2,6.602246E2,5.481306E2,4.735625E2,5.788672E2,3.5355664E2,0E0,0E0,0E0,0E0,0E0,0E0,0E0,0E0,0E0,0E0,0E0,0E0,0E0,0E0,0E0,0E0,0E0,0E0,0E0,0E0,0E0,0E0,0E0,0E0,0E0,0E0,0E0,0E0,0E0,0E0,0E0,0E0],"parents":[2147483647,0,0,1,1,2,2,3,3,4,4,5,5,6,6,7,7,8,8,9,9,10,10,11,11,12,12,13,13,14,14,15,15,16,16,17,17,18,18,19,19,20,20,21,21,22,22,23,23,24,24,25,25,26,26,27,27,28,28,29,29,30,30],"right_children":[2,4,6,8,10,12,14,16,18,20,22,24,26,28,30,32,34,36,38,40,42,44,46,48,50,52,54,56,58,60,62,-1,-1,-1,-1,-1,-1,-1,-1,-1,-1,-1,-1,-1,-1,-1,-1,-1,-1,-1,-1,-1,-1,-1,-1,-1,-1,-1,-1,-1,-1,-1,-1],"split_conditions":[1.4131313E1,9.711864E0,2.1261906E1,5.8E0,9.25E0,1.485E1,2.4973684E1,3.05E0,6E0,1.06E1,2.44E1,1.48E1,1.6043478E1,2E1,8.3495146E-1,1E0,2.46E1,2.6E0,1.32E1,4.45E0,5.2012384E-1,2.1525E1,4.6E-1,1E1,2.2E1,7.008547E-1,4.4E0,1.325E1,1.4634146E-1,1.010101E-1,8.733624E-2,-1.4481738E-1,-2.0849104E-1,-1.6050613E-1,-9.343005E-2,-1.5695743E-1,-1.1294206E-1,-8.209565E-2,-1.0560208E-2,-2.720684E-1,-6.0588535E-2,-2.1656474E-2,1.6288696E-1,-2.7944928E-2,-2.8100917E-1,4.1248456E-2,-4.1777052E-2,-6.390997E-2,5.6792118E-2,1.0294402E-1,1.8057059E-1,2.0093292E-2,4.502243E-1,1.41235E-1,2.1238802E-1,4.3055135E-1,1.3698417E-1,2.1391438E-1,2.7605E-1,2.2185223E-1,3.333902E-1,4.0009815E-2,4.3455037E-1],"split_indices":[2,2,2,0,23,23,2,23,23,0,9,0,2,0,13,6,9,18,0,23,11,20,16,23,0,13,18,20,12,12,12,0,0,0,0,0,0,0,0,0,0,0,0,0,0,0,0,0,0,0,0,0,0,0,0,0,0,0,0,0,0,0,0],"split_type":[0,0,0,0,0,0,0,0,0,0,0,0,0,0,0,0,0,0,0,0,0,0,0,0,0,0,0,0,0,0,0,0,0,0,0,0,0,0,0,0,0,0,0,0,0,0,0,0,0,0,0,0,0,0,0,0,0,0,0,0,0,0,0],"sum_hessian":[2.5146E4,1.7217E4,7.929E3,1.11E4,6.117E3,4.798E3,3.131E3,4.423E3,6.677E3,3.238E3,2.879E3,3.305E3,1.493E3,1.669E3,1.462E3,1.096E3,3.327E3,2.76E3,3.917E3,1.498E3,1.74E3,5.74E2,2.305E3,9.86E2,2.319E3,9E1,1.403E3,3.52E2,1.317E3,1.034E3,4.28E2,1.67E2,9.29E2,3.16E3,1.67E2,7.33E2,2.027E3,3.5E3,4.17E2,2.4E1,1.474E3,1.715E3,2.5E1,5.56E2,1.8E1,1.987E3,3.18E2,1.64E2,8.22E2,2.058E3,2.61E2,8.7E1,3E0,5.42E2,8.61E2,1.6E1,3.36E2,5.67E2,7.5E2,1.44E2,8.9E2,6E0,4.22E2],"tree_param":{"num_deleted":"0","num_feature":"26","num_nodes":"63","size_leaf_vector":"1"}},{"base_weights":[3.920625E-2,-1.6045221E0,3.4608316E0,-2.7227108E0,-6.323546E-1,2.2190795E0,5.3532405E0,-3.0786226E0,-2.0350103E0,-1.1738313E0,2.9257141E-2,1.490641E0,3.2724864E0,4.2341504E0,6.4689627E0,-3.4676118E0,-2.7722042E0,-2.1977868E0,-8.1234187E-1,-1.5247176E0,-6.2188727E-1,-1.5062277E-1,1.10958E0,-1.6142342E0,1.6116462E0,2.1876733E0,3.65464E0,4.0763717E0,6.3606215E0,5.9632244E0,8.897256E0,-2.02695E-1,-1.6028072E-1,-1.4938004E-1,-9.97689E-2,-1.77218E-1,-1.0531719E-1,-2.6331589E-2,-2.3204724E-1,-1.4926627E-1,-7.204547E-2,-6.326981E-2,-4.768075E-3,5.8087404E-3,-3.18409E-2,2.8746867E-1,4.58942E-2,-2.0435742E-1,-1.7730592E-2,4.3089755E-2,9.4054185E-2,1.0172681E-1,4.045038E-1,1.6410491E-1,2.3009835E-1,1.7175153E-1,2.3001786E-1,3.6321712E-1,2.9549552E-2,3.287413E-1,2.3590992E-1,1.4365739E-1,4.7026616E-1],"categories":[],"categories_nodes":[],"categories_segments":[],"categories_sizes":[],"default_left":[0,0,0,0,0,0,0,0,0,0,0,0,0,0,0,1,0,0,0,0,0,0,0,0,1,0,0,0,0,0,0,0,0,0,0,0,0,0,0,0,0,0,0,0,0,0,0,0,0,0,0,0,0,0,0,0,0,0,0,0,0,0,0],"id":16,"left_children":[1,3,5,7,9,11,13,15,17,19,21,23,25,27,29,31,33,35,37,39,41,43,45,47,49,51,53,55,57,59,61,-1,-1,-1,-1,-1,-1,-1,-1,-1,-1,-1,-1,-1,-1,-1,-1,-1,-1,-1,-1,-1,-1,-1,-1,-1,-1,-1,-1,-1,-1,-1,-1],"loss_changes":[1.4163492E5,1.8490031E4,1.9190766E4,1.9295273E3,3.2605583E3,3.782246E3,4.0132422E3,6.108828E2,5.354717E2,9.6815283E2,7.9642633E2,1.0996631E3,8.2759766E2,5.162207E2,1.9337188E3,3.3834375E2,4.8213086E2,2.853994E2,3.4598395E2,3.6971094E2,6.594335E2,4.5581732E2,5.143724E2,3.4074963E2,5.660332E2,4.5977563E2,5.0995703E2,4.9083594E2,5.684761E2,9.904922E2,8.195508E2,0E0,0E0,0E0,0E0,0E0,0E0,0E0,0E0,0E0,0E0,0E0,0E0,0E0,0E0,0E0,0E0,0E0,0E0,0E0,0E0,0E0,0E0,0E0,0E0,0E0,0E0,0E0,0E0,0E0,0E0,0E0,0E0],"parents":[2147483647,0,0,1,1,2,2,3,3,4,4,5,5,6,6,7,7,8,8,9,9,10,10,11,11,12,12,13,13,14,14,15,15,16,16,17,17,18,18,19,19,20,20,21,21,22,22,23,23,24,24,25,25,26,26,27,27,28,28,29,29,30,30],"right_children":[2,4,6,8,10,12,14,16,18,20,22,24,26,28,30,32,34,36,38,40,42,44,46,48,50,52,54,56,58,60,62,-1,-1,-1,-1,-1,-1,-1,-1,-1,-1,-1,-1,-1,-1,-1,-1,-1,-1,-1,-1,-1,-1,-1,-1,-1,-1,-1,-1,-1,-1,-1,-1],"split_conditions":[1.3925926E1,8.1E0,2.14E1,6.5833335E0,1.0944445E1,1.7875E1,2.4357143E1,2.3791821E-1,9.782609E0,2.74E1,1.5E1,1.1E1,7.761194E-2,1.3866667E1,2.4161074E-1,3.05E0,1.5E0,1.2E1,6.4541116E0,5.744186E0,5.2980132E-2,2.6E0,4.408602E-1,9.3E0,1.125E1,2.35E1,1.6E1,1.65E1,9.531235E0,3.4E0,7.2328764E-1,-2.02695E-1,-1.6028072E-1,-1.4938004E-1,-9.97689E-2,-1.77218E-1,-1.0531719E-1,-2.6331589E-2,-2.3204724E-1,-1.4926627E-1,-7.204547E-2,-6.326981E-2,-4.768075E-3,5.8087404E-3,-3.18409E-2,2.8746867E-1,4.58942E-2,-2.0435742E-1,-1.7730592E-2,4.3089755E-2,9.4054185E-2,1.0172681E-1,4.045038E-1,1.6410491E-1,2.3009835E-1,1.7175153E-1,2.3001786E-1,3.6321712E-1,2.9549552E-2,3.287413E-1,2.3590992E-1,1.4365739E-1,4.7026616E-1],"split_indices":[2,1,1,2,2,2,2,11,2,9,1,1,12,21,12,23,4,9,3,2,12,25,14,23,23,2,23,23,3,17,14,0,0,0,0,0,0,0,0,0,0,0,0,0,0,0,0,0,0,0,0,0,0,0,0,0,0,0,0,0,0,0,0],"split_type":[0,0,0,0,0,0,0,0,0,0,0,0,0,0,0,0,0,0,0,0,0,0,0,0,0,0,0,0,0,0,0,0,0,0,0,0,0,0,0,0,0,0,0,0,0,0,0,0,0,0,0,0,0,0,0,0,0,0,0,0,0,0,0],"sum_hessian":[2.5181E4,1.701E4,8.171E3,7.91E3,9.1E3,4.935E3,3.236E3,5.21E3,2.7E3,5.004E3,4.096E3,2.919E3,2.016E3,1.618E3,1.618E3,2.291E3,2.919E3,2.382E3,3.18E2,3.058E3,1.946E3,3.512E3,5.84E2,1.09E2,2.81E3,5.27E2,1.489E3,1.509E3,1.09E2,1.342E3,2.76E2,7.03E2,1.588E3,2.283E3,6.36E2,1.49E2,2.233E3,2.97E2,2.1E1,1.64E2,2.894E3,8.75E2,1.071E3,2.268E3,1.244E3,2.2E1,5.62E2,3.6E1,7.3E1,7.44E2,2.066E3,5.15E2,1.2E1,1.072E3,4.17E2,6.82E2,8.27E2,9.4E1,1.5E1,8.97E2,4.45E2,2.2E1,2.54E2],"tree_param":{"num_deleted":"0","num_feature":"26","num_nodes":"63","size_leaf_vector":"1"}},{"base_weights":[3.0983321E-2,-1.4476995E0,3.4664965E0,-2.246473E0,-1.9493052E-1,2.6445382E0,5.9772725E0,-2.7880077E0,-1.5030824E0,-3.9457652E-1,1.4996966E0,1.8727317E0,3.6655564E0,5.5789475E0,8.006682E0,-3.2952356E0,-2.48741E0,-1.685732E0,-4.5745346E-1,-8.782054E-1,3.168517E-2,2.251872E0,3.298995E-1,1.5229522E0,3.0287528E0,2.545359E0,4.039142E0,4.7277584E0,6.1968427E0,7.556162E0,1.1999319E1,-1.7439146E-1,-1.10725045E-1,-1.4259784E-1,-1.1200652E-1,-1.0388898E-1,-6.844491E-2,-4.0597472E-2,1.08957365E-1,-8.5019276E-2,-3.579859E-2,-4.097375E-2,7.5585106E-3,1.45247E-1,2.0657059E-2,4.0218303E-1,8.093453E-3,2.8347692E-2,9.6759334E-2,2.533804E-1,1.3186488E-1,1.5738061E-1,7.246394E-2,-2.1418044E-2,2.061911E-1,8.283227E-2,2.5771812E-1,2.5936067E-1,3.4316206E-1,4.0625843E-1,2.3469377E-1,2.2908776E-1,6.337562E-1],"categories":[],"categories_nodes":[],"categories_segments":[],"categories_sizes":[],"default_left":[0,0,0,0,0,0,0,0,0,1,0,0,0,1,0,0,0,1,0,0,0,0,0,0,0,0,0,0,0,0,0,0,0,0,0,0,0,0,0,0,0,0,0,0,0,0,0,0,0,0,0,0,0,0,0,0,0,0,0,0,0,0,0],"id":17,"left_children":[1,3,5,7,9,11,13,15,17,19,21,23,25,27,29,31,33,35,37,39,41,43,45,47,49,51,53,55,57,59,61,-1,-1,-1,-1,-1,-1,-1,-1,-1,-1,-1,-1,-1,-1,-1,-1,-1,-1,-1,-1,-1,-1,-1,-1,-1,-1,-1,-1,-1,-1,-1,-1],"loss_changes":[1.2744805E5,1.7550227E4,1.5562602E4,4.306922E3,2.3112444E3,4.475676E3,1.4583438E3,9.3578516E2,8.614961E2,1.2599104E3,6.3252185E2,1.3058428E3,1.01352344E3,7.895547E2,4.5240234E2,4.708496E2,3.441289E2,4.7428906E2,6.3066174E2,3.804226E2,3.3048328E2,5.2442554E2,3.646869E2,9.8034424E2,5.860508E2,4.0095142E2,6.959512E2,8.5547656E2,5.6873047E2,4.084619E2,8.557178E1,0E0,0E0,0E0,0E0,0E0,0E0,0E0,0E0,0E0,0E0,0E0,0E0,0E0,0E0,0E0,0E0,0E0,0E0,0E0,0E0,0E0,0E0,0E0,0E0,0E0,0E0,0E0,0E0,0E0,0E0,0E0,0E0],"parents":[2147483647,0,0,1,1,2,2,3,3,4,4,5,5,6,6,7,7,8,8,9,9,10,10,11,11,12,12,13,13,14,14,15,15,16,16,17,17,18,18,19,19,20,20,21,21,22,22,23,23,24,24,25,25,26,26,27,27,28,28,29,29,30,30],"right_children":[2,4,6,8,10,12,14,16,18,20,22,24,26,28,30,32,34,36,38,40,42,44,46,48,50,52,54,56,58,60,62,-1,-1,-1,-1,-1,-1,-1,-1,-1,-1,-1,-1,-1,-1,-1,-1,-1,-1,-1,-1,-1,-1,-1,-1,-1,-1,-1,-1,-1,-1,-1,-1],"split_conditions":[1.46875E1,9.428572E0,2.35E1,7.2E0,1.64E1,1.94E1,2.9947369E1,4.647059E0,1.22E1,8.8E0,4.154E-1,4.7933885E-1,5.602606E-1,1.825E1,1E1,3.3557048E-1,2.3791821E-1,6.3E0,9.8E0,3.314917E-2,1.0166667E1,5.596E-1,6.1E0,2.4E0,3.866E-1,2E0,-4.5E0,1E1,5.6E0,3.6E0,1.6811594E-1,-1.7439146E-1,-1.10725045E-1,-1.4259784E-1,-1.1200652E-1,-1.0388898E-1,-6.844491E-2,-4.0597472E-2,1.08957365E-1,-8.5019276E-2,-3.579859E-2,-4.097375E-2,7.5585106E-3,1.45247E-1,2.0657059E-2,4.0218303E-1,8.093453E-3,2.8347692E-2,9.6759334E-2,2.533804E-1,1.3186488E-1,1.5738061E-1,7.246394E-2,-2.1418044E-2,2.061911E-1,8.283227E-2,2.5771812E-1,2.5936067E-1,3.4316206E-1,4.0625843E-1,2.3469377E-1,2.2908776E-1,6.337562E-1],"split_indices":[2,2,2,0,0,2,2,2,0,23,16,11,13,23,19,11,11,23,25,12,21,15,23,19,15,17,4,21,19,17,12,0,0,0,0,0,0,0,0,0,0,0,0,0,0,0,0,0,0,0,0,0,0,0,0,0,0,0,0,0,0,0,0],"split_type":[0,0,0,0,0,0,0,0,0,0,0,0,0,0,0,0,0,0,0,0,0,0,0,0,0,0,0,0,0,0,0,0,0,0,0,0,0,0,0,0,0,0,0,0,0,0,0,0,0,0,0,0,0,0,0,0,0,0,0,0,0,0,0],"sum_hessian":[2.5086E4,1.7538E4,7.548E3,1.0709E4,6.829E3,5.688E3,1.86E3,6.194E3,4.515E3,6.11E3,7.19E2,3.241E3,2.447E3,1.558E3,3.02E2,2.301E3,3.893E3,3.843E3,6.72E2,2.862E3,3.248E3,4.37E2,2.82E2,2.49E3,7.51E2,6.14E2,1.833E3,6.59E2,8.99E2,2.74E2,2.8E1,1.951E3,3.5E2,1.569E3,2.324E3,1.715E3,2.128E3,5.93E2,7.9E1,4.7E2,2.392E3,3.99E2,2.849E3,3.22E2,1.15E2,5E0,2.77E2,7.51E2,1.739E3,1.19E2,6.32E2,3.95E2,2.19E2,3.4E1,1.799E3,8.1E1,5.78E2,3.61E2,5.38E2,2.27E2,4.7E1,3E0,2.5E1],"tree_param":{"num_deleted":"0","num_feature":"26","num_nodes":"63","size_leaf_vector":"1"}},{"base_weights":[3.4509756E-2,-1.3411472E0,3.4145E0,-2.2482245E0,-2.5376537E-1,2.1993663E0,4.8115315E0,-2.6777885E0,-1.6123061E0,-7.062627E-1,3.9655983E-1,1.3756833E0,2.664322E0,4.03596E0,5.8142056E0,-3.1261759E0,-2.4060743E0,-1.7058765E0,-1.9532306E-1,-1.0783497E0,-2.8426224E-1,-1.8357822E-1,8.643844E-1,-1.7578201E-1,1.8061942E0,2.7871037E0,2.0508677E-1,3.6712475E0,4.9336424E0,5.3306236E0,7.896524E0,-1.8173344E-1,-1.3917904E-1,-1.2417518E-1,-2.7980644E-2,-1.03810705E-1,-7.035529E-2,-1.821407E-2,5.0463635E-1,-6.969764E-2,-6.3366303E-3,-5.34746E-3,-7.536853E-2,-1.5890455E-2,1.704944E-1,3.9769977E-2,3.7453184E-1,-1.4799155E-1,7.305728E-3,-2.68604E-4,9.930982E-2,1.1094429E-1,1.7211314E-1,-3.8575206E-2,1.8005888E-1,1.659777E-1,2.309778E-1,2.521812E-1,-2.1677342E-1,2.4009486E-1,3.3826467E-1,2.775115E-1,4.648002E-1],"categories":[],"categories_nodes":[],"categories_segments":[],"categories_sizes":[],"default_left":[0,0,0,0,0,1,0,0,1,0,0,0,0,0,0,0,0,0,0,0,0,0,1,0,0,0,0,0,0,0,0,0,0,0,0,0,0,0,0,0,0,0,0,0,0,0,0,0,0,0,0,0,0,0,0,0,0,0,0,0,0,0,0],"id":18,"left_children":[1,3,5,7,9,11,13,15,17,19,21,23,25,27,29,31,33,35,37,39,41,43,45,47,49,51,53,55,57,59,61,-1,-1,-1,-1,-1,-1,-1,-1,-1,-1,-1,-1,-1,-1,-1,-1,-1,-1,-1,-1,-1,-1,-1,-1,-1,-1,-1,-1,-1,-1,-1,-1],"loss_changes":[1.1754938E5,1.7721725E4,1.2403117E4,2.6712031E3,2.405383E3,1.4945176E3,2.6203203E3,7.0403906E2,5.234629E2,7.563977E2,9.105119E2,9.449236E2,7.5400195E2,6.099531E2,1.4479141E3,3.728457E2,5.19291E2,4.068955E2,4.303137E2,7.6882544E2,4.8981052E2,7.2334094E2,8.420687E2,2.7673596E2,3.611853E2,8.7817773E2,4.010523E2,4.407871E2,5.84666E2,8.8040234E2,8.564746E2,0E0,0E0,0E0,0E0,0E0,0E0,0E0,0E0,0E0,0E0,0E0,0E0,0E0,0E0,0E0,0E0,0E0,0E0,0E0,0E0,0E0,0E0,0E0,0E0,0E0,0E0,0E0,0E0,0E0,0E0,0E0,0E0],"parents":[2147483647,0,0,1,1,2,2,3,3,4,4,5,5,6,6,7,7,8,8,9,9,10,10,11,11,12,12,13,13,14,14,15,15,16,16,17,17,18,18,19,19,20,20,21,21,22,22,23,23,24,24,25,25,26,26,27,27,28,28,29,29,30,30],"right_children":[2,4,6,8,10,12,14,16,18,20,22,24,26,28,30,32,34,36,38,40,42,44,46,48,50,52,54,56,58,60,62,-1,-1,-1,-1,-1,-1,-1,-1,-1,-1,-1,-1,-1,-1,-1,-1,-1,-1,-1,-1,-1,-1,-1,-1,-1,-1,-1,-1,-1,-1,-1,-1],"split_conditions":[1.56E1,9.2E0,2.12E1,6.8E0,1.24E1,1.28E1,2.51E1,4E0,9.3E0,1.0666667E1,2.4E0,7.164179E-2,5E0,1.805E1,2.4161074E-1,2.0392157E-1,4.2539683E-1,2.12E1,3.5E1,2.96E1,4.55E-1,5.12E-1,1.57E1,7.4E0,9.833333E0,1.9E1,1.2766666E1,7.2E0,3.04E1,8.6E0,2.6E0,-1.8173344E-1,-1.3917904E-1,-1.2417518E-1,-2.7980644E-2,-1.03810705E-1,-7.035529E-2,-1.821407E-2,5.0463635E-1,-6.969764E-2,-6.3366303E-3,-5.34746E-3,-7.536853E-2,-1.5890455E-2,1.704944E-1,3.9769977E-2,3.7453184E-1,-1.4799155E-1,7.305728E-3,-2.68604E-4,9.930982E-2,1.1094429E-1,1.7211314E-1,-3.8575206E-2,1.8005888E-1,1.659777E-1,2.309778E-1,2.521812E-1,-2.1677342E-1,2.4009486E-1,3.3826467E-1,2.775115E-1,4.648002E-1],"split_indices":[1,1,1,1,1,23,1,0,23,20,19,12,6,23,12,11,11,9,9,9,16,11,23,20,21,0,21,18,0,25,25,0,0,0,0,0,0,0,0,0,0,0,0,0,0,0,0,0,0,0,0,0,0,0,0,0,0,0,0,0,0,0,0],"split_type":[0,0,0,0,0,0,0,0,0,0,0,0,0,0,0,0,0,0,0,0,0,0,0,0,0,0,0,0,0,0,0,0,0,0,0,0,0,0,0,0,0,0,0,0,0,0,0,0,0,0,0,0,0,0,0,0,0,0,0,0,0,0,0],"sum_hessian":[2.5279E4,1.7967E4,7.312E3,9.795E3,8.172E3,3.912E3,3.4E3,5.844E3,3.951E3,4.819E3,3.353E3,1.413E3,2.499E3,1.92E3,1.48E3,2.201E3,3.643E3,3.706E3,2.45E2,2.56E3,2.259E3,1.497E3,1.856E3,3.07E2,1.106E3,2.38E3,1.19E2,1.369E3,5.51E2,1.204E3,2.76E2,8.82E2,1.319E3,3.496E3,1.47E2,1.652E3,2.054E3,2.42E2,3E0,1.922E3,6.38E2,1.974E3,2.85E2,1.444E3,5.3E1,1.838E3,1.8E1,3.1E1,2.76E2,1E2,1.006E3,1.277E3,1.103E3,9.3E1,2.6E1,1.002E3,3.67E2,5.45E2,6E0,8.83E2,3.21E2,1.05E2,1.71E2],"tree_param":{"num_deleted":"0","num_feature":"26","num_nodes":"63","size_leaf_vector":"1"}},{"base_weights":[2.021758E-2,-1.4705234E0,2.9067216E0,-2.4296582E0,-6.625332E-1,1.5340507E0,4.315693E0,-2.8287127E0,-2.0644865E0,-1.116225E0,-7.902177E-2,8.44221E-1,2.249994E0,3.4422889E0,5.69593E0,-3.2312064E0,-2.5685472E0,-2.3267076E0,-1.6025012E0,-1.2949209E0,-5.211606E-1,-4.467845E-1,2.7159992E-1,-4.6350536E-1,1.0125588E0,2.3979726E0,-7.455167E-1,3.3512342E0,6.2950654E0,5.2581005E0,7.453683E0,-1.7233633E-1,-1.2115188E-1,-8.7165035E-2,-1.3611025E-1,-1.2072208E-1,-5.5161156E-2,-1.3217048E-1,-7.131847E-2,-5.950569E-2,-1.09387875E-1,3.3866316E-2,-4.774832E-2,3.3035866E-4,-5.1538378E-2,5.1931556E-2,-4.1846614E-3,-3.5558593E-2,3.1594583E-1,1.0258567E-1,3.3854745E-2,8.598665E-2,1.3846783E-1,-7.170502E-2,2.504816E-1,1.7173715E-1,2.1402126E-2,-1.5465632E-1,3.5552195E-1,3.3148384E-1,2.3842926E-1,3.6549263E-2,3.8436446E-1],"categories":[],"categories_nodes":[],"categories_segments":[],"categories_sizes":[],"default_left":[0,0,0,0,0,0,0,0,0,0,0,0,0,0,0,0,0,0,0,0,0,0,0,0,0,0,0,0,0,0,0,0,0,0,0,0,0,0,0,0,0,0,0,0,0,0,0,0,0,0,0,0,0,0,0,0,0,0,0,0,0,0,0],"id":19,"left_children":[1,3,5,7,9,11,13,15,17,19,21,23,25,27,29,31,33,35,37,39,41,43,45,47,49,51,53,55,57,59,61,-1,-1,-1,-1,-1,-1,-1,-1,-1,-1,-1,-1,-1,-1,-1,-1,-1,-1,-1,-1,-1,-1,-1,-1,-1,-1,-1,-1,-1,-1,-1,-1],"loss_changes":[1.0826865E5,1.285641E4,1.6565703E4,1.099125E3,2.3842544E3,2.1422139E3,5.0763594E3,3.7039844E2,4.7620703E2,5.379463E2,5.083134E2,4.8769385E2,9.461211E2,6.512363E2,1.2193633E3,2.3804297E2,2.744131E2,2.6823535E2,2.5964453E2,3.616289E2,6.100097E2,5.095326E2,5.5012964E2,4.289171E2,6.819403E2,5.061211E2,4.070798E2,6.118379E2,6.271311E2,8.4947266E2,5.023672E2,0E0,0E0,0E0,0E0,0E0,0E0,0E0,0E0,0E0,0E0,0E0,0E0,0E0,0E0,0E0,0E0,0E0,0E0,0E0,0E0,0E0,0E0,0E0,0E0,0E0,0E0,0E0,0E0,0E0,0E0,0E0,0E0],"parents":[2147483647,0,0,1,1,2,2,3,3,4,4,5,5,6,6,7,7,8,8,9,9,10,10,11,11,12,12,13,13,14,14,15,15,16,16,17,17,18,18,19,19,20,20,21,21,22,22,23,23,24,24,25,25,26,26,27,27,28,28,29,29,30,30],"right_children":[2,4,6,8,10,12,14,16,18,20,22,24,26,28,30,32,34,36,38,40,42,44,46,48,50,52,54,56,58,60,62,-1,-1,-1,-1,-1,-1,-1,-1,-1,-1,-1,-1,-1,-1,-1,-1,-1,-1,-1,-1,-1,-1,-1,-1,-1,-1,-1,-1,-1,-1,-1,-1],"split_conditions":[1.42E1,7.9E0,1.98E1,5.2E0,1.0944445E1,1.6043478E1,2.4357143E1,3.96E0,7.0793653E0,3.2E0,3.4567901E-1,-2.6E0,5E0,6.3366336E-1,3.08E1,3.749074E0,1E0,4.039088E-1,5.3333335E0,3E0,-3.8E0,3.258E-1,4.036E-1,4.7284344E-1,4.356E-1,8.1911266E-2,7.2E0,6.117647E-1,1.6E1,2E0,1.6142857E1,-1.7233633E-1,-1.2115188E-1,-8.7165035E-2,-1.3611025E-1,-1.2072208E-1,-5.5161156E-2,-1.3217048E-1,-7.131847E-2,-5.950569E-2,-1.09387875E-1,3.3866316E-2,-4.774832E-2,3.3035866E-4,-5.1538378E-2,5.1931556E-2,-4.1846614E-3,-3.5558593E-2,3.1594583E-1,1.0258567E-1,3.3854745E-2,8.598665E-2,1.3846783E-1,-7.170502E-2,2.504816E-1,1.7173715E-1,2.1402126E-2,-1.5465632E-1,3.5552195E-1,3.3148384E-1,2.3842926E-1,3.6549263E-2,3.8436446E-1],"split_indices":[1,1,1,0,2,2,2,2,2,19,11,4,6,11,0,3,6,11,20,6,25,16,15,11,15,12,19,11,20,17,20,0,0,0,0,0,0,0,0,0,0,0,0,0,0,0,0,0,0,0,0,0,0,0,0,0,0,0,0,0,0,0,0],"split_type":[0,0,0,0,0,0,0,0,0,0,0,0,0,0,0,0,0,0,0,0,0,0,0,0,0,0,0,0,0,0,0,0,0,0,0,0,0,0,0,0,0,0,0,0,0,0,0,0,0,0,0,0,0,0,0,0,0,0,0,0,0,0,0],"sum_hessian":[2.5159E4,1.6591E4,8.568E3,7.585E3,9.006E3,4.341E3,4.227E3,3.621E3,3.964E3,5.066E3,3.94E3,2.212E3,2.129E3,2.591E3,1.636E3,1.417E3,2.204E3,2.526E3,1.438E3,3.895E3,1.171E3,1.923E3,2.017E3,2.52E2,1.96E3,2.029E3,1E2,2.513E3,7.8E1,1.313E3,3.23E2,1.116E3,3.01E2,3.48E2,1.856E3,2.356E3,1.7E2,2.06E2,1.232E3,3.488E3,4.07E2,3.11E2,8.6E2,1.083E3,8.4E2,6.38E2,1.379E3,2.44E2,8E0,4.77E2,1.483E3,7.2E2,1.309E3,9E1,1E1,2.443E3,7E1,6E0,7.2E1,3.42E2,9.71E2,1.1E1,3.12E2],"tree_param":{"num_deleted":"0","num_feature":"26","num_nodes":"63","size_leaf_vector":"1"}},{"base_weights":[-3.4374148E-2,-1.3486767E0,2.8245833E0,-2.2296486E0,-4.4511274E-1,1.7292306E0,4.2654696E0,-2.5820253E0,-1.660279E0,-7.8728235E-1,2.3297787E-1,1.3242973E0,2.7814996E0,3.744148E0,5.7250686E0,-3.5356476E0,-2.4412382E0,-1.8738159E0,-8.6951786E-1,-1.0838389E0,-2.911971E-1,5.191866E-2,1.0079921E0,5.3871334E-1,1.6759652E0,2.5633695E0,5.2040057E0,1.8815479E0,3.9726603E0,3.0653245E0,6.047737E0,-1.816487E-1,-8.3328225E-2,-1.2732793E-1,-7.351247E-2,-1.85685E-1,-9.060719E-2,-4.631206E-2,4.6743494E-1,-4.7422525E-2,-1.17345214E-1,-1.9994192E-2,8.945643E-2,-8.0817435E-3,4.3960106E-2,2.0604627E-1,3.1916674E-2,5.664863E-4,6.832981E-2,-1.8585481E-1,8.6435005E-2,1.0958524E-1,1.701047E-1,5.420457E-1,2.0914482E-1,1.9994757E-1,5.3027242E-2,1.9117191E-1,2.8505924E-1,9.9686086E-2,3.1634226E-1,2.4481411E-1,3.3768654E-1],"categories":[],"categories_nodes":[],"categories_segments":[],"categories_sizes":[],"default_left":[0,0,0,0,0,1,0,0,0,0,1,0,0,0,0,0,0,0,0,0,0,0,0,0,1,0,0,0,0,0,0,0,0,0,0,0,0,0,0,0,0,0,0,0,0,0,0,0,0,0,0,0,0,0,0,0,0,0,0,0,0,0,0],"id":20,"left_children":[1,3,5,7,9,11,13,15,17,19,21,23,25,27,29,31,33,35,37,39,41,43,45,47,49,51,53,55,57,59,61,-1,-1,-1,-1,-1,-1,-1,-1,-1,-1,-1,-1,-1,-1,-1,-1,-1,-1,-1,-1,-1,-1,-1,-1,-1,-1,-1,-1,-1,-1,-1,-1],"loss_changes":[9.428021E4,1.3681434E4,1.2463582E4,1.7413945E3,1.9694094E3,1.9095156E3,2.573875E3,7.1226953E2,5.603887E2,8.2943555E2,3.993426E2,8.95354E2,6.448252E2,1.0632422E3,7.495117E2,1.1875098E2,4.750664E2,2.9012207E2,4.1934045E2,6.010908E2,4.7810785E2,4.0814328E2,6.171334E2,4.386417E2,6.4357275E2,3.492202E2,5.402532E2,4.7678833E2,5.5528125E2,3.3256445E2,6.1447656E2,0E0,0E0,0E0,0E0,0E0,0E0,0E0,0E0,0E0,0E0,0E0,0E0,0E0,0E0,0E0,0E0,0E0,0E0,0E0,0E0,0E0,0E0,0E0,0E0,0E0,0E0,0E0,0E0,0E0,0E0,0E0,0E0],"parents":[2147483647,0,0,1,1,2,2,3,3,4,4,5,5,6,6,7,7,8,8,9,9,10,10,11,11,12,12,13,13,14,14,15,15,16,16,17,17,18,18,19,19,20,20,21,21,22,22,23,23,24,24,25,25,26,26,27,27,28,28,29,29,30,30],"right_children":[2,4,6,8,10,12,14,16,18,20,22,24,26,28,30,32,34,36,38,40,42,44,46,48,50,52,54,56,58,60,62,-1,-1,-1,-1,-1,-1,-1,-1,-1,-1,-1,-1,-1,-1,-1,-1,-1,-1,-1,-1,-1,-1,-1,-1,-1,-1,-1,-1,-1,-1,-1,-1],"split_conditions":[1.4131313E1,8.6E0,2.0789474E1,6.5833335E0,1.1958333E1,1.485E1,2.6511906E1,2.7777777E0,2.5E1,1.12E1,1.15E1,1.52E1,2.55E1,1.93E1,6.686567E-1,6.75E0,8.2E0,1E0,3.68E1,3E0,3.52E1,1.1872146E-1,8.5E0,8.66426E-2,5.7E0,6.38796E-1,1.52E1,2.1108334E1,2.4161074E-1,1.2933333E1,5.8E0,-1.816487E-1,-8.3328225E-2,-1.2732793E-1,-7.351247E-2,-1.85685E-1,-9.060719E-2,-4.631206E-2,4.6743494E-1,-4.7422525E-2,-1.17345214E-1,-1.9994192E-2,8.945643E-2,-8.0817435E-3,4.3960106E-2,2.0604627E-1,3.1916674E-2,5.664863E-4,6.832981E-2,-1.8585481E-1,8.6435005E-2,1.0958524E-1,1.701047E-1,5.420457E-1,2.0914482E-1,1.9994757E-1,5.3027242E-2,1.9117191E-1,2.8505924E-1,9.9686086E-2,3.1634226E-1,2.4481411E-1,3.3768654E-1],"split_indices":[2,1,2,2,2,23,2,2,9,1,23,1,20,1,13,23,0,18,9,6,10,12,20,12,23,14,23,2,12,21,19,0,0,0,0,0,0,0,0,0,0,0,0,0,0,0,0,0,0,0,0,0,0,0,0,0,0,0,0,0,0,0,0],"split_type":[0,0,0,0,0,0,0,0,0,0,0,0,0,0,0,0,0,0,0,0,0,0,0,0,0,0,0,0,0,0,0,0,0,0,0,0,0,0,0,0,0,0,0,0,0,0,0,0,0,0,0,0,0,0,0,0,0,0,0,0,0,0,0],"sum_hessian":[2.5089E4,1.7188E4,7.901E3,8.702E3,8.486E3,4.49E3,3.411E3,5.373E3,3.329E3,5.64E3,2.846E3,3.244E3,1.246E3,2.516E3,8.95E2,6.88E2,4.685E3,2.62E3,7.09E2,3.529E3,2.111E3,2.308E3,5.38E2,1.004E3,2.24E3,1.145E3,1.01E2,2.76E2,2.24E3,9.8E1,7.97E2,6.53E2,3.5E1,4.225E3,4.6E2,8.3E1,2.537E3,7.06E2,3E0,3.189E3,3.4E2,2.007E3,1.04E2,1.835E3,4.73E2,5.6E1,4.82E2,6.14E2,3.9E2,2.1E1,2.219E3,7.96E2,3.49E2,1.4E1,8.7E1,7.6E1,2E2,2.065E3,1.75E2,7.5E1,2.3E1,3.06E2,4.91E2],"tree_param":{"num_deleted":"0","num_feature":"26","num_nodes":"63","size_leaf_vector":"1"}},{"base_weights":[-9.420834E-3,-1.3339384E0,2.578699E0,-2.274489E0,-6.87968E-1,1.9437339E0,4.8265433E0,-2.5683138E0,-1.8957864E0,-1.1001092E0,1.3904002E-2,1.2202488E0,2.7918608E0,4.4602113E0,6.9994125E0,-2.7003188E0,-1.7925575E0,-1.2102846E0,-2.0213675E0,-1.328367E0,-6.2793505E-1,-3.6335486E-1,5.1576847E-1,7.471481E-1,1.8035167E0,2.4577446E0,3.4910147E0,3.1792681E0,4.6867833E0,1.221816E0,7.4833145E0,-1.3839696E-1,-6.638308E-2,-1.4006636E-1,-6.256022E-2,-6.895158E-2,2.3581815E-1,-1.2685104E-1,-8.957803E-2,-7.519937E-2,-4.6917528E-2,-1.5803039E-1,-2.6455292E-2,-3.193206E-2,1.8423557E-2,-8.165505E-2,3.316147E-2,2.326013E-2,9.877563E-2,9.150821E-2,-4.6540043E-1,-3.2070197E-2,1.2744285E-1,-3.0305457E-1,1.7729625E-1,-3.8064245E-2,1.8255146E-1,2.4001066E-1,7.008223E-2,-6.806206E-2,2.9624107E-1,3.941154E-1,1.6165324E-1],"categories":[],"categories_nodes":[],"categories_segments":[],"categories_sizes":[],"default_left":[0,0,0,0,1,0,0,0,0,0,0,1,0,0,0,0,0,0,0,0,1,0,0,0,0,0,0,0,0,0,0,0,0,0,0,0,0,0,0,0,0,0,0,0,0,0,0,0,0,0,0,0,0,0,0,0,0,0,0,0,0,0,0],"id":21,"left_children":[1,3,5,7,9,11,13,15,17,19,21,23,25,27,29,31,33,35,37,39,41,43,45,47,49,51,53,55,57,59,61,-1,-1,-1,-1,-1,-1,-1,-1,-1,-1,-1,-1,-1,-1,-1,-1,-1,-1,-1,-1,-1,-1,-1,-1,-1,-1,-1,-1,-1,-1,-1,-1],"loss_changes":[8.632746E4,1.0119004E4,1.2157695E4,7.4933203E2,2.8572466E3,4.0760645E3,1.4617109E3,3.8548242E2,2.5264746E2,6.696699E2,6.9221405E2,9.890386E2,7.056367E2,4.512871E2,7.420537E2,2.9841602E2,3.0081372E2,4.6821826E2,2.9198438E2,2.8561133E2,5.0607184E2,4.2071286E2,4.9816162E2,6.8595935E2,4.9211084E2,5.8746094E2,5.3892773E2,4.5852344E2,5.0129883E2,2.7578036E2,3.9396875E2,0E0,0E0,0E0,0E0,0E0,0E0,0E0,0E0,0E0,0E0,0E0,0E0,0E0,0E0,0E0,0E0,0E0,0E0,0E0,0E0,0E0,0E0,0E0,0E0,0E0,0E0,0E0,0E0,0E0,0E0,0E0,0E0],"parents":[2147483647,0,0,1,1,2,2,3,3,4,4,5,5,6,6,7,7,8,8,9,9,10,10,11,11,12,12,13,13,14,14,15,15,16,16,17,17,18,18,19,19,20,20,21,21,22,22,23,23,24,24,25,25,26,26,27,27,28,28,29,29,30,30],"right_children":[2,4,6,8,10,12,14,16,18,20,22,24,26,28,30,32,34,36,38,40,42,44,46,48,50,52,54,56,58,60,62,-1,-1,-1,-1,-1,-1,-1,-1,-1,-1,-1,-1,-1,-1,-1,-1,-1,-1,-1,-1,-1,-1,-1,-1,-1,-1,-1,-1,-1,-1,-1,-1],"split_conditions":[1.42E1,7.4E0,2.35E1,5.568182E0,8.8E0,1.806579E1,2.506964E-1,1.5E0,1E0,2.74E1,1.035E1,1.25E1,1.5805471E-1,1.0526316E-1,7.2328764E-1,3.9779004E-1,2.4924012E-1,1.6142857E1,2.3529412E-1,1E1,5.05E0,1.3E1,3.7771242E0,1.4634146E-1,6.3366336E-1,2.83E1,2.36E1,1.0133333E1,7E0,9.55E0,1.37E1,-1.3839696E-1,-6.638308E-2,-1.4006636E-1,-6.256022E-2,-6.895158E-2,2.3581815E-1,-1.2685104E-1,-8.957803E-2,-7.519937E-2,-4.6917528E-2,-1.5803039E-1,-2.6455292E-2,-3.193206E-2,1.8423557E-2,-8.165505E-2,3.316147E-2,2.326013E-2,9.877563E-2,9.150821E-2,-4.6540043E-1,-3.2070197E-2,1.2744285E-1,-3.0305457E-1,1.7729625E-1,-3.8064245E-2,1.8255146E-1,2.4001066E-1,7.008223E-2,-6.806206E-2,2.9624107E-1,3.941154E-1,1.6165324E-1],"split_indices":[1,1,2,2,23,2,12,4,6,9,23,23,12,12,14,11,11,20,11,2,23,0,3,12,11,10,9,21,6,22,21,0,0,0,0,0,0,0,0,0,0,0,0,0,0,0,0,0,0,0,0,0,0,0,0,0,0,0,0,0,0,0,0],"split_type":[0,0,0,0,0,0,0,0,0,0,0,0,0,0,0,0,0,0,0,0,0,0,0,0,0,0,0,0,0,0,0,0,0,0,0,0,0,0,0,0,0,0,0,0,0,0,0,0,0,0,0,0,0,0,0,0,0,0,0,0,0,0,0],"sum_hessian":[2.5181E4,1.6657E4,8.524E3,6.781E3,9.876E3,6.648E3,1.876E3,3.815E3,2.966E3,6.222E3,3.654E3,3.589E3,3.059E3,1.608E3,2.68E2,3.258E3,5.57E2,4.61E2,2.505E3,4.193E3,2.029E3,2.086E3,1.568E3,1.983E3,1.606E3,2.073E3,9.86E2,2.44E2,1.364E3,2.1E1,2.47E2,3.104E3,1.54E2,1.93E2,3.64E2,4.49E2,1.2E1,7.69E2,1.736E3,2.889E3,1.304E3,7.5E1,1.954E3,1.516E3,5.7E2,1E2,1.468E3,1.614E3,3.69E2,1.603E3,3E0,5.9E1,2.014E3,5E0,9.81E2,2.6E1,2.18E2,1.318E3,4.6E1,1.4E1,7E0,2.25E2,2.2E1],"tree_param":{"num_deleted":"0","num_feature":"26","num_nodes":"63","size_leaf_vector":"1"}},{"base_weights":[-1.7148994E-2,-1.2420367E0,2.5231385E0,-2.022048E0,-4.698081E-1,1.6407485E0,3.9978218E0,-2.552602E0,-1.6419898E0,-8.056096E-1,2.3115484E-1,1.2053045E0,2.6037974E0,3.6112192E0,5.3634744E0,-2.9861813E0,-2.3751063E0,-1.7321551E0,-4.7078028E-1,-1.2477185E0,-4.0489122E-1,-4.7779304E-1,6.2600374E-1,5.5392545E-1,1.7127692E0,2.5510786E0,8.823463E0,3.1581225E0,4.2024355E0,5.7511377E0,2.5279589E0,-1.5505813E-1,-6.2291015E-2,-1.1107466E-1,-1.5460806E-1,-8.214713E-2,-1.3273932E-1,-1.8559366E-1,-6.28544E-3,-3.1351044E-3,-6.726193E-2,5.7027586E-2,-2.4740273E-2,-1.77173E-1,-1.5034439E-2,3.6652815E-2,-8.742473E-2,4.7623636E-3,6.614026E-2,5.280126E-2,1.1206464E-1,1.3303566E-1,-4.7234935E-3,5.213473E-1,2.599122E-1,4.7555542E-1,1.5376703E-1,1.8839875E-1,2.9217398E-1,2.5853166E-1,3.6930573E-1,-1.0570029E-1,2.2268705E-1],"categories":[],"categories_nodes":[],"categories_segments":[],"categories_sizes":[],"default_left":[0,0,0,0,0,0,0,0,0,0,0,0,0,0,0,0,0,0,0,0,0,0,0,1,0,0,0,0,0,0,0,0,0,0,0,0,0,0,0,0,0,0,0,0,0,0,0,0,0,0,0,0,0,0,0,0,0,0,0,0,0,0,0],"id":22,"left_children":[1,3,5,7,9,11,13,15,17,19,21,23,25,27,29,31,33,35,37,39,41,43,45,47,49,51,53,55,57,59,61,-1,-1,-1,-1,-1,-1,-1,-1,-1,-1,-1,-1,-1,-1,-1,-1,-1,-1,-1,-1,-1,-1,-1,-1,-1,-1,-1,-1,-1,-1,-1,-1],"loss_changes":[7.8430055E4,1.0242318E4,1.0663094E4,1.7012734E3,2.012074E3,2.1486055E3,1.6000586E3,2.6395898E2,5.1979395E2,1.0231438E3,7.754326E2,1.1676558E3,5E2,6.275625E2,7.266094E2,2.000127E2,2.689629E2,3.7210742E2,3.950663E2,3.1722607E2,4.2195724E2,5.366063E2,4.5339478E2,5.4636816E2,6.870005E2,4.6022754E2,1.9804321E1,6.8473145E2,7.156543E2,5.233789E2,7.516204E2,0E0,0E0,0E0,0E0,0E0,0E0,0E0,0E0,0E0,0E0,0E0,0E0,0E0,0E0,0E0,0E0,0E0,0E0,0E0,0E0,0E0,0E0,0E0,0E0,0E0,0E0,0E0,0E0,0E0,0E0,0E0,0E0],"parents":[2147483647,0,0,1,1,2,2,3,3,4,4,5,5,6,6,7,7,8,8,9,9,10,10,11,11,12,12,13,13,14,14,15,15,16,16,17,17,18,18,19,19,20,20,21,21,22,22,23,23,24,24,25,25,26,26,27,27,28,28,29,29,30,30],"right_children":[2,4,6,8,10,12,14,16,18,20,22,24,26,28,30,32,34,36,38,40,42,44,46,48,50,52,54,56,58,60,62,-1,-1,-1,-1,-1,-1,-1,-1,-1,-1,-1,-1,-1,-1,-1,-1,-1,-1,-1,-1,-1,-1,-1,-1,-1,-1,-1,-1,-1,-1,-1,-1],"split_conditions":[1.3925926E1,8.4E0,2.1442308E1,4.65E0,1.28E1,4.6831957E-1,2.709756E1,2.5081432E-1,1.1E1,9.5E0,8.85E0,8.615384E-2,1.74E1,5.6E0,4.2E0,5.8E0,3.706E-1,1.075E1,7.6E0,3.534E-1,3.358E-1,2.3952097E-2,5E0,1.36E1,3.4E0,6E0,4.2E0,3.6649215E-1,2.76E1,3.25E1,4.536E-1,-1.5505813E-1,-6.2291015E-2,-1.1107466E-1,-1.5460806E-1,-8.214713E-2,-1.3273932E-1,-1.8559366E-1,-6.28544E-3,-3.1351044E-3,-6.726193E-2,5.7027586E-2,-2.4740273E-2,-1.77173E-1,-1.5034439E-2,3.6652815E-2,-8.742473E-2,4.7623636E-3,6.614026E-2,5.280126E-2,1.1206464E-1,1.3303566E-1,-4.7234935E-3,5.213473E-1,2.599122E-1,4.7555542E-1,1.5376703E-1,1.8839875E-1,2.9217398E-1,2.5853166E-1,3.6930573E-1,-1.0570029E-1,2.2268705E-1],"split_indices":[2,0,2,23,0,11,2,14,2,2,23,12,25,19,17,0,16,22,22,15,15,12,6,23,19,6,19,11,0,20,15,0,0,0,0,0,0,0,0,0,0,0,0,0,0,0,0,0,0,0,0,0,0,0,0,0,0,0,0,0,0,0,0],"split_type":[0,0,0,0,0,0,0,0,0,0,0,0,0,0,0,0,0,0,0,0,0,0,0,0,0,0,0,0,0,0,0,0,0,0,0,0,0,0,0,0,0,0,0,0,0,0,0,0,0,0,0,0,0,0,0,0,0,0,0,0,0,0,0],"sum_hessian":[2.5204E4,1.7005E4,8.199E3,8.459E3,8.546E3,5.131E3,3.068E3,3.528E3,4.931E3,5.778E3,2.768E3,3.535E3,1.596E3,2.394E3,6.74E2,1.02E3,2.508E3,4.578E3,3.53E2,2.746E3,3.032E3,9.9E2,1.778E3,1.549E3,1.986E3,1.584E3,1.2E1,1.359E3,1.035E3,5.92E2,8.2E1,9.56E2,6.4E1,2.069E3,4.39E2,4.177E3,4.01E2,3.3E1,3.2E2,2.09E2,2.537E3,1.66E2,2.866E3,5.3E1,9.37E2,1.702E3,7.6E1,9.71E2,5.78E2,8.87E2,1.099E3,1.521E3,6.3E1,7E0,5E0,1.6E1,1.343E3,8.21E2,2.14E2,4.4E2,1.52E2,2.4E1,5.8E1],"tree_param":{"num_deleted":"0","num_feature":"26","num_nodes":"63","size_leaf_vector":"1"}},{"base_weights":[-2.0626493E-2,-1.091246E0,2.6148243E0,-1.7397176E0,-1.6180502E-1,1.6920782E0,3.7485726E0,-2.1056008E0,-1.144404E0,-7.024256E-1,2.4760672E-1,1.1871222E0,2.3487961E0,3.4763749E0,6.184917E0,-2.6341474E0,-1.9304038E0,-7.3705626E-1,-1.4577938E0,-1.3016287E0,-4.8810005E-1,3.4472328E-2,1.0432209E0,1.2328095E0,-4.9424887E0,2.083439E-2,2.493246E0,3.1630263E0,4.620638E0,7.7033834E0,4.719112E0,-1.6022156E-1,-1.2372173E-1,-1.0171916E-1,-5.9654143E-2,-6.284721E-2,-1.5658764E-2,-8.207177E-2,-2.5606105E-2,-2.3481188E-2,-8.423176E-2,-2.6263887E-2,2.309662E-1,-4.066135E-2,8.325213E-3,8.370014E-2,7.731743E-3,3.3218544E-2,8.624592E-2,-4.4022117E-2,-3.0584654E-1,-1.5715218E-1,9.997476E-2,9.513717E-2,1.5505011E-1,1.9501536E-1,1.3917898E-1,5.56584E-3,2.4467874E-1,-4.6299372E-2,4.1758442E-1,-4.974425E-2,2.7250922E-1],"categories":[],"categories_nodes":[],"categories_segments":[],"categories_sizes":[],"default_left":[0,0,0,0,1,0,0,0,0,0,0,0,0,0,0,0,0,0,0,0,0,0,0,0,0,0,0,0,0,0,0,0,0,0,0,0,0,0,0,0,0,0,0,0,0,0,0,0,0,0,0,0,0,0,0,0,0,0,0,0,0,0,0],"id":23,"left_children":[1,3,5,7,9,11,13,15,17,19,21,23,25,27,29,31,33,35,37,39,41,43,45,47,49,51,53,55,57,59,61,-1,-1,-1,-1,-1,-1,-1,-1,-1,-1,-1,-1,-1,-1,-1,-1,-1,-1,-1,-1,-1,-1,-1,-1,-1,-1,-1,-1,-1,-1,-1,-1],"loss_changes":[7.113435E4,1.0805021E4,7.6123086E3,2.2973984E3,1.6312476E3,1.3289502E3,2.1441016E3,5.9996875E2,5.121489E2,4.0706213E2,7.1104443E2,6.422656E2,5.864951E2,1.0391094E3,6.902334E2,1.3950977E2,3.7406445E2,3.8531818E2,3.9350977E2,2.6539587E2,4.4653107E2,3.704252E2,4.9616473E2,6.2997363E2,7.50155E1,6.509749E2,5.832412E2,6.352793E2,7.74333E2,8.9799414E2,7.118391E2,0E0,0E0,0E0,0E0,0E0,0E0,0E0,0E0,0E0,0E0,0E0,0E0,0E0,0E0,0E0,0E0,0E0,0E0,0E0,0E0,0E0,0E0,0E0,0E0,0E0,0E0,0E0,0E0,0E0,0E0,0E0,0E0],"parents":[2147483647,0,0,1,1,2,2,3,3,4,4,5,5,6,6,7,7,8,8,9,9,10,10,11,11,12,12,13,13,14,14,15,15,16,16,17,17,18,18,19,19,20,20,21,21,22,22,23,23,24,24,25,25,26,26,27,27,28,28,29,29,30,30],"right_children":[2,4,6,8,10,12,14,16,18,20,22,24,26,28,30,32,34,36,38,40,42,44,46,48,50,52,54,56,58,60,62,-1,-1,-1,-1,-1,-1,-1,-1,-1,-1,-1,-1,-1,-1,-1,-1,-1,-1,-1,-1,-1,-1,-1,-1,-1,-1,-1,-1,-1,-1,-1,-1],"split_conditions":[1.5098765E1,9.285714E0,2.14E1,7.4E0,8.8E0,1.8421686E1,3.25E1,3.4E0,2.966E-1,9.2E0,1.6E1,1.8E1,9.433333E0,2.82E1,3.588E-1,2.25E0,7.549296E0,2.28E1,1.26E1,3.1111112E-1,5.2012384E-1,2.24E1,5.158E-1,3.12E1,1.18E1,1.9E1,4.5820433E-1,3.166E-1,3.2E0,9.433333E0,4.6831957E-1,-1.6022156E-1,-1.2372173E-1,-1.0171916E-1,-5.9654143E-2,-6.284721E-2,-1.5658764E-2,-8.207177E-2,-2.5606105E-2,-2.3481188E-2,-8.423176E-2,-2.6263887E-2,2.309662E-1,-4.066135E-2,8.325213E-3,8.370014E-2,7.731743E-3,3.3218544E-2,8.624592E-2,-4.4022117E-2,-3.0584654E-1,-1.5715218E-1,9.997476E-2,9.513717E-2,1.5505011E-1,1.9501536E-1,1.3917898E-1,5.56584E-3,2.4467874E-1,-4.6299372E-2,4.1758442E-1,-4.974425E-2,2.7250922E-1],"split_indices":[2,2,1,1,23,2,20,0,16,1,0,25,21,0,16,2,2,9,0,14,11,9,15,9,23,1,11,16,19,21,11,0,0,0,0,0,0,0,0,0,0,0,0,0,0,0,0,0,0,0,0,0,0,0,0,0,0,0,0,0,0,0,0],"split_type":[0,0,0,0,0,0,0,0,0,0,0,0,0,0,0,0,0,0,0,0,0,0,0,0,0,0,0,0,0,0,0,0,0,0,0,0,0,0,0,0,0,0,0,0,0,0,0,0,0,0,0,0,0,0,0,0,0,0,0,0,0,0,0],"sum_hessian":[2.5209E4,1.7927E4,7.282E3,1.0559E4,7.368E3,4.016E3,3.266E3,6.538E3,4.021E3,3.175E3,4.193E3,2.272E3,1.744E3,2.94E3,3.26E2,1.624E3,4.914E3,1.75E3,2.271E3,8.35E2,2.34E3,3.308E3,8.85E2,2.256E3,1.6E1,1.02E2,1.642E3,2.311E3,6.29E2,1.58E2,1.68E2,3.51E2,1.273E3,4.305E3,6.09E2,7.85E2,9.65E2,1.901E3,3.7E2,2.64E2,5.71E2,2.324E3,1.6E1,4.45E2,2.863E3,5.17E2,3.68E2,1.048E3,1.208E3,4E0,1.2E1,3.9E1,6.3E1,8.35E2,8.07E2,7.82E2,1.529E3,3.6E1,5.93E2,1.1E1,1.47E2,1.9E1,1.49E2],"tree_param":{"num_deleted":"0","num_feature":"26","num_nodes":"63","size_leaf_vector":"1"}},{"base_weights":[3.9270297E-3,-9.29131E-1,2.7888227E0,-1.5524689E0,9.443019E-2,2.176187E0,4.486636E0,-1.9634008E0,-9.8411274E-1,-2.5901917E-1,5.6851214E-1,1.4226648E0,2.7462296E0,4.172086E0,6.0220623E0,-2.095511E0,-9.217042E-1,-1.1209987E0,7.335801E-2,-5.817061E-1,6.946292E-2,-5.217235E-2,9.732136E-1,9.600697E-1,1.8828241E0,2.5787165E0,4.053846E0,3.625073E0,5.1298347E0,7.453287E0,4.0988975E0,-1.1901394E-1,-8.599792E-2,-1.23805E-1,-3.3191804E-2,-6.2790014E-2,-6.9535687E-4,-9.506623E-3,1.2885053E-1,-3.0562803E-2,3.5456568E-1,-4.757821E-3,7.455537E-2,-8.424492E-3,1.6287269E-1,-1.1777972E-2,6.529184E-2,4.2235505E-2,1.9731794E-1,1.1137064E-1,1.0607898E-2,1.304077E-1,-1.9557421E-1,1.1026992E-1,2.492549E-1,2.1664801E-1,1.2930347E-1,3.0628663E-1,1.8149395E-1,2.1223386E-1,4.0195295E-1,1.4293434E-1,3.4507927E-1],"categories":[],"categories_nodes":[],"categories_segments":[],"categories_sizes":[],"default_left":[0,0,0,0,0,0,0,0,0,0,0,0,0,0,0,0,0,0,0,0,0,0,0,0,0,0,0,0,0,0,0,0,0,0,0,0,0,0,0,0,0,0,0,0,0,0,0,0,0,0,0,0,0,0,0,0,0,0,0,0,0,0,0],"id":24,"left_children":[1,3,5,7,9,11,13,15,17,19,21,23,25,27,29,31,33,35,37,39,41,43,45,47,49,51,53,55,57,59,61,-1,-1,-1,-1,-1,-1,-1,-1,-1,-1,-1,-1,-1,-1,-1,-1,-1,-1,-1,-1,-1,-1,-1,-1,-1,-1,-1,-1,-1,-1,-1,-1],"loss_changes":[6.556216E4,1.2058319E4,6.575746E3,2.7411172E3,1.1989309E3,1.9951816E3,7.8427734E2,9.3577344E2,7.1396387E2,4.345728E2,7.677855E2,4.251328E2,5.691289E2,7.1189453E2,7.472471E2,6.4230273E2,3.062799E2,6.5142676E2,3.741124E2,4.7257947E2,4.7583078E2,4.6489557E2,7.442362E2,3.4171796E2,5.77855E2,4.5924512E2,5.0297656E2,6.44167E2,7.311592E2,2.6725098E2,4.0683325E2,0E0,0E0,0E0,0E0,0E0,0E0,0E0,0E0,0E0,0E0,0E0,0E0,0E0,0E0,0E0,0E0,0E0,0E0,0E0,0E0,0E0,0E0,0E0,0E0,0E0,0E0,0E0,0E0,0E0,0E0,0E0,0E0],"parents":[2147483647,0,0,1,1,2,2,3,3,4,4,5,5,6,6,7,7,8,8,9,9,10,10,11,11,12,12,13,13,14,14,15,15,16,16,17,17,18,18,19,19,20,20,21,21,22,22,23,23,24,24,25,25,26,26,27,27,28,28,29,29,30,30],"right_children":[2,4,6,8,10,12,14,16,18,20,22,24,26,28,30,32,34,36,38,40,42,44,46,48,50,52,54,56,58,60,62,-1,-1,-1,-1,-1,-1,-1,-1,-1,-1,-1,-1,-1,-1,-1,-1,-1,-1,-1,-1,-1,-1,-1,-1,-1,-1,-1,-1,-1,-1,-1,-1],"split_conditions":[1.68E1,1.0153846E1,2.4357143E1,2.12E1,1.32E1,1.9E1,3.25E1,4.039088E-1,3.6512262E-1,1E0,2.4E0,1E0,7.692308E-1,1.22E1,3E0,5.744186E0,1E0,3.18E1,2.94E1,1.8617647E1,1.7114754E1,5.3781515E-1,2.8E1,1.14E1,2E1,5E0,5.520362E-1,8.9E0,1.31E1,5.546771E0,7.8E0,-1.1901394E-1,-8.599792E-2,-1.23805E-1,-3.3191804E-2,-6.2790014E-2,-6.9535687E-4,-9.506623E-3,1.2885053E-1,-3.0562803E-2,3.5456568E-1,-4.757821E-3,7.455537E-2,-8.424492E-3,1.6287269E-1,-1.1777972E-2,6.529184E-2,4.2235505E-2,1.9731794E-1,1.1137064E-1,1.0607898E-2,1.304077E-1,-1.9557421E-1,1.1026992E-1,2.492549E-1,2.1664801E-1,1.2930347E-1,3.0628663E-1,1.8149395E-1,2.1223386E-1,4.0195295E-1,1.4293434E-1,3.4507927E-1],"split_indices":[1,2,2,9,1,2,20,11,11,5,19,5,13,21,17,2,18,9,10,2,20,11,9,22,20,17,11,22,21,3,18,0,0,0,0,0,0,0,0,0,0,0,0,0,0,0,0,0,0,0,0,0,0,0,0,0,0,0,0,0,0,0,0],"split_type":[0,0,0,0,0,0,0,0,0,0,0,0,0,0,0,0,0,0,0,0,0,0,0,0,0,0,0,0,0,0,0,0,0,0,0,0,0,0,0,0,0,0,0,0,0,0,0,0,0,0,0,0,0,0,0,0,0,0,0,0,0,0,0],"sum_hessian":[2.5229E4,1.8898E4,6.331E3,1.1745E4,7.153E3,4.654E3,1.677E3,6.815E3,4.93E3,4.098E3,3.055E3,2.006E3,2.648E3,1.395E3,2.82E2,6.047E3,7.68E2,4.365E3,5.65E2,2.067E3,2.031E3,1.206E3,1.849E3,1.002E3,1.004E3,2.35E3,2.98E2,8.91E2,5.04E2,1.6E2,1.22E2,3.436E3,2.611E3,1.08E2,6.6E2,3.891E3,4.74E2,5.12E2,5.3E1,2.06E3,7E0,1.821E3,2.1E2,1.166E3,4E1,3.99E2,1.45E3,9.66E2,3.6E1,8.32E2,1.72E2,2.34E3,1E1,1.01E2,1.97E2,5.28E2,3.63E2,3.01E2,2.03E2,2.6E1,1.34E2,8.6E1,3.6E1],"tree_param":{"num_deleted":"0","num_feature":"26","num_nodes":"63","size_leaf_vector":"1"}},{"base_weights":[-1.6587242E-2,-1.0513995E0,2.0752718E0,-1.7763717E0,-4.1005206E-1,1.2492709E0,3.3149848E0,-1.989307E0,-1.360531E0,-1.1370834E0,-1.879589E-1,6.752209E-1,1.6914804E0,2.8933878E0,4.8884063E0,-2.087791E0,-1.3840187E0,-1.3937749E0,2.908813E0,-3.0676398E-1,-1.297604E0,-4.4453937E-1,5.6255996E-1,-3.344742E-1,9.2615694E-1,-4.2943616E0,1.7164586E0,8.5205466E-1,3.032409E0,5.784566E0,